solver_type L2R_L2LOSS_SVC_DUAL
nr_class 2
label 1 -1
nr_feature 20958
bias -1
w
-9.564827377694607 
1.793455096116866 
-6.883339310601157 
5.536456889907423 
-3.588536781688612 
1.986144119647027 
0.5525221320421869 
1.821729473239936 
-4.07936664244875 
2.917600918130401 
-5.618289362631141 
0.6840452025719779 
-1.504073819648495 
0.08700723600773007 
4.375507388300869 
-0.3564535305708979 
2.175632596364304 
-3.23976473591561 
-2.207367614090843 
1.117082102654404 
1.142237326105596 
1.679621489625455 
-3.381091199245212 
1.927755982840014 
-1.225856983450782 
0.0420222957382385 
0.9328567860692569 
2.253997012595336 
1.054137936394483 
5.048439990806067 
1.329213986612182 
-1.1869017854421 
-0.007155982067115642 
-2.592248211802944 
0.3242387003900192 
-0.4939603764303189 
1.880290619275695 
1.4075524531349 
-1.825923068241567 
2.377666104601539 
-3.840827983378167 
0.8330892071301637 
4.675095411672749 
-0.2754467037742278 
0.01105562003586631 
-0.8828243161881547 
2.829366359299841 
0.3019460216117668 
-3.294710189138744 
7.058724938051009 
-2.1116454574434 
-4.307463978310979 
-2.625613096171493 
-2.063481114571348 
-2.052769014154125 
-3.35501924136929 
0.2659973640424127 
1.153854309828976 
-0.3903633253797029 
1.454097837849102 
-3.170090251856411 
1.965860357062063 
-1.626699303755128 
1.417898152977364 
-2.118708237625846 
-3.640396048218035 
-1.325325508053979 
-1.304145747441653 
-3.24651384936243 
1.941198750057018 
1.078558113137104 
1.599424622154034 
1.718922249143922 
-3.228965976845322 
0.9624229273768078 
1.317029663235171 
-2.629831905523585 
0.8219503520946599 
-1.549662355312891 
0.4399451740609375 
-2.301737261159961 
-2.276618130308536 
-2.553462519820207 
-2.875394427510876 
-1.775402015368773 
-0.341144945576563 
2.067526263748869 
-1.927812242160092 
-0.703733812186872 
0.4197916135931057 
-1.461063372361007 
0.9349498401002672 
5.603863617666202 
0.1022256709110678 
-2.699945656025705 
0.8229273798916331 
-0.8840611309652666 
-0.5263684833999771 
-1.105476212768086 
0.4051563809096397 
-2.791673143355795 
2.21478506569397 
-1.535830109670082 
2.637937889938561 
-3.63249948473309 
2.958771352466059 
0.1186306252862881 
1.006996516205375 
0.71413293033623 
-1.047993407472965 
1.454844805074722 
0.9187343079582669 
-0.4925226400482402 
-0.9324782630585721 
-2.122385897819062 
1.161817694257484 
1.760316326910788 
-1.170169338867339 
-2.046280011229416 
2.817152723029363 
-1.946309184380222 
-1.039534102581818 
1.687109063882772 
1.681372173164875 
-4.118188509184655 
0.2827224808371731 
-2.182497921530001 
0.6296921759318567 
-2.767808810832075 
1.720262031945047 
1.163471980067989 
-1.699615017536689 
1.023500283262028 
-0.7525855891621395 
2.246134374825932 
0.736882760940565 
-1.657159308929924 
-1.939486139661217 
0.7686165255611636 
-2.332780361160463 
-0.6095622748959119 
-0.02099818558540403 
-3.221624555356508 
1.474281851275793 
-1.962426470217567 
1.386171897078876 
1.363543076643707 
1.838945636838674 
0.5684274867318792 
-2.90845925389525 
-2.254857973746547 
-2.650695296196434 
-0.3006309865784851 
-3.377027809859892 
-2.966498961805161 
-3.437879278749203 
-0.986753062896534 
-2.489722119084442 
1.542861503955564 
-1.777901411802227 
2.607237874507432 
1.24940010991049 
-2.693896414844834 
1.21561683687406 
-0.1032767942945669 
-0.5706497761124131 
3.954734142261384 
0.4704847291102072 
-0.2725309145251378 
-0.3699655987481367 
-3.001713252637257 
2.47050843367525 
-2.680553504088087 
-1.33921435270174 
2.387323116649157 
0.9809358598805709 
1.060212852795527 
2.88916497158821 
3.737135372129092 
-0.7671836126692422 
2.335139855885189 
1.080467328821826 
0.2341776399064268 
-1.942478851323511 
-1.640079933586765 
-1.669182736327738 
-1.589811674013323 
0.6705393400450733 
1.615636440362456 
-0.1708852272616882 
1.209043422032553 
0.3826229160911827 
1.184207765766476 
1.189068887709694 
-0.7236997904376761 
1.144804365646351 
-0.7839963867978178 
1.123384993011007 
1.26102150650104 
2.572934284969455 
-3.726688185614514 
3.708428255374968 
-0.8687420248350753 
-2.672455922856035 
-1.199111151741055 
-2.268746055114381 
0.02576446870358121 
1.513182335174624 
1.741192439413018 
2.003044365853807 
-0.1925445335376332 
-1.502386749697398 
0.9971363319481853 
-0.8120662556873154 
-1.040288253544157 
0.9167519416807249 
1.100336521518276 
-1.334967805768572 
-2.012263954454478 
1.702384341788761 
0.3604413418497854 
0.6896126276152182 
-2.287914631284908 
1.803078783021132 
1.901115711221199 
1.019713297409178 
1.217514920671046 
-1.120539965723228 
2.761796238326589 
0.2777083567076946 
2.185800296336091 
0.6629519940913687 
-2.641602795669212 
0.3223149897226392 
1.5095375144095 
1.716245671450726 
0.6072764050423649 
-0.9402755503240453 
0.7757532012850762 
-0.8282977573390871 
-1.952887896186492 
-2.497929707101887 
0.2814251303420123 
-0.2592730057836718 
-1.803275719399707 
-0.9381146267090885 
-3.058817779758984 
-2.704820320207746 
-0.05412169159410112 
-1.611595543813564 
1.631696341732219 
-0.6855184194530668 
1.527184164352379 
0.8105653804277094 
3.025173993657072 
-2.584957504365886 
1.436773391176396 
-1.107191399465924 
-1.285835174338528 
0.2537121441383096 
-1.14875455384406 
-0.6642562837217533 
-0.0461955303555117 
-2.802004940086086 
-2.240804251063252 
-0.01426846620053387 
1.104004423496743 
0.3309641690540144 
1.768275728400087 
-2.188301089734245 
1.638040963709966 
2.184275791017046 
-0.4446955399480546 
1.731627011349474 
0.6334453566229079 
-0.958296600258308 
2.417600811527817 
1.245261578738277 
0.6261644243548886 
-0.03797320898320573 
-2.091751938061227 
0.04002549462862011 
-0.5983493255031423 
1.491767915935781 
1.65541711131277 
0.686541660466883 
0.0150739424672295 
0.5995236419302223 
-0.8562701784226191 
-1.92740500545498 
-1.760823593357748 
-0.2517430458205045 
0.6992123001259491 
1.148895275731109 
-0.500958759354302 
-1.651907354682312 
2.352378688162668 
-1.734163921321761 
-0.3593886329842463 
1.102619134582266 
1.914737165055113 
2.392811698056499 
-0.3249521466965269 
1.405187145332243 
-1.835712875246978 
-1.5652321170527 
0.01939356955944724 
1.635590290903472 
-0.302474787442268 
0.2696423270126008 
-0.5813011070745208 
-0.1333100225572021 
1.710678430563088 
0.8250307626194403 
1.282320061234759 
2.284731320522064 
0.9821798378645867 
-1.401715578750668 
0.005572654898650145 
0.8437512006219774 
-0.3956868177496145 
0.536108244021263 
0.784625744330728 
-0.405386884996987 
1.10253625478523 
-1.028321187979546 
2.434019034462239 
-0.7973803585369933 
1.168864798167322 
-0.2212812640814819 
-0.676502188204829 
2.022860545853016 
-1.678911256372424 
0.1379110969506761 
1.315282450448416 
1.086753848891127 
-1.148840766321084 
2.363816525966049 
-1.473158610559182 
0.1463086480590574 
-0.5864687483616696 
0.9741569231028814 
-0.5656154660127638 
2.648156281630438 
-1.371363405030317 
0.8450224091980453 
-1.709494428942652 
0.8356792633423257 
-0.7724263808371422 
1.419379389119139 
-2.503882484868332 
-0.1556222737999049 
-0.8266697434445053 
0.7936487704513746 
-0.6891495129940208 
2.145505548701353 
-1.068961254054169 
0.8446565477324355 
-0.5977540296313066 
2.317837641090209 
0.7623686712285901 
1.198094077235482 
-0.5347451780489756 
-0.5474004061768986 
-1.782681686247065 
3.409075481930574 
1.243123914567861 
0.8600329174722267 
1.390090401923127 
1.792452174359968 
-2.350199702854763 
0.910608344305146 
3.009932197499189 
-1.027947277079944 
3.12682764870655 
-1.706530738116161 
0.3431516812400602 
0.9728468589408367 
0.3510127634015754 
0.9880717172559718 
-0.9964579195628385 
-3.084120759826707 
-1.46722898808906 
-0.8187028819714837 
-0.5394419787925252 
1.685247937696415 
-0.4106961583120554 
-0.6923967787369456 
-0.6295409420485907 
0.8215078082872262 
1.261462124472282 
1.294461567648758 
0.9732791303425167 
-0.5657056699203884 
1.142245951094467 
0.5914475293936464 
2.839680202055776 
-0.3157650194506501 
0.2187712281926743 
-0.6999488052942832 
-1.552041680740529 
-0.8571401683099026 
2.036579877234665 
0.9705947829472323 
1.703540983615956 
1.228601573809317 
2.229122299859264 
-0.5066433762702376 
-0.6902798117367683 
-0.5771019856870426 
-0.504976553319755 
-1.5743912409456 
0.2111435722368993 
2.271510288953263 
-1.72631097030571 
0.3582131673533116 
-1.064926983309324 
2.076540616311763 
-2.044981843896271 
0.994767553218648 
-1.656882813099989 
-0.007553284745808378 
0.0675822628483725 
-0.3261274707610624 
-0.03991380353512196 
-1.372762335834762 
-0.5847877078016033 
0.1440618276869957 
-0.1483652088842711 
1.267197008771191 
-3.297957522604408 
-0.1632689593702759 
0.455569886678589 
1.201251496069079 
-1.283353711530039 
-1.341578224152832 
-0.4401926789585741 
-0.9914121999588805 
-2.299953043087943 
-1.567089034676511 
-0.2165384451730154 
2.170643502511802 
-0.9003071775898587 
-0.5123357134192035 
-3.186102518749785 
0.7732981598026297 
1.16796675785823 
-2.353754577232628 
1.935089807430184 
2.217600172125493 
-2.480131724786917 
1.468958222931998 
1.701324557364575 
0.09905316530233396 
-0.01647094123130756 
1.788966585124904 
-1.97456027687226 
-1.571344882190624 
2.541243717224415 
-0.1363952335409171 
-0.2571549788401816 
0.9508084024683803 
-0.6779929360294561 
-1.43126423048695 
0.1682389928818318 
1.07422139653067 
-1.519162945472233 
0.5534375407498672 
0.6662563539043391 
-0.04989300137470261 
-1.55675369198093 
-2.965743636282006 
1.141623909401247 
-1.623380709821512 
-1.122958878344033 
2.484631474030675 
1.276200461423773 
1.011772660737537 
-1.229741741684863 
-0.8419543088002108 
-1.532412094224253 
1.655046070564186 
2.580044592294363 
0.007818560648069005 
-0.7587947135378346 
-1.667426718292187 
-0.5186285640217309 
-1.11380183744604 
-1.16077775816497 
-1.487281344226264 
-1.267775659007194 
-0.7436306262310437 
-0.7511266921638181 
-2.441376800707674 
1.011172279683084 
-2.033346410546437 
-1.440219226866274 
0.4898677214758896 
-3.306269349648608 
-2.139369089151725 
-0.1279010768653954 
-0.380749701358542 
-0.3977022723587803 
-0.1575172848712776 
0.7086736997755069 
-1.147881281777522 
-0.95492734610827 
-1.602881465619276 
1.796683855156122 
0.551442860661663 
0.3470820987552701 
-1.361604646818215 
1.243571919062276 
0.05717028776124461 
-0.4891815512423419 
0.1999187828212777 
1.446448111840035 
1.854771616275423 
0.5552891328171063 
2.590350880459715 
1.13359318437447 
0.1966163893831722 
0.8938206094396958 
1.136395301998708 
2.572508500860966 
1.808187741993259 
-0.5070764286450202 
-0.5700945046750269 
2.920916343121058 
0.4688774965742378 
0.8828144345027265 
-0.940090904798879 
0.8898379814885158 
1.232226914585124 
-0.6040953711326015 
0.7126147705714966 
1.106272000697551 
1.858395297736416 
0.4633895330186548 
-0.3911502535161094 
-0.548727522392585 
-0.07778519355230697 
0.1135922653023601 
0.9096592236102606 
-1.20990443537143 
0.9025234801489646 
1.729839589647882 
0.3627504707402203 
-1.10792906778671 
-0.3468973345879406 
-0.923669005723715 
-0.1639308334928061 
1.575630037934165 
1.107405395342357 
1.407793178127562 
1.722530726679178 
-1.926042703890748 
0.6441266670412599 
1.428900607732124 
1.824246048852651 
-0.9557572986868655 
0.0317122783684266 
0.7514972988100761 
0.7164304959735783 
0.01168359672060111 
-0.7501866853988873 
0.98481393544341 
0.005951706099798365 
-0.9794626014396968 
-1.177022538221051 
1.692029858368001 
-0.760261354143686 
2.455501459029924 
2.943723403606919 
1.246156597229089 
1.661315531790938 
1.391886523193567 
3.005154396965573 
-0.4332506661366697 
-0.5278863511858451 
0.6685415594441785 
1.559809856517745 
0.3474473486209758 
0.7184045385371538 
0.8222439521231661 
-1.077765714277074 
-0.8631893105625084 
0.3160272520198849 
2.465290662695791 
0.2834492511839179 
-1.133742686457263 
0.1869691728003535 
-0.2549895304322257 
1.155857531068748 
-1.592146177616725 
-0.1130469240461173 
0.4831833450995156 
-0.7564607308138559 
-1.026857208627087 
-0.9440069885860557 
-0.59691458260962 
1.888324969863288 
2.027909155417856 
0.9779929102158567 
0.7953247573265698 
1.200988765570077 
-0.9110285377519997 
-0.3435272024212496 
-0.3472575954499498 
1.344031409167447 
-0.6273459544904273 
-0.7854243487516512 
0.3270965269019879 
-2.464684485771544 
1.720324010385524 
1.612002639265035 
-0.4204579847651824 
2.221210895740574 
-2.814613962018552 
0.01535417998130152 
2.041976945464044 
0.388292742756894 
0.3114709091131739 
0.6183684419769598 
-1.832022621113591 
-1.568561667458247 
-0.8588258273943606 
-1.342563039833699 
0.6511956301473416 
-0.002301505427723861 
-1.86176645856921 
0.433808032722742 
0.93384551261685 
-1.45655165559223 
0.1576100382333551 
-0.3794906284430653 
-2.573796355929129 
1.520859962208353 
-0.1183890089994418 
1.395453692454246 
0.3672536048492323 
-0.3112203487295752 
2.225313131349565 
1.189869568750944 
-2.184506382653796 
-0.7697553552499677 
2.387041742422133 
-0.8025420842795431 
0.888950116644184 
-0.4379378349615994 
2.006425735985964 
0.9117013690453345 
-0.522866506920325 
0.3696110551368192 
0.1930306915260578 
1.19616787965225 
0.2441191869099671 
0.2121642503047438 
-0.427869295504662 
0.931081195665893 
1.927270916146473 
-0.2123788594311066 
-2.459749641632673 
1.459734405871171 
0.4036163104779453 
-0.8990847559780206 
-1.031820689632135 
-1.748189916509308 
1.644808225196314 
0.5649389445311573 
0.7634843919776566 
-2.113108119008985 
1.509642724303894 
-0.4549530063524396 
-0.09703581824669406 
1.46514069215483 
-0.754591421232269 
-2.132239783856901 
-0.4816294162490711 
0.9121258710364604 
-0.6441338678019676 
-2.971543384849309 
-0.4673429787985874 
-0.9896832806508263 
-0.03995569240952212 
0.9032647128976138 
0.3481318552308268 
0.7984585076230746 
-1.848959057225887 
1.361005202882855 
1.011786606031281 
1.09496590427761 
-0.3217654962701029 
0.4253477850645332 
1.351547627873583 
1.344129084396362 
-0.5591268985916514 
0.1740518856400204 
-0.951076233104713 
-0.1289523829160391 
-0.8151772932393401 
0.04924343953885686 
0.9797801043272076 
1.756597986247281 
-0.6837996019183175 
2.595441812222702 
1.449504205960523 
1.809326137688076 
3.251474257915768 
2.137537885533774 
0.8664212835485469 
-0.6671159687405455 
-0.1026758453900174 
-0.6324116855367811 
-1.317712358867705 
3.445794173073131 
-1.292704749590757 
-1.375494155845952 
1.024475797143238 
0.8004293475476566 
2.264737094412418 
1.616276205428621 
-1.456520876962433 
-0.008284326748012237 
-1.42818956254178 
-1.374556621855658 
1.16703628970912 
0.4096764481494845 
-2.061260652629776 
-0.03564253684186772 
-1.305717300698523 
-0.3496904520646968 
1.167117376377669 
0.7900333223633118 
-0.3736228596665806 
-0.7747638411275258 
-0.8267262006847164 
0.08929250344251236 
1.4351187877156 
1.345140464963666 
2.923462806775632 
-0.9862089547418951 
-0.5949084015849117 
-0.624167852434472 
-0.6598610820984624 
-0.6573809379079593 
0.02616996462392921 
1.254639872999119 
0.8285932457391726 
1.121147324807507 
1.816228339141254 
0.6638289173885966 
1.051723662594783 
0.2772586821908606 
1.054306114604334 
0.07313224258765953 
0.6924669464769757 
-0.9916132383853088 
-1.120530058767784 
1.53849719167861 
0.39084710119481 
0.5726974713976399 
-1.984006201027937 
1.310908522939803 
0.5466171156045535 
-1.05436739447461 
0.2088116848484831 
-0.3699026208249789 
1.33680812252973 
0.3620277070610478 
2.181727692152406 
-0.8003149073792492 
1.750002374994089 
-0.4423446152040292 
-0.1470587563156591 
-1.20859530812846 
-1.20821185794088 
0.5911865659073426 
-1.323423646393432 
1.840694039839972 
0.5814157845442149 
-1.168390371689758 
2.282739809096554 
1.891117359721675 
-0.03802466908838003 
-0.9441198733078245 
1.748569420204195 
1.8018900695838 
-0.3761096322065169 
-1.290086371965401 
-0.2883930459771024 
-0.3467275726444835 
2.15625264042413 
0.1847604857985168 
0.7698527799401338 
0.8236669350373295 
-0.07729172678990236 
-1.904431307020757 
0.8536559790132928 
-0.4297217110652915 
-1.394082471996882 
1.314186407270139 
-0.4613938965425264 
0.9694081329261306 
0.003509599584801628 
-0.9709210190697188 
0.7656095905043825 
-1.006127242407338 
0.210670105791567 
0.08012705476753516 
1.257136663527852 
1.056446120175558 
0.7406359406848457 
0.3205162681275622 
-1.383822621184807 
-0.4109421031278462 
-0.9541825083102544 
0.403704620024213 
1.487585661292685 
-0.3080180414678115 
1.215715829890123 
-0.2495410106978186 
-0.2058356039157204 
-0.1525757512002499 
1.341871221794989 
-0.4374479172983408 
1.714841515297027 
-0.205957908317426 
-0.205957908317426 
-0.142273881281246 
-0.6067809231445787 
1.240465468367933 
0.9734223789626242 
0.3570589385935553 
0.08838408299665083 
-0.2925895469366501 
-1.485719883686063 
-0.7300188473332592 
0.5623357777203157 
-1.200848980403342 
-0.4582442737605666 
0.6912516963235027 
0.01205304022360607 
1.473748388699891 
0.5030621157630137 
0.08374270206853232 
-0.4330444576301685 
-0.4622088959294478 
1.167789668878626 
-1.138604147922609 
-0.3807033822275993 
1.700194811769479 
-0.9091624835995137 
0.7323372048713056 
1.61485392362347 
0.09037889090024782 
1.934645239770105 
0.2248331369159894 
-0.5002752169535298 
0.8934298278770145 
-1.355091452910237 
-0.7710538982317406 
-0.6590537601268364 
0.660852209064218 
2.183356457366154 
-0.5887961134506894 
-0.8640784337825855 
-0.2556916467088383 
-1.440876579311553 
1.260402881258379 
-1.30235495545877 
3.044039156415256 
0.2845125521187826 
-0.1124255981708165 
-1.920300451271515 
-2.159381283229741 
-1.997672470858058 
-1.184562174949626 
-2.171629950590974 
2.018976527771797 
-3.040579011059555 
0.2586029371091816 
-1.355670517679782 
1.625629327264068 
2.408855801420244 
-0.2666292750925453 
0.7538400006803202 
1.378215576534873 
1.148434807305299 
1.51079310365863 
0.8554356688706074 
0.7257925252626732 
1.558328268144274 
-1.411727032492566 
-0.8642429013251521 
1.692835272290626 
-1.415239145073625 
-0.2977921108274681 
0.4969907538091911 
-1.495219732780263 
1.018939983534442 
1.663970940892928 
-0.1925885493420842 
-0.7574264887546618 
-0.5181176854879462 
0.2084947066639068 
0.2476174277448102 
0.5481816429965941 
1.303487233414824 
-2.360290563984861 
0.3221303094832759 
-0.1290022725928036 
0.8968295925428013 
-0.593237728352585 
-0.692310730443581 
0.3085237105584228 
-0.7151676455589516 
-0.2131761200937894 
2.225777190365489 
1.759485948431942 
-1.327105640656197 
-0.1033388295290969 
0.5597188224206933 
0.9817662722582979 
0.03307878080274135 
-1.653113011474405 
1.67533351428481 
0.6147833434044431 
1.112629239855006 
1.182817545419698 
-2.032120480483015 
-2.514405340485815 
0.6774899939113592 
-0.2165155784534318 
0.305107947147132 
-1.441950694925489 
-0.5191069282239004 
-0.1520778686056933 
-1.468375486620731 
1.088503651259556 
0.1034601456500079 
-1.697790244683422 
0.8991038567208213 
-2.036127004806964 
0.1391858097655212 
0.2086294941895399 
0.2818240965951511 
0.02340027719477354 
0.4865603374190833 
-0.9112468697377448 
-1.661710948315242 
-0.9187747735105686 
-0.09989139361168696 
0.3919975948757242 
-0.9063484614948418 
0.1823321261161362 
1.93319502177735 
0.7976656471880652 
1.060281968457386 
-1.589646626781981 
0.2606190404691276 
-2.086309815671409 
0.470635559106657 
-0.1628710008756851 
-0.9211140202658739 
-1.367538828268308 
-0.9362478084863981 
-0.2902270524012066 
0.6690729796289189 
2.457754133684322 
-1.576748265564589 
0.668744038952079 
0.5989381038766701 
-1.631771798249094 
-0.8023716037000824 
1.112353717691161 
-0.6251831445348778 
2.442371771260595 
-0.5148792748016578 
0.1474920098720619 
1.20784525220209 
0.2571363134745625 
1.792245451873962 
0.8246346479722113 
-2.028457400433502 
2.915071986218429 
1.439203393189659 
1.056533997192487 
1.421717697319724 
0.2603367921293278 
-0.7728506819150966 
0.231170585785958 
1.171108360233726 
2.253221720565338 
1.032593741685999 
-0.6513251829256432 
0.4637806428543312 
2.251295135542028 
1.269839278224462 
-0.6777425379055702 
-0.4813294278747509 
2.774043127423878 
-3.20997710225856 
1.457892691620602 
-2.284257198591468 
1.374900500787826 
0.6723680616388223 
-0.9803594839714488 
0.5690971969557692 
2.134365369908755 
1.68686041775428 
0.6100059146783947 
0.299536537625145 
-1.155452014361081 
0.01374521672800119 
0.2561078294262507 
0.4435852591882322 
-0.1698167543816603 
1.374204453618127 
2.132167089002075 
-0.9648618875132202 
0.1893516060048372 
0.2847853171480397 
-0.1905668874775904 
0.7571984619766795 
1.500352279839655 
0.1970149398601495 
1.519942977832371 
0.2669865513094096 
0.4677966479198984 
-0.8866893387565936 
-1.147873223813577 
1.182344299994651 
-0.3382887926929006 
0.7450513583418635 
-1.342853491627621 
-2.043993817900762 
-0.5964848718472656 
1.169536469582567 
-0.7187990414185847 
-0.7607243698659661 
-1.087184115464654 
1.262899809968885 
0.8045321562839777 
-1.254234981029597 
-1.645570191484611 
0.07029859677194006 
-0.7541868412364275 
3.041956748419901 
-1.109187658556297 
0.02952573888366407 
1.522025580167143 
1.14574744202245 
0.8926727416134549 
0.5303885995595017 
3.115587111333772 
1.125841456193865 
0.6098958644140108 
-1.462582616782575 
0.007579562222036949 
-0.09062133532740478 
0.6509395053633344 
-0.3700924798625362 
0.03603542627019219 
1.021323125250966 
1.298859741812492 
0.1654460270958366 
0.572518778433019 
0.4804281577759603 
0.4379782892891778 
0.8038982359732753 
-0.02585232320026606 
0.743031896256187 
-0.8634337307731109 
0.07021094999881074 
-0.6114774476633722 
-1.21417101583776 
-0.1690646456822768 
-0.6725683270436795 
0.0001529851957065466 
-0.7715655982475994 
-0.4302614631132946 
-1.56324144724464 
1.563147801004838 
-2.026094247521433 
0.1812879275222518 
-1.58322094962004 
-0.09047722876750336 
2.244034398896737 
0.08544913677815189 
1.401436869776371 
-1.990682150672648 
0.4529399582914814 
-0.6398160828747855 
-0.5012910130887144 
-0.4841414613015547 
0.04115569870463535 
-0.7138787602424753 
1.282339913705823 
0.5096364207025613 
2.65380314388047 
-1.273402472562635 
-1.249036700963736 
-2.045597274795847 
-1.38687375289018 
-1.310819397907715 
-1.095008931937052 
1.369039441499195 
-0.9530236098461801 
1.606482698118979 
-0.6056427932629965 
-0.8209626665000785 
-0.6701699917040719 
1.104484433612126 
1.498514780837963 
0.008888252666468597 
-0.511304807133123 
0.7941959716785478 
-0.2265067548593338 
0.3460506789295601 
0.1407462467149868 
-0.1480835482393759 
-0.9727789608846124 
-1.284471698527952 
-0.2898249519419697 
1.494485489925911 
1.915447794199996 
0.2017202128407662 
0.2620604371287444 
0.6668529602475292 
-1.260038693055084 
0.4616041366999397 
1.494827373441372 
1.05388580191574 
-2.022675977688797 
-2.556215736843112 
-0.1570779238157039 
0.4845193868056651 
1.036885088989775 
1.842022352431341 
-1.409071437343717 
0.4593480707455589 
-0.6142867069798366 
0.08337002750384098 
1.816550714035164 
0.4604285965775416 
-2.175074453807353 
-3.00600768625428 
-1.226479024663119 
1.574341915105188 
-0.8364981359643574 
-0.9419816623484358 
-0.1469693854310244 
1.141517970936931 
0.5632308529512134 
-1.38647028231987 
1.136539860147859 
0.2330443843746556 
-1.827578576253288 
-0.887575150719496 
0.8070185043946172 
0.3769640086159996 
-0.3055284003990666 
0.2022616023991329 
0.6442360948822923 
-0.5419383085064665 
0.6577889121968905 
-2.036596093441057 
-1.17924313801793 
1.739417579595957 
0.21412702198929 
-0.4726627775386411 
1.864076198447056 
1.779645567905824 
0.4698034527155526 
0.01691493710480875 
-0.8628879258442432 
0.2555982123295217 
-0.2866026980110926 
-1.273153117623214 
-0.3908977845964978 
-1.101103088049184 
-0.7728302959872181 
1.21207086541096 
1.141385431537888 
-0.7002579191350891 
0.9885237898849419 
-1.418492509429762 
-1.4994142995085 
-1.317116388846139 
1.274366967059696 
-1.272799802269819 
-0.1767585968055274 
-0.856735146847745 
-0.6458863051151437 
-1.259521071777203 
0.3946713616112791 
-0.3941814117163906 
1.083281673223836 
-0.02455270250575987 
0.4262897850301572 
-0.5081917047117351 
0.5446414303595157 
-1.631286730217983 
-0.8901859076270773 
0.8212252854503271 
1.601628868589062 
0.05503685367478126 
0.6520030559445038 
-0.03504497533829794 
-0.08657530319303834 
0.2607140201028466 
-1.32297393215926 
-0.8472452761518505 
0.7965262752836247 
-1.257743652677655 
-0.9582910412156761 
-1.693259604006029 
2.006532192433446 
1.685849352755372 
-0.6741581599633426 
1.170948333106383 
-0.304855866981572 
0.2093103516697014 
-0.1669748951195223 
0.4159308788869491 
-1.140474843319067 
1.986167987068519 
0.1879861776074219 
-2.394616376984034 
0.317232268928584 
0.9751540021923071 
2.468498805282343 
0.2122741447560133 
0.8657153721944094 
-0.1623537400484237 
-0.1623537400484237 
0.01456367784019894 
-2.216600037890288 
0.6979631177981398 
0.9716191360425029 
0 
-1.070450500457789 
-0.727426644142956 
0.5551326534159778 
1.113875013439156 
-1.435020271246837 
-0.7098215402037646 
0.5276450696289458 
-0.01649147643419109 
-0.6939890704527645 
0.01166435473176176 
-0.1670689517967894 
1.312449506699125 
-0.04155372298407492 
0.6330406318225652 
-0.2322808527561051 
-0.2655997674225247 
-0.7604492350471108 
-0.04283571706707654 
0.6340603196175983 
2.02210937713489 
0.5903403401991069 
0.3244157765668512 
2.031904274597125 
0.1927049560876802 
-0.1244802823718871 
0.7748708841766866 
0.8285407396908042 
2.242245846252714 
0.599051582980199 
2.607141062683918 
-0.5051320754160428 
-1.421146189839783 
0.6312279643520804 
2.11492807744964 
-1.941672609404847 
-0.8215739794349679 
0.5613436081243623 
1.929299286420502 
-0.2888545972232572 
-1.175670746026408 
-0.1979845625337141 
0.07388140192894223 
0.09293623434868217 
-1.006823170019245 
0.3477828175568723 
0.9935534560798092 
-0.6210990890542442 
-1.066294114192696 
-1.800415625992968 
-1.02079524740503 
1.556918225845031 
0.05596500935880024 
-0.481603707834365 
-1.187598992136007 
0.5176286570930416 
1.921374734945065 
1.119427163408512 
2.934791260733514 
1.358744743827716 
0.5010459976775925 
1.166971836997696 
0.4410957280212106 
-0.335987293165977 
-0.9131424137687798 
-0.6227569978057764 
0.3145776728005049 
1.638361648317576 
-0.2809962257294743 
1.724711762549779 
-1.468654446386329 
-0.8053078362120849 
-0.6637250117012786 
0.6755783928277167 
1.122198783088848 
-0.04181919677990014 
-2.069566928088007 
0.6523908421350185 
-0.882461721608659 
-0.08131204232975578 
-1.436076564599092 
-0.4266902862828134 
-1.784172968503068 
2.192957876675582 
-1.314811219384752 
-1.329192571654699 
-0.7314690312763019 
-1.32768072070329 
3.127029723141036 
-0.8958279702319146 
0.07246184078214929 
0.7848394191320306 
-0.3570225474018223 
-2.552462896970378 
0.9407804519967008 
1.819734042849466 
0.4084029039105775 
0.08827181883943151 
0.481103793810168 
-3.553772304355841 
-1.006423473058513 
-0.003455198353892089 
0.4991554884493707 
-0.7514192298509059 
-1.4057333134029 
0.8776676488309809 
0.6108965931970458 
0.7154494773296007 
-0.4077316263404696 
0.4536496255674672 
-0.02165913445785978 
-1.301986091666089 
0.9959138668804367 
0.05829169198572631 
0.907775200814027 
0.9822794925362593 
-1.693589479464074 
-0.5870972682225145 
-0.2784701401464775 
-0.3083657271055539 
0.4164554863517282 
0.1316441118456498 
-1.258005575461326 
-0.4364919655635565 
0.8447173544876689 
0.5219166914105213 
0.4392601727151301 
0.9468742558654553 
1.821753023345819 
-1.238528322752586 
-1.652503902531867 
2.533666761002525 
-1.087951642369525 
0.9855094200882625 
0.2446550584188593 
1.358472910960484 
0.3689365485215811 
0.9582739125320099 
0.7883393400642209 
-3.287109964718229 
-0.1430919931708291 
0.8470294833093795 
0.01559503136792497 
0.5081142702680578 
0.8047313483812564 
-0.2508499170977497 
-0.2313688600088532 
1.251449108385557 
-0.8517401426911014 
-0.4700749825673856 
0.3810235931807849 
-0.5144016521313123 
1.120091681668442 
1.202013263235225 
1.995214483410042 
0.91957993292305 
0.9103047946069501 
1.057366369371715 
0.5470002649986601 
-1.108786513894537 
-0.6698184915020734 
-0.5871167809126389 
-0.1202147734440889 
0.6837953675203114 
0.3336585377464534 
-1.395249990083516 
0.4678310400157063 
0.927437351939017 
-1.571620428731445 
0.3794855927343198 
-0.5986154529269098 
-0.091446625212547 
-0.5428006121887592 
-0.0692528893927945 
0.3680796220117611 
-1.349523422632108 
2.851008295256432 
0.4126082400770624 
0.9893815223196943 
0.8967030016203851 
0.6174816469430426 
-1.013469103886224 
-0.7507002506917145 
-0.4884042239287641 
-1.527959461312168 
0.2949266952185082 
2.001786782126529 
1.338755162564764 
-1.174368903639057 
-1.797701577411633 
-0.2883375064377933 
1.723979388307798 
0.9049996871031285 
-0.4397344147655829 
-0.3890258783168425 
-0.4295428012392002 
-1.002665111543744 
1.078791491151997 
0.6597819003857603 
-0.6554496685961785 
-2.298511629723108 
-0.09420490856491046 
0.1209913953193219 
-1.740580168619256 
0.1830535326783997 
0.03023926262863611 
1.108888498325131 
-0.7063892086280715 
0.8813342187463389 
-0.4902178284473526 
-1.311739619770124 
0.5007157311271797 
0.6394612709550211 
0.768039694421044 
-0.6032897612588413 
0.1963805615963837 
0.0610999516216052 
-0.1977663579064264 
-1.370969331692404 
1.578157547329819 
2.02190524971809 
1.821066841996626 
-0.923585872439516 
-2.308670752335675 
-1.539433213870777 
1.441035106849353 
-0.04795283979952436 
0.9585192626394811 
-1.105287256859205 
1.315823541164175 
-0.7966080703446424 
-3.623169730403488 
1.334412512384799 
-2.13884459371315 
0.6373426863409901 
-1.086756595011163 
0.3366845782184093 
-0.4226217135677942 
-0.7436130623933549 
0.6595872902752015 
1.238171522900041 
0.7620363439699918 
0.4188453420550072 
-0.6459284794185992 
-0.5307581665104328 
0.4483012869893629 
0.6793118183270667 
-0.3385751380185671 
0.1106545496931569 
-0.4561877080465751 
1.14329862916332 
1.150957497375638 
0.9816760708882993 
-0.9929129926853543 
-0.108466087260874 
0.0896858391771851 
0.2617224077247265 
0.6953604709487976 
2.114751919537631 
0.4826452754867548 
1.149903102571321 
3.429332442966951 
0.8667574262626456 
0.3198496328571013 
1.597695797257388 
-0.4566879521426488 
-0.1431254198741568 
-0.2157012746721744 
1.27483668091182 
-1.567535813544267 
-0.8112224776825497 
-0.7153266146038363 
0.07306882692732497 
-1.080516659318176 
-0.7142145963589517 
0.6905977920445853 
-0.8136497084912524 
-0.09775227145286194 
0.2228394575861474 
0.9793733080324991 
-0.5112317565885298 
-1.926989648999353 
1.88478005800487 
0.3262306522394862 
-1.25240814402604 
0.7524090472187834 
-0.266671081044471 
0.2249330977180461 
-1.26664988694821 
1.565323261883532 
0.08990143370931852 
0.08990143370931852 
0.08990143370931852 
0.08990143370931852 
0.08990143370931852 
0.1798028674186379 
0.08990143370931852 
0.08990143370931852 
-0.619844721497283 
-1.492109315335481 
-0.6808609739060261 
0.6779429120203593 
1.247581950628531 
-0.4982339033861989 
-1.188105633033621 
-0.06178540400573886 
-0.05656326729838861 
2.171108405303136 
1.0320277550228 
3.356496610858663 
-1.175334601710374 
0.1701670012659082 
-1.266416390610056 
-2.514653425809157 
-1.501631475919555 
0.2626413884606852 
0.4711946834148614 
-2.209790307028157 
-1.818518940573893 
-0.1384824780719628 
1.131708957012274 
-2.790319074740596 
-0.5274520333687751 
-1.734723475976807e-18 
-0.7296479595897771 
0.1789407182369743 
1.636853108293484 
2.440404946682463 
1.581833250782055 
3.045318952256885 
0.826440952679754 
1.379395834956524 
0.001159521344972866 
-2.187201548897248 
-0.4319167972604493 
0.3277482799401261 
0.496742850335964 
-0.5303490783413852 
-1.151646425141301 
-0.6979986976427133 
0.846903156350497 
-1.492135025701224 
0.4964094751150644 
-0.6178443526302967 
0.3101972628778332 
0.1245861644379034 
-0.2971901306590675 
-0.8814134293564221 
0.02541734134803328 
1.25614053281236 
0.8692723287373376 
-0.003564376285043657 
-0.01115719791105747 
0.2588681102246675 
-0.537188656800671 
0.8304468368169322 
-0.4479346706259311 
-1.417494354927015 
-0.831487209111519 
3.061499957006055 
-5.204170427930421e-18 
0.5944230308452215 
-0.4550537986732 
0.1911045387355975 
0.6169640524976721 
-1.211577526888908 
0.8870217618924569 
-2.020052557419418 
-0.04094737739129424 
-2.125196255577097 
0.8022969990363551 
0.1079521132651157 
0.4271337509327284 
-1.261199546258805 
-0.9322201646229598 
0.3885295241949678 
-0.3428021033208075 
-0.396936031878905 
1.458264774433561 
-0.8289939929639865 
0.5502631874699714 
-0.8530066352026003 
-0.07026622731893289 
-0.3289208298590802 
1.011460153774489 
-0.4347335854238025 
-0.8117033706697552 
-0.09166372773916497 
0.0896858391771851 
0.25076408321458 
-0.3592014242391905 
-2.191135766347771 
0.6769360471952161 
-0.4836223390355622 
-2.030495985010934 
0.984520185889013 
4.954781816506982 
0.1086494392513224 
-0.893485894283331 
2.464858277536619 
-0.2096838231183819 
-0.9621008261209185 
0.3197803629542646 
-1.099794795461101 
-0.001732545919068203 
-0.6247755384845907 
-1.106952492361615 
0.02993578039420371 
1.022860250403093 
-0.4481680735273707 
-0.5550767185080078 
0.08598034554862496 
2.154438325701992 
-0.4844991523936073 
-1.858708218160406 
1.400808449841158 
-0.9765673763794089 
-1.308643430784707 
-0.8533775042670035 
0.7960266943903215 
0.6597276898315032 
0.361642319374736 
0.5363183351568159 
1.00760002993887 
-0.7783259948935624 
-0.4514428421807187 
0.487673469289404 
-0.4738010713711799 
1.162270157904979 
-0.6173474743105595 
-1.017406859976804 
-2.341111583673272 
0.8381881829019203 
1.881791660838038 
0.1940842018244568 
-0.08305171642756159 
-2.161684904561612 
-0.1317720368602399 
-1.119873710198351 
1.030586305218689 
-0.134262506399289 
0.8387333065485866 
1.323361431527424 
0.1159935244264961 
0.4990485241904981 
-0.6107894017987185 
-0.1187071517877934 
0.3932430258563279 
-0.06522776899427897 
-0.1269271180202117 
0.7685406852457219 
1.916799486403514 
-0.1883183902962134 
-0.1325771567691784 
0.09225578743042923 
0.1619672530216767 
1.814576263971239 
-1.174060770141296 
1.008261190053588 
0.6506387520365562 
0.8271082915937563 
0.0415524777136679 
0.518036588546899 
0.4567561445100675 
1.319127324747457 
0.9545192096117531 
1.015047051349483 
-0.8418854563085829 
0.373071009929246 
-0.9465881693685052 
-1.461804969875467 
-1.645728517815476 
1.628362135046412 
-0.01694610682944585 
1.116825591620919 
-1.389999912712133 
-0.1732507923220782 
-1.058105799739905 
-0.6526403328211637 
-0.1324712932059008 
-0.2767126420941992 
-2.398002714207975 
1.649508145556184 
0.4800120128641817 
0.3941653670155047 
0.9053962754448465 
-6.722053469410127e-18 
1.023530388671781 
0.6210404018613583 
0.6604473667877102 
-2.324568615856716 
-1.329870889927321 
0.6726323338763164 
-0.1749506728348827 
0.664949204182118 
0.7207218470491047 
-0.06449086249486587 
-0.1326139201199319 
-1.752916651846695 
-0.3406043445570991 
0.991435562837794 
0.1719562615762576 
-0.2913765948570057 
0.9639728322347167 
1.086289412007319 
-0.1550598209296287 
-0.7089062633538205 
-0.1164485725554193 
-0.718929850496269 
0.07656298928021442 
0.6492551741403347 
0.54082585182309 
-0.3179661159569692 
-0.5920024281937557 
-1.776341504549915 
-0.2976377418359654 
-1.367032910622079 
0.6809633739468809 
-0.1425052330561766 
1.627288900343573 
1.688791793990015 
0.1783928181994353 
0.6323525809848589 
0.809030158649399 
-1.312760285629498 
-0.4691887201776014 
0.607083887436374 
0.04015199300187029 
0.08926540114454984 
0.08926540114454984 
0.4265724741819003 
0.06015805281834305 
0.5159504951515809 
-0.9303849928622983 
-1.506099328804249 
1.011629476066178 
-0.9631651782786159 
-0.5957958559417311 
1.421918072775147 
-0.4011849592158744 
1.891124591190025 
0.1560464794827882 
-0.7491955929583709 
-0.4820462980950044 
1.26105850347761 
-0.2525942336006625 
1.111175030901067 
0.467434154434299 
0.9012652452637526 
-0.06334732247729544 
0.417059892913342 
-0.5284882169811876 
0.2341223997122783 
-1.212520763875078 
0.0739582340760765 
0.1890990662792388 
-0.4637650147940663 
-0.2482464676914072 
1.120829471188907 
1.181141427348268 
0.1098764663083813 
0.06861532349174858 
0.4068187756897311 
0.6808330989635658 
-0.1257930563227692 
-0.4201107870821482 
-0.1803803942899974 
-0.09368542993333906 
0.8971252055431428 
-1.815479672510006 
0.4790250941101105 
0.03148606200452825 
1.203660977730051 
-0.6847557771333548 
0.05843136433533203 
-2.457900516251482 
1.348209892235621 
1.563755370201142 
0.3838270865359841 
-0.9516765081264809 
2.156832836309714 
-1.343088378682839 
-2.509170139013044 
-0.4463609580041648 
2.595169746193375 
2.413529675728825 
-0.09357245926031066 
0.6291623043745519 
-0.09450138326099734 
0.4501000948284155 
1.006947317821215 
1.05247770993379 
-1.154176667106362 
-0.5677744261172146 
0.04505215431357559 
0.6524980847701181 
1.134652723407418 
-0.2363851211577483 
-0.7452422458208759 
0.5868851305442079 
0.5822749564208155 
-0.8308621982382813 
0.2569836709559266 
0.0611188084211808 
0.1281757508852779 
-0.08128172905956457 
-0.5051437027747104 
1.723593504552575 
-0.8389279160149783 
0.9560605647435819 
2.140267500328314 
-0.7405560973262668 
-1.698702976784173 
0.08906032389420059 
-0.2477851925115609 
0.008537840313846554 
1.015949584989023 
0.3720257635648438 
0.6630387718433586 
1.507392876862875 
-0.5687183133700735 
-2.715700721885876 
-2.095340720093303 
1.031121885881868 
0.04342123437930896 
0.8395279866622095 
0.4555679284591238 
0.1067046048515845 
1.587714121725114 
-1.444052267879941 
-0.3096023911556153 
-1.294026573985583 
1.205226362812854 
0.4322572810304502 
0.9035095185662047 
0.941470702636358 
1.383585183076534 
-1.030918691483193 
0.493195766774961 
-1.042833245512726 
-0.5373868385039309 
0 
0.4858300321274859 
0.5382375720078311 
0.865048745910164 
1.362378004394183 
2.186668404785796 
0.03174165175893377 
0.08623474597233456 
1.053111114660281 
1.061345748402539 
2.04135483884585 
0.9866169457792047 
-0.5373591987921876 
-0.4454621278722466 
0.7789966208181391 
1.816062363588023 
-2.602085213965211e-18 
-1.16996320866583 
0.4871051362710433 
-0.8089923021843453 
1.955537967825469 
1.22754863413897 
-1.304945407610388 
0.7168563569055049 
-0.6588079521679507 
0.2199209788613088 
-0.7756606915443143 
1.288826090725981 
0.1405365171639908 
0.569602844409858 
0.8707043127711259 
-0.170314918582611 
0.06260818521787953 
-1.888846431811683 
-0.01802461420219827 
-0.5067055902660871 
-0.5882305880081331 
-0.2050402169385746 
0.9747383049864139 
0.4873691524932069 
1.148446710690014 
0.843215267217935 
0.7758760676270219 
1.569580477989277 
-1.165963155395871 
0.8153826794186918 
-0.8645233066085705 
0.7714597758423497 
7.806255641895632e-18 
-0.6812557348428663 
0 
-0.2834640159605714 
0.7603632047912129 
-0.1296854233618842 
1.201778023210817 
0.5515838490399989 
0.7687356742910074 
-0.7911085211424449 
-0.4333853406245813 
2.211044187355125 
0.6403651645538727 
0.06433325816858691 
0.7488623468352353 
-0.5348602829857932 
0.5841679102597441 
1.978567874185798 
0.7208443098043871 
-0.3541295986528692 
-0.4145464349802994 
-0.6702455560560573 
0.4808248704791781 
-0.1369961488614983 
1.644209320499127 
0.04732024477290169 
0.4819812414429031 
-1.597825474003728 
1.201357194251647 
-0.07893184529324583 
1.166099294107618 
-0.1373415191781449 
0.2266546733945157 
-0.8120129166067674 
-0.3659985675080165 
0.6585526473727737 
-1.629932176999967 
1.238926547642466 
0.2455721578538016 
-0.7275653747317002 
0.3950094954464234 
0.7406177530309229 
1.285371014441335 
-1.786035421230096 
0.3758621176458005 
-0.8135653698743319 
1.260283399072923 
-0.4158900385787963 
-0.7992513801841145 
-1.536194127129583 
-0.02180323144978191 
0.09197575344211949 
-1.402827801685243 
-0.7375715185624796 
0.2512047063905091 
-0.5059697368664692 
-1.749967682152223 
-0.1319100776677292 
0.2845046962996692 
0.06451187064419994 
0.4602089291509783 
-1.387778780781446e-17 
-0.4536545019912578 
-0.9150057968678121 
1.019975703436943 
1.995395695012208 
-0.2695605562888917 
0.3012739543855014 
-0.06482259711072813 
-0.1679315397727716 
0.5327886007846878 
0.8354075132189477 
0.05265486122399034 
6.505213034913027e-19 
-0.641632213615519 
-0.08911299287807635 
0.8583287696634136 
-0.9995125936023382 
0.5106938408698619 
-1.047449823519692 
0.1662906255649418 
1.149242565730166 
1.301042606982605e-18 
1.475598449008091 
2.333675836020097 
-1.610975428899082 
0.8955819306613516 
-0.6118624243425023 
-0.03893481687136086 
0.1807386939766734 
-0.2603644615198514 
1.036529498164562 
-0.8829333839865906 
-1.291475773947409 
-0.2834395918616456 
0.8895200444773743 
0.2917549252201213 
1.500457708387288 
1.152201396926152 
0.1415044280671388 
0.7087178485444439 
0.5777004276433694 
0.9297294899807845 
0.3899266795018744 
-1.081324178333834 
0.2175454909800505 
-0.2464606390884994 
-0.4906984840303764 
-0.2808527528926823 
-0.2313031902116562 
-0.06477959718474942 
1.681720813978298 
-1.281333782364004 
1.163968148922302 
0.1946448260503917 
-0.7295306560364683 
0.2386351314485248 
0.02616555198667606 
-0.4498420161779029 
0.3329884754898514 
1.238635839983587 
0 
0.276682666949039 
0.3567527926941476 
-0.116432877459637 
-0.8365129168988628 
-1.271364693310571 
-1.152529794495139 
-0.1365275018527766 
0.6389900734521328 
0.3435755383446322 
-1.023807958802907 
0.1039043089167344 
0.4432162393594791 
-0.02473333187827041 
-0.758079690518136 
-0.4334033767903153 
-0.9444484100377333 
-0.591511440248123 
-0.7402184079185299 
0.7664350853970924 
0.3345481432580563 
-2.343894831945752 
-0.6769634586326075 
-0.3472225818024823 
-0.3696272888619993 
0.1023792074442668 
1.59033432838162 
0.9121381934463761 
0.6071903954049737 
0.9171911649033589 
-0.01067477118913494 
-0.4109839965442867 
0.551607686864072 
0.2015002236761253 
1.565815925097007 
-0.01132230553281549 
0.1006508553022211 
-0.5769652312975648 
-0.8693718956230654 
-0.3155151999402324 
-0.9350418589092573 
0.7130525126290345 
-1.185042814551583 
0.1989885233536587 
0.8314272003302003 
1.276861674641291 
-3.341481345608935 
-0.06539310632473816 
-1.255630800654142 
0.6859503115602197 
0.4444140520654152 
-0.3572450202674907 
-0.7208684901205399 
0.8653340251997798 
-1.66697949207263 
-0.3046323802078523 
-0.008928366531501584 
-2.195367045588771 
-0.4677477903395919 
0.3004764472857704 
0.3232373246060413 
2.656447903050167 
1.317302888495219 
1.693042343791845 
0.4161364456856655 
0.3851858564323352 
-0.5853018487787102 
0.3535888430567476 
-0.1939477268209625 
-0.4332355734712793 
0.182849167517966 
-0.8236639866681174 
1.204647543805481 
-0.4196595088980082 
0.07261886188146797 
-0.8719991608264136 
-1.36311706808568 
0.8590986845578764 
1.652274511690918 
0.3726732711027749 
-0.4919202393969931 
-0.9775480634022609 
1.278671271530043 
1.326411413593787 
0.157550289860831 
0.2403564786445133 
0.8941899199565928 
-0.09570488636770155 
1.393659983291654 
1.313416516003617 
-0.8716888690503292 
-0.8643342584781529 
1.216987283533311 
-1.130743022989284 
-0.5197324532556383 
-0.8280898887849958 
0.9211638526877191 
1.050976074855172 
-2.266655465154823 
-0.7981298204859045 
1.202081113311402 
1.026779958011459 
-1.097229249034291 
0.7819179351100636 
0.2678310569924409 
-1.606342306264511 
0.5074661895806015 
0.5237020563333723 
-0.2452393525809776 
-0.5488763961835743 
-0.2388523268185182 
-1.586817579489893 
-0.0241314232724866 
1.271338411147158 
-1.579008905591782 
0.8431977278843691 
1.09245838024991 
0.6141265754564719 
2.265514591613688 
1.587422059919974 
1.236732657464122 
0.6149732776688461 
0 
1.43798649435211 
-0.2852922125920753 
-1.123232684189424 
0.1374380502187385 
-0.6236081279430937 
-0.6775223576158543 
1.137643206333412 
2.060104893574849 
1.554040682957204 
-1.005555858409982 
0.1172321367030442 
-1.808239145573299 
-0.4414394094609894 
1.734723475976807e-18 
-1.412323157193984 
-1.108015790428136 
-0.01011922167359497 
-0.2574827898034143 
0.6501066985026271 
0.637903021851808 
-0.1123664414827239 
0.9573521906664151 
0.0513683986848788 
-2.401963417010037 
-1.055427446123908 
-1.108673850904239 
0.9714347478021294 
1.089503361366382 
-0.06925834557243785 
-0.7436306159327519 
-0.5786305999575793 
-0.4511068726339386 
1.724640307894119 
1.22827966347162 
-1.669554850195759 
-0.02926288210575124 
0.6673920483524868 
1.029358082006867 
0.2092766498772038 
0.4904429799227463 
-0.9607060153174986 
-0.8468125964875297 
-0.1371632934983686 
-0.3665804209952378 
-0.6936273411756135 
-0.6403080469591144 
0.6693941066496119 
-0.8790878666366843 
-0.5501184497480023 
1.340731744602179 
1.44332559965118 
0.5583392696643438 
1.166952936362214 
-0.8492767179428905 
-1.255091495710377 
0.5439854916006441 
0.2596870468390463 
1.530984520367216 
-1.387778780781446e-17 
1.214306433183765e-17 
0.1514816756871434 
1.045496134393863 
0.7019365723554488 
1.305850512983159 
-0.2314512878749184 
1.56802575602041 
0.8418444839892274 
0.2423564969148405 
-0.51175673753533 
0.3370908745515388 
0.478332855406946 
0.4862816878555941 
-1.225871982592801 
0.3394707901731281 
-0.8053839248556074 
0.5869305466874132 
-0.3715859811551333 
0.9277139136178147 
-0.02892938726694426 
1.642736208289397 
0.3806131576490269 
0.2673690290986336 
0.4151391953081177 
1.76204543107811 
0.7385839838366619 
0.4837183135581505 
-1.077983683973252 
0 
0.5885501877688449 
1.478071945077388 
-0.2710768632743124 
0.7252617041628101 
0.9128801880115921 
1.42133433406474 
-0.2630059171716885 
0.6343388869893166 
0.6444012590661673 
0.3867180368757807 
-0.2670328763568109 
-1.193536008586673 
-0.403215675657493 
-0.03768651731252932 
0.5367319694175253 
1.285149333949851 
0.265235522443569 
0.6881246094608485 
-0.4750240003291078 
1.698017700262442 
1.173293627822155 
-0.2357872619213192 
-0.7249458734570576 
-0.186241718645395 
-0.5159903035380022 
-0.4567389448464063 
-0.5681398938196929 
1.476357010691842 
-0.1579053860669603 
0.9074444594896555 
0.5287481065218919 
0.8160640883719176 
1.842906411917617 
-1.734723475976807e-17 
0.993003307209868 
1.104937790772797 
0.4277174150082773 
0.04052848472604679 
0.2850125365233727 
0.4665097131387798 
2.990314107066472 
0.3406075783410963 
0.6131089566666044 
0.9638439235807328 
-0.02711757850543598 
-1.387778780781446e-17 
-0.9443069483203348 
2.077075712037328 
-1.604965901829425 
-0.009891036509110357 
-1.102472363953314 
1.512429324482618 
0.8252065006987146 
-0.2307024869180455 
-1.692473815674318 
0.3391544773028266 
0.8726878196950495 
0.06610632793741139 
-0.3092327679408051 
-0.9738457381893582 
1.10330881916537 
0.7155224143382845 
-0.07321415174518338 
1.648749307726608 
1.68267449788035 
1.009304481507677 
1.913213633439313 
0.444918376179845 
1.873266060270049 
-1.243750452882158 
-2.797241605012601e-17 
0.7768194102096513 
-0.06118302489784321 
-1.142156883807451 
0.2753212393199336 
2.826805996017078 
-0.3920272168757779 
-1.318384373890521 
-1.582613748289318 
0.7063515912184626 
-0.1265822561237965 
-2.071505873043917 
-0.3775757657056633 
0.8163259908752186 
0.2741844564665158 
2.560743220238723 
0.5472518031509107 
0.9262199409321566 
1.148886260163827 
-0.7105909704675157 
-0.08462456177820583 
-0.8766271995458914 
0.6099219645557911 
-0.08739650424132719 
-2.621568668640532 
0.6950225292296106 
0.8444494550027807 
-0.6404350472434255 
0.7585337834166691 
0.6844067051457241 
1.263804216799785 
0.6469866507036066 
0.7873997859608104 
0.3038010795141995 
1.316076004746535 
2.50172230045282 
0.6089605716863985 
0.6685558529402713 
0.4718614115422949 
-0.06585946706823155 
-1.025047902583708 
-0.271276672092385 
-2.314183271378848 
-1.84085368615309 
-0.05965527993787699 
-0.33438591559779 
0.4672573589457987 
0.1231193481229954 
0.8571014021963562 
1.573080479345572 
1.294897481190442 
1.3199523395971 
0.5697627494192772 
1.327973366045402 
1.212551669302789 
-0.01758745021091391 
0.7754652011045594 
-0.09825131229301481 
0.9139395418321681 
-0.5508241851601231 
-0.9273203776014404 
-0.4884942535184849 
0.5094873580104853 
-0.8698306401218733 
-0.07289915942720071 
0.4752763848093684 
0.579053759309198 
0.1433490766240549 
0.9134065565385145 
0.2306062807209217 
0.1915587482690878 
-0.1119467115683017 
-1.154744752176863 
-0.6955881362239582 
1.803354228771886 
-1.291403068981509 
-2.321055475081751 
-2.067281573234125 
-1.178518165548903 
0.09260712524658436 
-1.005813910505061 
0.376926612074967 
0.6581136568910844 
0.6555413251801528 
0.5937550919684977 
2.204729730696865 
1.310313037156575 
-1.050252774570531 
-0.6533567060200932 
-0.03148349093951517 
2.803201066330377 
1.196517239479119 
-0.3435813116696349 
0.2849506809538642 
1.154426438842741 
0.4409126576732014 
-1.121203413492987 
-0.1916787700118925 
0.04682757516083601 
-0.8349831347837867 
-0.1875195954066852 
-0.7422239633508778 
-0.5082528357323809 
-0.6649213409165667 
-0.707802083767863 
-0.482589159169059 
0.4527869138982189 
0.07772060417387965 
0.837100901088865 
0.5009897339463557 
0.02621302188233094 
0.3683528875084448 
-0.1234391789116448 
1.697258365465806 
-0.2411074556286372 
-1.067588520072242 
0.4887835110545579 
-0.9244656135427189 
0.1989387814533433 
0.6161690258813983 
0.8836457636670545 
-1.196476208835929 
-0.02107379499997314 
-1.356995124950198 
-0.9927737754562139 
-0.8684797135170972 
0 
-0.5931756351312879 
-0.1585217338260871 
1.643437914952014 
0.3890151971713673 
-0.5276781749222432 
0.5061199612426195 
-0.2441990188681703 
-0.8111411359487679 
0.03882003233702038 
-0.1418863479597705 
1.669472289784164 
-0.09299398338108977 
-1.313458046653061 
1.28580836929472 
-1.003432120315588 
-0.128979840637075 
-1.236450352447804 
-1.304368800614816 
-0.02130440012548293 
1.284427664562651 
0.5924697682315919 
0 
-0.4720511718933132 
0.2783580410502495 
1.579752705520004 
-0.855694541228848 
-0.4872034516023041 
-0.115425974188903 
-1.293409188751351 
-0.3436545486484405 
-1.319156304244998 
-0.1910807823702231 
-0.4104517507105855 
-0.2325071575432868 
-0.7237159704814852 
-0.1479415564961118 
-1.223035024805943 
-0.7045908318849395 
0.4950160758402823 
0.4059623211676407 
-2.103909849836474 
-1.107554225450677 
-0.2835570581391857 
0.5103193644441842 
2.169551886512121 
0.8804393239579146 
1.670218058512771 
1.714614599611909 
0.3493219855534245 
2.627180018669605 
-0.7636438304379989 
-0.49484081035278 
0.4032319406110634 
-1.059037065042536 
-0.09985969726935515 
0.8603380599649453 
0.1391886745122125 
-0.04819512639717458 
-0.400455108732021 
-0.4467241650191967 
0.6125072390113772 
-0.6947518186644731 
-0.2602969563520018 
-0.2702645967713588 
-0.3464175646144466 
-0.8766391713929844 
-1.766725329976992 
-0.09719963676305138 
-0.211343132676086 
-0.5195988533993764 
0.3639125310607504 
0.8899445331448792 
0.5395841612035032 
0.3024205173650621 
-0.1909483056826442 
1.328214720094244 
-0.3187711751948241 
1.270406783027766 
-0.1068874218733473 
-2.845409594735174 
1.912630781154362 
-0.8885959725238557 
0.1860391507123962 
-0.6639585422164067 
-6.938893903907228e-18 
-0.01286679683300232 
-1.466569085896549 
0.7461031006635335 
0.4713067687099547 
0.4626617340338943 
-1.098507113838741 
-1.298728217064628 
0.5168366636251844 
1.339651913391226 
0.5291969967458062 
-2.278915690978965 
0.8320380621987064 
-5.421010862427522e-18 
-2.82804712287544 
0.2643517937100905 
-0.4417957565622634 
0.6846141220644543 
-0.04358719947591819 
-1.508849340506 
2.775557561562891e-17 
-0.412302911620736 
-0.4079398777463145 
-0.74567114959204 
-1.942150504245195 
0.1977355353382964 
-0.3023126642191696 
1.335022920470365 
-0.1519459866142797 
1.732482260235282 
1.655275339925754 
1.370535514509502 
-0.2392039200750584 
1.156546693885837 
1.043136959034575 
0.01384607235534965 
0.3431323189211967 
1.450210826852404 
0.8068290680326903 
-0.03667626871573663 
-0.1526300060964146 
-0.1044897517151019 
1.135066345074079 
0.3304073748310766 
-0.8033997459011495 
0.2102699420006137 
-3.794707603699266e-17 
-0.842149077932267 
-0.3708939299509894 
-1.320856975941917 
-0.9862680664638479 
-1.282474313062836 
0.4329786214789694 
0.8354075132189474 
1.439313211963004 
-2.113230881331944 
0.5532872823284665 
0.3672099287371149 
1.673264144208167 
0.6003754845680525 
0.05772161438555352 
-0.4481939729760428 
0.5523195330400138 
-0.0002727931473276203 
-0.5837070407305148 
0.07335018736930468 
-1.235155896961864 
-0.6359707009454484 
-0.9364742262828846 
0.1354810231985604 
0.3982492389353776 
-2.013020833985684 
1.47269385442152 
0.3485658478467731 
-1.595632968565075 
-0.9591603438972441 
0.4030254911557957 
1.62125112686447 
-1.000769849436634 
0.4040367804925517 
-1.086468642667681 
0.2357026388322628 
0.8053225435814946 
1.514292259673899 
-0.4790811689910255 
-0.8755109941903942 
-1.414140022793026 
-0.9900224898986842 
-0.7152784496843605 
-0.7080701835038482 
-0.6880234081099103 
-0.5032675758540206 
-0.1962324233777346 
-1.556677766235377 
-1.102311505096301 
0.6918622942171255 
-3.469446951953614e-18 
1.042035340992892 
0.4100314221122253 
0.9901031088447312 
1.155891972202437 
1.238512632585568 
0.516122422380319 
0.6457853038590599 
1.169423633996713 
1.389652971524981 
1.805320003815588 
1.190641318260358 
0.4747737659093655 
1.202785945349198 
0.1339558845415932 
1.374888358063148 
0.06182657593029248 
2.15300981195015 
-0.4903113480415866 
-0.8699969257673626 
-0.1366780081678139 
-1.229660488417761 
-0.5044372743707725 
1.748199416960899 
-0.5561919069518033 
0.0906739332137341 
-0.3621805918118373 
-0.5731009426599085 
1.05223151047579 
0.04799761782596985 
0.5312666846419815 
0.5060919700959402 
0.2419357780626755 
-0.1741805215887721 
-0.8174099636489599 
-0.1664078601006804 
1.068625622160614 
-0.4936593034523827 
-0.1277189788668887 
0.04357145058587763 
0.4240431096420391 
-0.601085100728044 
-0.5245199789929003 
0.5546573824741649 
-0.06895583184988255 
-0.1479103965514632 
-0.9978278106253637 
0.01002706919591504 
-1.87041064736005 
-0.877131048741571 
-0.7822306034648748 
0.3221189362803721 
0.102835647350866 
-0.007956504461642134 
0.7695660757545474 
0.5961750780183379 
-0.8525842648130296 
0.5119016444475425 
-0.2845811973440557 
-0.7387934991580507 
-0.9211405999195296 
-0.3908502408406131 
0.6619104734267582 
-1.236937352906718 
-0.963575567320948 
-0.6557960179808228 
-0.5396175364554444 
-0.1173832719619205 
0.2746053930747347 
0.7495824654872824 
0.5152272502354702 
2.356930032272533 
0.01202673832798152 
-0.682114951239802 
0.230393354712327 
0.2819028370178814 
1.534380534705968 
0.4546965612842879 
1.500705721218108 
1.734723475976807e-18 
1.083856296127916 
1.085752713216791 
0.05722366665276265 
0.7353259356576819 
0.2051430748238997 
0.1065438395811319 
-1.618452059604434 
-1.603093700109314 
-0.3430638423552764 
-0.5438864842927668 
-1.933458547085461 
-0.07680982295087267 
0.7727549456614778 
-1.281076246592895 
0.6169174160071678 
-0.2707669957966015 
-0.4157429946096179 
1.759023817434196 
0.9716779830257689 
1.960200761002074 
0.5803245701101774 
1.11446311031116 
0.6081137603099146 
-0.56447999023051 
-1.305451722839053 
0.8741075432970763 
-0.667448773604338 
-1.020178820171411 
0.995157825941434 
-0.2838256032258579 
-0.6151998517822785 
-0.6151998517822785 
-0.595571645040464 
-1.31224976569564 
-0.1661587547202443 
-0.2944591176473259 
-0.2590454877823785 
-0.6964038442196121 
0.844604982744897 
1.042365529477137 
-1.313299424838402 
-0.5614573326915187 
1.101007240245128 
-1.714265026374587 
-2.301506480488925 
-0.1221199340521986 
0.2678836786428196 
1.125188884213947 
1.057139682990898 
-1.579807345649888 
-0.49702625221358 
1.337490049177068 
0.9181276681667248 
-0.6282821040957978 
0.8812145729106529 
0.1384467416524813 
-0.3843511274562995 
0.8265164916361232 
0.9193634883293936 
2.059201132870146 
0.1384585007729457 
-0.9718244673097175 
-0.4394541141494502 
3.274290560906223e-17 
0.1978557360854219 
0.4201669430134674 
-0.3116414462089859 
-1.029675394299525 
0.6705011952867748 
-0.2442173799718658 
0.780260406156712 
-0.1663817957451001 
-0.3327635914902006 
-0.1663817957451001 
-0.1663817957451001 
-0.1663817957451001 
1.9376865751848 
-0.890979189477075 
-0.4805988753810949 
0.9834409411446532 
-0.2684562298760469 
-0.4701568304611791 
-1.220218942946848 
-0.3626913631816985 
0.2477998146974708 
0.5566125092766309 
-1.020292749672008 
-0.4895218466659422 
-0.582831539075168 
-0.3720383041361315 
-0.2816349792177746 
-0.4273812452564854 
-1.197730513245332 
-0.187374777260602 
-0.1488907361018323 
-0.1412627207181952 
2.590928343003521 
0.2994571896756749 
1.569244408628527 
-0.03736727934001217 
-1.342057926051646 
0.9010989747553318 
0.6676616839966398 
1.689092449004689 
0.2355770011006134 
1.027730488461957 
0.5569684631813653 
0 
0.9078524858080218 
0.702180539087597 
0.7365635575572589 
0.3014133845497429 
0.5594432510468937 
0.4226455936220301 
0.1085657655463672 
1.407837284978727 
0.2399731685804501 
-0.5670725263564206 
-0.5015106342204737 
-0.7389170340339095 
0.0639666237632338 
0.2457824632840142 
-1.143227136180976 
0.483422033624722 
0.1475372865784043 
-0.2386573311822462 
-0.5554108557851163 
-0.3624182866675585 
-4.336808689942018e-19 
-0.3090549006875512 
-0.02958728874616539 
-2.296402537466497 
-0.6200014435855871 
0.524285289149041 
0.1721864475154964 
1.758893902298357 
1.093327192063702 
-1.161656728609205 
2.150072345592546 
0.1738222133383619 
-0.5794802775641545 
-0.3149069636424535 
1.08179779155454 
-0.6221016306165499 
0.5433340343563372 
1.243241271550193 
0.5772135109005982 
0.6978731130104324 
1.290532790716818 
0.4864546720569571 
0.4565849731788522 
-0.4223513720220439 
1.188149548769464 
0.995227328978479 
-1.235077201715276 
-0.1939275408621067 
-5.637851296924623e-18 
-1.214031101111076 
-0.6056173588500059 
-1.608435970402964 
-0.8235877423550988 
0.6550029943415019 
-0.3064750949286907 
0.7339359800106191 
2.999353732089672 
-1.255521190080579 
-0.3249739472652379 
-0.9606765679269544 
1.229881715637276 
-0.2556361633170507 
0.6124183394664091 
-0.2016688544033826 
0.9612683579644842 
-1.03258367824803 
1.161028978898835 
0.1565982579287384 
0.2461085583892046 
-0.511499872488563 
-0.1330196474385806 
-0.5886254096950333 
-0.4445253744737331 
0.082926235888302 
-1.645053505274017 
-1.069257550586111 
0.2298278694276374 
0.07515448062769416 
-0.3884145141566069 
-0.2072211505207145 
-1.37397298281813 
-1.811770912737634 
-0.7446131216826561 
0.2210649643531207 
0.06560003732784338 
0.9967743582473442 
1.978115426453658 
0.1357682311599341 
0 
2.071732722584656 
0.3134439347377665 
0.8302190336586461 
0 
0.5350230249974651 
2.540136794691569 
1.387778780781446e-17 
3.469446951953614e-18 
1.039133284094892 
0.5169885964575903 
0.294292751243362 
1.386790010314616 
0.2387349731322881 
0.7124039858925153 
0.6517791875974877 
0.8254392707803265 
-1.766664150998092 
0.09384909602614616 
1.13452085499195 
-0.5295536781722981 
-0.5980400573861575 
-1.206871726978704 
-1.663689299302612 
1.484139343814353 
0.5413129300601914 
0.2425943033029625 
-2.479547300847956 
-0.3800685074717958 
-0.5445505286574411 
-0.7341250534576593 
-0.7807350795074749 
-1.484582240429931 
-0.2278106523473606 
-0.6282450990327304 
-0.695616264725748 
-0.09379410581315674 
-0.6901565438063948 
-0.3293508721052537 
1.246887956240839 
0.7408886627850593 
-1.530407198368486 
1.22005582407868 
-0.348066954649526 
-0.06677851801723281 
1.372628127235394 
0.4503490985136281 
0.5455594288599477 
-0.230708815983961 
-0.09974434147224633 
0.07407497655191131 
0.4110908119550822 
0.3868739170619572 
0.3279114148914003 
-0.9135205658661882 
-0.003097902342075749 
-0.6934899971520556 
-0.2713534150412932 
0.04113124670359181 
1.532440653642634 
-0.8760371482487604 
-0.5856636215763096 
-1.765372573257277 
-0.3992167768515822 
-1.817884846639313 
-0.1889759455140302 
-0.1477295456819944 
-0.5479120455899845 
-2.324402552558805 
-1.154442211548943 
1.136009445223854 
-0.1059889365368042 
-0.6457438764142936 
0.5187138319958855 
-0.3892092729187994 
-0.02672752747008389 
-0.2042533658229161 
1.744041405400348 
0.2053925744726847 
-0.5385877391995795 
0.6286250656902739 
0.05559409413062212 
-0.1106919206995017 
0.8741698134484767 
-0.3407774922967801 
0.919387296278375 
-0.3516247257176172 
-1.734723475976807e-18 
-0.5787032041063057 
-0.3467013952680217 
0.8047708670708914 
1.043824197671941 
0.4590178036722763 
1.50270549079908 
0.05656857318806103 
-0.003104912292542253 
-0.3215406898968763 
1.332096855567361 
-0.2143484822599042 
0.8575594467723361 
-0.2223109595401085 
-0.0403740582373401 
0.7529949609361829 
-0.2853602126415721 
0.7934254812548761 
-0.9163640057148499 
-2.415808381207356 
1.352816565887029 
1.225997857848839 
1.193841784860977 
-1.040834085586084e-17 
2.546036921810277 
0.7402104211631164 
0.1812974983205349 
0.5162268258341456 
0.8829065731683485 
0.5871205229771533 
0.1187797602151479 
0.04077629663985573 
1.839509598685346 
-0.3876099707822365 
0.746895241555311 
-0.08598067828947439 
-0.7805549925296981 
-0.2547381501967194 
-0.9382759933603319 
-0.2481611782346007 
0.7756647819162634 
0.7124853563868031 
0.9481502450108167 
-0.7777568429941452 
-0.2147500851655981 
-0.6989391937480782 
-0.4103288718111238 
-0.9694128176138795 
-0.5001763700437402 
-0.6358929240077307 
-1.387778780781446e-17 
-1.569469907954036 
1.954807104646125 
0.4451663206759767 
0.8545199817406621 
1.390086605912346 
0.724798858072091 
0.5509396151580018 
0.4461456332058126 
-0.8580849706455381 
0.5214445752666964 
0.205199179903205 
-3.469446951953614e-18 
0.127962292692492 
0.9519487017257267 
-0.8097501318745465 
-1.126249236721243 
-0.5910733352878506 
-1.864563803544023 
-0.4873453309814969 
-0.2122841868449852 
-0.9633089896369148 
-2.419704122442317 
0.1022627241488619 
0.8295869484478644 
0.3278835851603809 
0.2036471111813474 
1.04061914786609 
-0.7575108392044602 
0.2929742371983229 
-2.262560328719562 
0.4804595881990079 
-0.7530258239282795 
-1.030509963217526 
0.2805926619561935 
0.9147185312450618 
0.3175177679824934 
-0.5138650627879747 
0.1624982514126539 
1.071484743085765 
0.1011179442576149 
0.4184433014286568 
1.570105791849599 
1.178766629333704 
0.2116015644195757 
-0.1568442185897471 
0.6646147145992757 
-1.368848543024998 
1.419813745573493 
0.833965726811182 
-1.266757452435703 
-0.7345998586240975 
-0.7671935650346371 
2.710505431213761e-20 
-0.2914000864190024 
-0.04792006343467012 
-2.009756397768034 
-2.602085213965211e-18 
-0.8200584805119624 
-0.5312822357407558 
1.187936673818611 
-0.8662724298761739 
0.1777101614575648 
0.6562990988192411 
0.8629967351299596 
-0.5453617815213286 
0.5285254472737397 
-0.6195459948561047 
0.2390044146042336 
-0.4689337971285709 
-0.5547959886148121 
1.08729250777317 
0.06319008571903782 
0.7887740026579196 
0.05869477217554909 
0.3330005906334214 
0.2027208872917675 
0.7711029533253687 
1.417625856626623 
0.5452397983383892 
-8.673617379884035e-18 
-1.387778780781446e-17 
0.7410500151920002 
0.3579291808735584 
1.125648722271482 
2.168404344971009e-19 
-1.734723475976807e-18 
-0.6414652405960862 
1.249666073378266 
-0.7515592090859804 
-0.5225064283577814 
-0.2919328782477673 
-0.2768507839521957 
-1.099752969727909 
1.031980914848304 
0.4649918938178726 
-0.3383207575181831 
1.018466347631447 
1.122623303592041 
2.03762714032715 
-0.3148113669378472 
0.6063983849269614 
-0.998701779632492 
0.06835494069914784 
0.1397454925938174 
-0.7534846720815283 
-0.1774121019630091 
-0.2780334120400047 
0.1993566235861129 
0.2061118656964627 
0.9072436897961246 
-1.221803623051645 
-0.1074784928419987 
0.2235246129111092 
0.8574189780399324 
-0.540449743543177 
0.7561881810786119 
0.6134399244721237 
-0.5898499665813599 
-0.9481994484288309 
-0.4893806719568887 
-0.09793540341144809 
-2.490826328510029 
-1.310921453068378 
-1.873025492460467 
-0.4183008111772779 
-0.02098997358051448 
-1.062918555649966 
-0.6891350960721019 
1.734723475976807e-17 
-1.132824283996264 
0.7314917338077834 
0.8262878225886985 
1.155631231898196 
0.6960283643709482 
1.132312137740407 
0.3245173054454421 
0.8076496791754807 
0 
-0.1011890697677153 
-1.526413721604245 
-0.01517757500776444 
0.2069239540198527 
-0.2524072738421142 
-0.6443581493727438 
-0.01098619962334647 
1.283443119176448 
0.3180535039413586 
-0.06276730447923534 
1.058625683632972 
1.09050574172223 
0.4010292961512666 
-0.09745307179237794 
1.242173852970374 
1.53883773692777 
2.435351375587743 
-1.788482383354614 
1.666346668775321 
-0.315175386788234 
-0.3957113912139488 
-1.643095543153207 
-0.3274595209962826 
-0.1173741642732658 
-1.145458513198211 
-0.08813224037334524 
-0.2051108070366725 
-0.2218258640610193 
0.1697386009517799 
1.293321441908033 
0.1328998657195279 
-0.2713052876410629 
-0.2532615486079433 
-0.560135067167094 
-0.09750430954073515 
-0.09750430954073515 
-0.154265215961239 
1.535400592584329 
-0.9670711538013951 
-0.2901490776875115 
0.9695234137593782 
-0.9980066604373155 
0.1291589566574467 
-0.1135462609824695 
0.06825585322926887 
0.02169804548063013 
0.2727776425023631 
-2.110980630945935 
-0.728919029752837 
-0.3130160383550895 
-0.3587549596607816 
-1.075545420404328 
-1.148278129513154 
-0.5678155194929944 
-0.9099727791221455 
-0.4112652097404244 
-1.502951139732258 
1.428610642139915 
5.204170427930421e-17 
0.3736018220696789 
0.6669527534884593 
1.022821696122471 
0.8801035098986565 
0.1113626409760711 
0.1176293246559476 
1.555324826762821 
1.122784089184325 
0.3900709581550378 
2.443056838191707 
0.0708181283538922 
0.5930778435322747 
-0.6449451427619118 
0.5539402542273459 
-1.21490858179675 
0.5726009859855616 
-0.565583954623659 
-1.237893931523786 
2.141416049167967 
-0.7210327351735388 
-1.319279098931266 
0.7877279154594292 
-0.8785734366194725 
-0.5339131566809877 
0.190168687343192 
0.1298410978089284 
-0.3450543879256643 
-0.1431326318289178 
-0.4629288117508571 
-0.7444642531105035 
0.9922158064368336 
-0.7935410322206639 
0.01629644354665361 
-1.051800973701747 
-0.2906208866076006 
0.5736161912128637 
0.7323572029817236 
1.450005276799716 
0.286898920196165 
-0.903303643570442 
0.5172030623548698 
0.6634885964985858 
-1.379655268434695 
0.3893912114258826 
0.9662797666104846 
-0.2147685760864691 
1.312071854538127 
-0.2753287752055835 
0.3212411000355364 
1.574421216242372 
1.052712305050193 
-0.49153427950609 
-0.3725225219597632 
-0.5488536691746948 
0.1647181574557469 
0.04265726957878074 
0.1273793385843379 
1.093026724424486 
0.4493665185402532 
-0.880304865537002 
0.8203522440325927 
0.1572098187310767 
-0.3692946438781607 
-0.2788292050171459 
-0.7805199679590352 
-1.25495106775516 
-1.479101386209879 
-1.024981219723068 
-0.3465586768706965 
6.071532165918825e-17 
-0.07125335572937319 
-0.1493844577702172 
-0.09260359632732858 
-0.4658975622391362 
-0.8293475868213552 
-0.7899455554958925 
0.04634973866522551 
1.232680828738395 
0.725043594562535 
2.230374130153188 
0.3348133507562356 
-0.0165099080845608 
-0.06853519714043239 
-0.537498962057722 
0.3672430798760971 
-0.5089396989777367 
0.09908970122861786 
-1.018723715556055 
1.250179161396202 
0.5189353220905537 
0.6000215837741573 
-0.2488032321478095 
-0.4316056781582576 
-0.534746162500183 
1.472198184249219 
-0.1411078721162989 
0.1372215305595182 
1.064985793923071 
1.230839467919055 
1.127355135295947 
0.9927643762374058 
0.4529789857076069 
-1.474402106611905 
-1.54899008927894 
-1.238098565311698 
-6.938893903907228e-18 
3.469446951953614e-18 
-1.124983305139601 
-0.05915150784777537 
-0.5276039340114882 
-0.2894326655993462 
-0.4220093801269676 
-1.300974050394688 
-0.6200266342071641 
-1.295379048207345 
-0.7942361508585349 
-0.1771913007229677 
0.6088528299447442 
0.8335408022953262 
0.9927623397120657 
0.399936705431274 
0.6519569464460802 
1.73373610757031 
0.4682315242685248 
0.2546321323471276 
0.211722073431171 
0.7276954260520675 
0.4618014569949567 
0.5373793291519019 
0.1613672755926484 
1.65002634610584 
0.2851941635623567 
0.0633402581158871 
0.0633402581158871 
0.0633402581158871 
0.9040665158705087 
1.324278206097949 
0.8137241105698491 
0.9742662170626267 
1.108250014767123 
0.572379618836359 
1.452585353842882 
1.421486194678974 
0 
1.214306433183765e-17 
0.2513899970279228 
-1.599772068089207 
-0.7552899103240494 
-1.445620622423795 
-0.1626678017485375 
1.351806686726628 
1.478053905243722 
-0.4910883755560921 
-0.5871073509968391 
-0.7807773842740117 
-0.7416430790269098 
0.5710286824839184 
-0.3879857573532239 
-0.7340175475822442 
0.6590223508416584 
1.251421531929697 
0.7178337401586042 
0.8659630977803037 
0.891635674747763 
0.006708656648184023 
-1.085173554501516 
-0.8815469459749017 
-0.1874979805754305 
-0.2891642592039844 
-0.1259844248219229 
0 
-0.08211596890661411 
-0.664601922611245 
0.06919754068149642 
-0.05905974138929423 
0.4582444318338348 
0.2030154698341317 
0.3530181067738554 
1.230338995300156 
-0.09184616486179559 
-0.9554692133444953 
-0.4199298605105229 
1.036255792070691 
-0.05604062404521098 
-0.7082459170571243 
0.1297531159784168 
-0.631625144075019 
0.4803050044518447 
-0.2817830099258945 
1.815792007181852 
-0.131869236743365 
-0.8750504118101159 
0.6085637871236856 
-1.158358382299056 
-0.6539743281380055 
-0.3830444989229727 
-1.567446436572592 
0.5697745632159311 
0.1553590623024871 
-0.1613959134356273 
0.1349082915208321 
-0.8600334393085095 
-0.5513650164636174 
-6.938893903907228e-18 
-0.6410712142661487 
-0.3685109040029068 
-0.1936256569879861 
-0.1936256569879861 
-0.1936256569879861 
-0.3872513139759721 
-1.905752651200705 
0.5106188707727299 
0.1101280369305222 
0.5194094643117441 
-0.8748916029928887 
1.80315241401724 
0.6286415751910794 
0.8242636044382746 
0.9356637505975165 
1.378296307250221 
1.506476850084704 
0.9823769042391298 
0.6281397777401903 
-0.1886845282389975 
-0.09710165741349416 
0.3066433854581811 
0.3097415464531161 
0.51877058404774 
0.8348647090843143 
-1.47202744306538 
-1.763015778901352 
0.2227591904260733 
-0.2472068211442971 
-0.6881199670811888 
-0.8126758469473701 
0.7587695727808 
0.4246048014124074 
-0.7340703401480854 
-2.048184654251068 
-6.938893903907228e-18 
0 
-0.7432030062603142 
-1.387778780781446e-17 
-0.1744097908922624 
-0.2489658827411523 
0.694282908453511 
-2.796417189414722 
0.9225551633001219 
-0.1419921861750032 
0.737194381778901 
0.09842280978854688 
0.1715722799745411 
1.702052249063209 
1.561251128379126e-17 
1.130140515537679 
1.466158922831225 
0 
1.038168203875191 
0.4175860554345046 
0.6502886078719722 
0.7241299325458193 
0.3871800716596688 
0.4286692298529409 
0.1385120564534787 
1.071214422047743 
0.899294219945981 
0.5766158464630303 
0.5766158464630303 
0.815125783201913 
0.06174764402868303 
-5.204170427930421e-18 
0.4586932239214881 
0.8046145806771867 
0.6117702892379787 
1.046416956896881 
-0.09557361924505578 
1.019739782724443 
0.1597940612461668 
0.5835659384815961 
-0.2884196058357266 
0.1122689935737306 
1.297350015825257 
0.9300078352987399 
-1.215712723156786 
-1.214009096916642 
0.9519757577954635 
1.268679675464017 
-0.2227788278873587 
-6.331740687315346e-17 
-0.3413837590383168 
-1.158896403353484 
-1.313679862126196 
1.051984638915825 
-1.881362983153363 
0.7918230126523916 
-1.194247162069084 
1.196431464639708 
0.7703095210033328 
-0.2982428330789725 
0.3068216342700368 
0.02779320588250197 
-0.8855778251036769 
0.05364812073288411 
1.107499029987248 
0.6713405598337054 
0.5247735857369485 
-0.9578611999550709 
0.3034071650001468 
-0.3533669758325396 
0.1519523857914215 
1.593622696227691 
1.199383281468097 
1.388455486177598 
0.1056721196936881 
-1.282304899755425 
-0.5128238323440858 
0.7638537770424938 
1.711942443761378 
0.4459926599914077 
1.043243027668271 
0.923583827875498 
0.8440086672935397 
0.3856970295537664 
-0.3232593485002672 
-0.1251018188967069 
-0.805443011816332 
-0.1531468296282343 
-1.066765692471041 
0 
1.387778780781446e-17 
-0.5217462901271144 
-0.05804729450788171 
4.85722573273506e-17 
-0.168294168494009 
0 
-0.519246448042443 
1.099243197176473 
0.2028889926074417 
0.2499081729642915 
0.277627704884699 
2.037854603025757 
1.057808730463879 
1.283823062972676 
0.2999183451214398 
0.9159399449704249 
1.79963884879776 
-0.2307725327621629 
0.7286579921596078 
0.1352216570463523 
-1.096774013815943 
-1.122659348208733 
1.726795090200624 
0.6777132242423924 
0.2957855660916552 
2.580913557026043 
0.2211504636456135 
-0.2916690499740047 
-0.01861068330279003 
-0.03917095696023074 
0.9549315489647278 
0.2324943940056333 
0.525170911206234 
0.2539164304390774 
-0.3996532566288732 
1.445111528112399 
-0.3933826223448181 
-0.1791660053145532 
-0.2113059650089986 
-0.2079377659176984 
-0.6488450373495294 
-0.2072212568562816 
-3.000667916258966 
1.591912321903976 
0.2516482035265461 
-0.6238724542661239 
-1.361232333918913 
-0.7235534571927013 
0.1989890889921936 
0.466220153026561 
1.734723475976807e-17 
-0.7469862558516411 
-0.4371197217331333 
-0.06163509762510799 
0.06460609803372112 
1.296959984614439 
0.02584243921348846 
0.1219458650431056 
0.5324575613740318 
0.1520212702747017 
0.3878422435163564 
5.724587470723463e-17 
0.5418750623213507 
-3.469446951953614e-18 
0.1683288599494715 
0.8374112738521284 
0.6558689680367887 
0.3694740255388158 
0.509298765862463 
1.578563347512201 
0.05979505764134081 
0.1246875976929172 
0.4851833595420071 
0.4532337353033467 
0.7045358168876513 
0.3203093421919905 
0.5855920338646546 
-1.561251128379126e-17 
0.8881578051467904 
0.5085097035865562 
-0.1219213682833172 
0.02390942223733401 
0.1507574858837994 
1.443267408247453 
-0.4674557491812487 
6.938893903907228e-18 
6.938893903907228e-18 
1.387778780781446e-17 
-0.209376266351595 
-0.137338733632356 
0 
-0.247960724306458 
-2.081940992884001 
0.08942366352388885 
-0.9754134432889622 
0.9566547221070818 
-1.018503484424097 
-0.08330527650425343 
1.07026212023604 
0.1860778393596189 
0.1323954055454316 
-0.2717655101828459 
0.9392997873964622 
0.4960742803814911 
-0.4846371106080231 
-0.8151002852121987 
-0.3023988800847454 
0.329420301391846 
0.8073072409062854 
0.7296675638571343 
0.1755960151000567 
0.4025825178034824 
-0.6598844577720934 
0.01140297179985458 
1.156856583985014 
-0.4713857449172706 
-0.2766791852842467 
0.4671330235608306 
-0.9219267722053748 
0.5128126302871771 
-0.5135290443311831 
-1.706978363838037 
-0.2794494190174356 
0.06304412751722159 
0.1473549977315725 
0.2605795312225148 
-0.9511663710122629 
-0.006410447685421026 
0.4966022413112407 
0.6130235932049841 
-0.2099752825639532 
-0.7936086122728385 
0.4305756272514956 
0.2626769903881767 
1.272618447821026 
0.170137699567014 
1.320781661469539 
-1.511281973738949 
1.347834183727213 
2.694149097926205 
0.9719879072084074 
0.8216769087032885 
-0.08093051600957799 
0.117831359125783 
1.734723475976807e-18 
1.040834085586084e-17 
-8.456776945386935e-17 
-1.507694531687939 
-0.4031647567397094 
4.336808689942018e-19 
-1.162452927919544 
-0.09978961226197475 
0.4209610998913647 
-1.175742673948895 
-0.03449755170618181 
-0.4647796683685465 
0.3021256328430628 
0.1477309658623968 
-0.3135672154642379 
0.8436093855927908 
-1.214306433183765e-17 
0.5693036115898182 
0.5581901840324225 
0.05365897439535743 
0.2279469579297865 
-0.366040640984605 
-0.8575349493355161 
-0.3834222408482995 
-0.5019704891071177 
-0.5998393228012988 
1.233988455871723 
0.5238299034216863 
1.125895997126842 
1.242170835921328 
1.204255662580701 
-0.7288442556987457 
0.3072731985328725 
1.019163412594566 
2.713029997534034 
2.536366562020503 
0.1281963318973563 
-1.248258306352784 
-0.5124806878997125 
-1.189935767770766 
-0.4408967834781028 
-4.336808689942018e-19 
-0.09750958551031202 
-1.214306433183765e-17 
-0.7195345401222303 
-0.01918791917694206 
-0.2092840104876277 
-0.8476444300395014 
-0.8342997091574731 
-0.3177400838438554 
-0.09870418452955318 
0.08130772711420393 
-0.670002897824886 
0.9910606023929464 
2.162011329861397 
-0.03241514182271183 
1.150597640493714 
-1.457163686647339 
0.5119218770715908 
-0.6407103410029766 
-1.317027836141509 
-0.4348712793360319 
-0.1121969238810683 
0.5355814502970334 
0.9022172556207128 
1.352860082576236 
0.1433820386724743 
-0.9853760021287257 
1.13851004540628 
-1.332512089272292 
0.4591872007762033 
-0.709614608725021 
-0.3249011479080601 
0.5412944573950118 
0.621353205294162 
1.154725321113843 
0.08609306077844094 
-6.938893903907228e-18 
0.9554342930904669 
2.65149518616948 
1.171232554032052 
1.068698581094166 
4.336808689942018e-19 
1.239878383918592 
0.1723174465716613 
0.2419612316067042 
0.9008876367533822 
0.8928500668262027 
0.2318143113599276 
0 
0.5075223647409391 
0.9753064753898899 
0.4814673963944985 
2.113521539709868 
-0.1274066425396913 
-1.265897089179122 
0.4237317477572887 
-0.2972607452832053 
2.125036258071589e-17 
-0.2524756031376707 
-0.4335513265679424 
-0.4922552846914088 
-0.006564565180880992 
-0.374640571121481 
-0.3218376471507354 
-1.250918019252165 
1.070257621004678 
-1.174384254065576 
-0.5029946068769482 
0 
-0.0693850624905696 
-0.7508433605903068 
-0.6528219964297861 
-0.6489577815384007 
1.136663345509359 
-1.261172651543215 
-0.1363097331421247 
0.6486280388328147 
0.738399468272794 
0.4206900474937583 
0.1490464181964531 
0.4537003786247291 
0.67369058396582 
0.05881466232797389 
-0.1914965698031867 
0.4990012651007303 
1.133768831416898 
0.1939352225927622 
0.05677558217641578 
0.7005381444716388 
-1.343288487212173 
-0.2585910784245849 
-1.611787392412117 
0.6375489874681752 
0.02546570364417994 
-0.1725060870064114 
-1.277317034596014 
-1.576713442049829 
0.7775279609828502 
-0.3553524160276793 
-0.3553524160276793 
-0.3641143910531555 
-6.938893903907228e-18 
0 
-1.057100179682244 
-1.152466479286513 
-0.09121036982820599 
2.51534904016637e-17 
-1.580732577976519 
1.101017564842815 
-0.5582291008457443 
-0.746786991471565 
-0.4920020847164722 
0.7685032902325613 
-0.2481750951006704 
0.9341866775197466 
-0.4639582532415074 
0.322388391959457 
0.6377664088869215 
-1.07485409185993 
1.196084267010297 
-0.2643799780076313 
-1.719123595609349 
0.7967010265233976 
1.040413194638071 
0.6736472078919491 
0.8614447467195874 
-0.006388880188287808 
-1.375061704515877 
0.2945808316494719 
1.799782781671831 
-1.948516365481933 
0.6713835747353248 
-0.4136939868315673 
-0.4613522527001654 
-2.045682842837764 
-0.2032372009149646 
0.4031704978141435 
-0.1799913139737399 
-0.8965497872638113 
-1.512293275175308 
-0.1926120488968875 
-0.3136007968817341 
-0.356120936071544 
-0.356120936071544 
-0.9416220224664332 
-0.3935337365573692 
-0.7841154614507703 
-0.1625095353797392 
-1.021138728722827 
0.05844929576015632 
0.5410861995506352 
-0.2024551782937875 
0.4319129325134342 
-0.2816499812444594 
-1.367622468527951 
-0.601037563809917 
0.5032350197280249 
-0.6009987256566505 
-0.6839286497819823 
-1.667455962039812 
-0.7683933637114757 
0.6466117919101521 
-0.7476378372291377 
-0.6751568520457029 
-0.4172021551849022 
0.7661271666439641 
-0.3158366188664113 
1.18419361118935 
0.6827860876169811 
-0.2908444165448703 
-0.07141734685961675 
-1.029252008802281 
0.8543728841065127 
-0.6182704302026739 
1.228003126372287 
0.8428146725489416 
1.317162073536845 
0.8164671181264284 
0.2733021161647042 
1.95939870805024 
-1.628081002744667 
-0.6801838973717913 
-0.164749907018507 
1.28451124052418 
-1.061758555696115 
1.018566443948798 
0.897861202345005 
0.9274105380599361 
0.1432089914142111 
1.878217436119729 
-0.007858449603994781 
0 
-0.6767059223443254 
-0.2140117820176061 
2.255140518769849e-17 
-1.020108286968078 
-0.9787158340177547 
0.139083345766666 
0.9332995359397428 
0.5376946622603769 
1.010455240438624 
0 
0.2748949422581328 
0.01059983751585657 
0.7812916197241834 
1.448990319207513 
1.011888281339952 
0.07053226330569393 
0.0929448516389197 
1.054693591555165 
0.7818331588688759 
0.5661839500358721 
0.1796307227259863 
0.6095799120244575 
0.6198772391306426 
0.2316235115187955 
1.123291081679112 
1.168460970700083 
0 
0.6809108746801654 
0.815231300059016 
0.4591517222375767 
0.6104348077465223 
-0.6588264968986703 
-0.03144378157169975 
1.554287981773251 
-0.2122539000214655 
1.67906086498342 
-0.6924064449285663 
-1.89341844909701 
-1.383453192619724 
0.05317482192623882 
1.072173533276405 
0.8879308860938155 
0.9509394217004478 
0.4157194890757017 
0.3412581124628957 
-0.6035343214139491 
-0.9728501924276264 
-0.5264934068093765 
-0.3821455795377113 
0.1956383950200881 
-0.09958457237305283 
0.4682315242685248 
0.6092173768204427 
0 
0.5734505386851871 
0.6204183588087671 
0.3202446400879308 
-0.01217060526054775 
-0.2957939734447326 
0.6454707670665871 
-1.253188730065311 
0.529132408942052 
1.428630192130758 
1.409795403214904 
1.095197820357902 
1.073884091747606 
1.108080243221493 
0.239530268192311 
-0.2833619737510625 
0.2829791574755841 
0.5207760735400496 
-2.153980958200161 
0.3815019394011515 
-0.9082710151059715 
-0.2890985614817823 
-0.5057839237466648 
1.241924262483514 
-0.2708000681304718 
-0.4983382587112177 
-0.4940922922177787 
0.8368732336388752 
0.4906768779569688 
1.891383146863453 
-0.07075763683425183 
0.596066875459385 
1.2585706844802 
0.07394212589721975 
-0.674787364937789 
0.3863245355443437 
-0.5350611417337651 
0.4095165385092287 
0.1857230177842384 
1.495416154778484 
-0.08868149297938502 
0.6485559542439132 
1.086701883125442 
-0.2835174029983816 
-0.1297778376985886 
-0.531986285440543 
1.856833626771889 
-0.3560376220051444 
-0.7762658967669677 
-0.5289950438815445 
-0.9993301210319347 
0.3113446144694087 
0.4177727543592801 
-0.1932134297683056 
-1.599263354722841 
-1.215495972738857 
-0.2831179114819943 
-0.6740809624344087 
-0.6797738632880352 
0 
0 
-2.247681586074027 
-0.0326609970125763 
0.1793894766992525 
0.3835445762183194 
-0.402358641710515 
0.996547926964982 
-0.4178002188901913 
0.1550748134852604 
1.210399186561832 
-0.5355221176423207 
-0.1107347721575581 
-0.4216173512428245 
-0.3709997452861084 
0.4891598163511434 
-0.5940937351315175 
0.1818254114247919 
1.098711323455248 
0.4818291336050617 
0.2862739618887701 
0.0465366081994233 
1.251944691991018 
0.2678025500705666 
0.626283329954895 
-0.9395891457250082 
1.260880639593156 
0.1950999092809523 
0.7177213184653886 
-0.5660083958244302 
0.2087767446518503 
-0.2529028544250441 
-0.01043808769869169 
-0.1266824383924626 
-2.158845386089039 
-0.2168287506084956 
-0.3749543580478231 
-0.2259886311604058 
-2.367649471791251 
-0.2942116304115371 
-0.6090004289108605 
0.20196848692915 
1.387778780781446e-17 
-1.945970892056164 
1.023663680287011 
0.3803973444273033 
1.77244765038416 
0.7867915335873453 
0.2826151600629811 
1.09786644639282 
1.15486580133037 
0.3240902423398745 
0.2590355549197402 
1.618911276468253 
0.569897075859469 
0.306553379084999 
1.180538778132186 
0.1543990402936929 
0.3447036165102337 
0.136356047225168 
-2.081668171172169e-17 
1.155813516884336 
0.1001479659615228 
0 
0.1705389356391651 
0.4921515204152196 
2.196333076257536 
1.284011238205851 
0.004826779285336319 
0.1467360834190116 
0.9770222845182747 
0.2182439023285942 
0.9178319035208472 
0.5247064456872742 
0.6807958839371929 
0.2886192507140113 
2.578531601356286 
0.5756401241593878 
0.9322291569770993 
0.08748111151522084 
-0.08726869616414158 
-0.0367448932930315 
0.5598660863181424 
-0.6830475617342536 
0.9432081042486395 
0.4437094034094822 
1.731719648529344 
-0.01558861093723422 
0.74246216587825 
0.08128442344563271 
0.3831160279981684 
0.02074123615466232 
-0.341004948110866 
0.4106826939648012 
0.9763423779497142 
0.4668981809748396 
0.0238405313685362 
0.4884810348575551 
1.551556874511577 
-0.01596851296497428 
0.1330438829721723 
-0.3323153782200139 
1.884749947748302 
-1.57657653730216 
0.3938020201686359 
-0.1290485671516262 
0 
-0.843480958967959 
-0.4350255628583061 
-0.009803147170299273 
-0.3318876887467925 
-0.226540004938663 
-0.9535028107173146 
-0.4118130204575675 
-1.496806659382367 
1.73922090648877 
1.12386754856512 
1.050010668556946 
-0.4460003457691389 
-1.126887865449381 
0.7295650590978181 
-2.42861286636753e-17 
0 
0.3569695151314493 
-0.4660848470970189 
0.3313765438787046 
-1.983086557555326 
-0.1037110893957426 
0.5529611455917096 
-0.1739818793201976 
0.3840903337699683 
-0.9950646148060116 
-0.3617031700178209 
0.6293476361910602 
0.08499465793259371 
-1.148134412715575 
-0.06732257813214901 
-1.289395121597639 
-0.1131387223637688 
2.255924236194169 
0.9522874436038311 
-0.1790244877940232 
0.3948015683113233 
-0.4738714645533679 
0.0809273876355643 
-0.3891447779632876 
0.2007579713704974 
-0.6566036439961886 
-0.2693078651324923 
-2.419492718189141 
0.05554670307249468 
0.8309881196238271 
-0.934576594145477 
-0.07870769085772744 
-0.07801574737647864 
-0.1036024096871301 
0 
-0.2543280546123391 
-1.220638736370029 
-1.388715914689564 
-0.2003326501638873 
0.1763799002528627 
-0.01114223334068554 
1.508947200242424 
1.043633714276029 
-0.9416765973995036 
0.6575787259392448 
0.9757192816605942 
-0.1582402263993198 
0.4252562631500014 
0.3035529176441356 
0.8801168701618491 
0.01034718636864739 
0.2956931479223082 
0.2548485660227989 
0.7337639483878999 
1.34365490895407 
1.658872798843176 
1.056026745509989 
0.7006977529715234 
0.6387894704902347 
-1.32397400913516 
0.1916034590443269 
-1.385798111952798 
0.3507110462018201 
-0.4507868971659828 
-0.2658115109044222 
-0.4684324454803189 
-2.099743052697331 
0.1418110664853716 
-0.7062984359357706 
-1.222754953210673 
-0.7655477606923095 
-0.1265668785108101 
-0.07605815715694848 
-0.3738600262967831 
-0.3721154458716643 
-0.2952602489840361 
-1.780847507587009 
-0.3000203719133862 
-1.933170440782303 
-5.290906601729262e-17 
1.192622389734055e-17 
-0.0255359816889562 
-0.220281451360925 
-0.8537010440997905 
-0.0134199448398314 
1.142467572762418 
-1.02100323168945 
0.8958067176693384 
0.1621519765335128 
-0.1658112821460863 
-1.456734965550409 
0.4028468493790622 
0.4744902919562402 
0.02396905098846939 
0.7759238134443938 
1.065453906547236 
0.1051645232026023 
0.5915972772222593 
0.3761401232283144 
0.06226844682465747 
1.188670258413724 
1.271625630349029 
0.115332015975428 
0.4122852476914644 
0.7760581994399 
0.7760581994399 
1.198723947926906 
0.01370256424394316 
0.4192411641122383 
0.3064095902131184 
1.54272767109674 
0.8116413748179492 
0.4368374449111279 
0.9101543281855973 
0.01753241574867258 
0.1792909441452988 
0.7517831928792427 
3.469446951953614e-18 
0 
1.387778780781446e-17 
0.8057145857487135 
0.003964744439043169 
0.1474439245178297 
7.37257477290143e-18 
0.1070506939200874 
-5.854691731421724e-18 
1.208488858803459 
0.1242051207233657 
0.07790358373496355 
-6.938893903907228e-18 
-0.1786707461347386 
-0.1318118727055817 
0.8008710052298597 
-0.9498552077360209 
0.3542188706747614 
-2.280863884790131 
0.4833797116989185 
-0.1157303283468431 
1.524996804468176 
0.9870562785537266 
0.6109909150758547 
0.1799092452589963 
0.6264110690206449 
-0.03225312863349252 
1.004229742913122 
0.2385527640671077 
-0.1848673109064234 
0.0007363471460844874 
-1.894579183293812 
-0.3559503938634175 
1.353546796987474 
1.227549830243865 
0.3024935814670614 
0.04717081002514401 
0.01060494757233748 
-0.4334389112705465 
-0.8702379471531709 
0.3702186958456402 
1.693291888902344 
0.5205809552790376 
-0.5990014795111801 
-0.5386193726386869 
0.5798859901364288 
2.775557561562891e-17 
-0.06088570469494005 
1.040834085586084e-17 
-0.1222881976590359 
-1.24624559413165 
-0.4160134483629038 
-1.177409352769328 
0 
-0.05662929518775164 
-0.3148755982262414 
0.8102671380656009 
1.613654759823255 
0.1971704724695958 
-0.8367075640530819 
1.347078720969402 
0.8442127762181971 
0.314956569201861 
0.9247194242431817 
-4.85722573273506e-17 
0.6501061213240164 
0.2936495931614102 
5.204170427930421e-18 
0.8239226761910735 
1.931945896700591 
0.1362355881849199 
0.2809905436525333 
2.048205528367363 
-0.5363358080883208 
0.4572307839741542 
-0.3358193290869192 
-1.14709380062968 
-0.2128080253666294 
-0.1573477959292513 
0.1469375449514592 
-1.135179204670817 
-0.204574516666023 
-0.9990199432561448 
-0.05851051762779334 
1.516494379318084 
-0.7838542158711489 
0.385928792435216 
0.1481666561333386 
0.7851392820445192 
0.1489196000128233 
5.204170427930421e-18 
1.096434769455169 
0.7815487157483981 
-0.4829239293884325 
-2.710874412208067 
-0.6525223844018323 
0.7112248575988382 
-0.6869676591956859 
1.474514954580286e-17 
9.974659986866641e-18 
-0.04768267710785114 
0 
-0.4177459908180002 
-0.6924342579829166 
-0.1849848972263393 
-0.5410167398631952 
-1.032399959942836 
0.01327212164674547 
1.463078183356578 
-0.3709543146519837 
-0.1765646860395281 
0.2733258050260364 
1.180709077898684 
-0.7035452718944237 
-0.8253564669052458 
-1.814165481408161 
-0.1496222878633912 
0.9960637154076769 
-0.03487565686797405 
-0.03810625456534471 
0.08038746293210283 
0.257233429272166 
0.9476116975252273 
0.7023017382584805 
0.01211931928198555 
1.471614378628411 
0.6364538999073562 
1.275734203447294 
0.04219047915758441 
-0.333681700965855 
-0.2995600960553683 
0.7875223496403541 
0.7186722288253005 
1.388012038380908 
-0.835367419419943 
1.327360428068043 
1.212978567660796 
-0.2330264349693385 
0.817193143212485 
0.1998062266143537 
0.7857042906790367 
-1.244541484457108 
0.4622522929386215 
-1.554888951154901 
-2.081668171172169e-17 
0.03413591192890178 
-1.025304895853426 
0.9118327408501425 
-0.868605861465389 
-0.6540886243723353 
-0.2391351668527383 
-0.1126222857250221 
-1.040834085586084e-17 
-0.5520001343629104 
0 
-0.3491372437951079 
0 
-2.544563959638786 
-1.214400960483823 
-0.9181850645165515 
-0.293075553876081 
-0.4289406181241167 
-0.7823633482773339 
-0.196955984567729 
-1.315520105528964 
-0.3447804256329808 
0.7315462874240816 
0.04800212088757359 
0.04886343677960075 
0.3345806675271379 
-0.455265431733259 
-1.594425974444809 
0.7927455516182597 
0.1440453898597499 
1.046645006290047 
0.9865174863134628 
-1.021125828217193 
0.06366056238125879 
0.09010874781062218 
-0.5217176722929673 
-0.7781115183918856 
0.2191347662221255 
0.3872841360463196 
0.702543455712613 
0.4218815234961606 
0.664167113413849 
0.224335515055028 
0.5636656931719508 
0.1536150702634422 
-0.1249161923125398 
1.882279079309374 
0.6404620892623761 
1.179956203628602 
0.4939099299376168 
-1.209672785259223 
-0.1136556256211043 
0.6137774187633716 
0.08377497790372324 
0.5357630881892667 
0.8036213939181278 
-1.734723475976807e-18 
0 
0.3393900080039149 
0.7165001644571057 
0.1022068557925101 
0.6022334172556529 
0.06857609145501233 
1.033994437792753 
0.4075022631859966 
-1.040834085586084e-17 
0.8419213309653135 
0.3259977245269601 
0.902762264972603 
0.8699305039247203 
0.8093291892772265 
0.1776005987395408 
0.3393900080039149 
0.3393900080039149 
0.3393900080039149 
0.416924039128128 
1.154836848823392 
0.09319421718100321 
1.285503807931099 
0.5107889128614558 
0.5258085270894173 
0.3610307610038089 
2.289903234921708 
0.7718738175236752 
2.348756694991863 
0.2575288811438334 
0 
0.6475248308342774 
0.2351650632870674 
1.310961731463239 
0.4945806292740427 
0 
0.6691694209712954 
0.4353998904315621 
1.37355218386783 
0.288334763888223 
-0.4838455379588346 
-1.155816155028426 
-0.1700067664395321 
-0.6577028505033431 
-0.5970035512993589 
0.9159561384908821 
0.5257326509558754 
0.629787387111858 
0.3740736615507018 
0.1147864945877622 
0.2828160558885648 
0.5193469553872371 
0.1963958538540647 
1.025919995714838 
1.400878935069631 
0 
0.03440755728661191 
0.1046917642322652 
0.454197000156403 
-0.5488374118673301 
-3.469446951953614e-18 
-0.1159329862521526 
1.382917394883236 
1.012582724097145 
0.6598186593648472 
1.358022135768925 
-0.4511359581984385 
0.9994568807575928 
0.8276281732080536 
0.4843267556702737 
2.060989166976225 
-0.04272059084711284 
-0.464282361986902 
-0.6686468876824213 
-1.429702659794224 
8.630249292984615e-17 
0 
0 
-0.1871429596056396 
-0.3370536856068073 
0 
-0.1876185064967907 
-0.3998101607346307 
-0.1458869066231868 
0.5994428789922719 
1.179994190623102 
1.031555574730392 
-1.208013582933425 
0.4879486980917944 
1.157150821959793 
0.8117979904896445 
0.5569026241254073 
0.8203530658778245 
0.1485540252735283 
-1.283503937354046 
0.1232084021107743 
1.749702172376059 
0.4257830218046754 
-0.2496156168735465 
-1.120714172517119 
-0.553901209477234 
-1.504774595759248 
1.673285433936093 
0.1538406999811257 
0.6917020637550312 
-0.7309205794940212 
-0.8384476262822732 
-0.5361244803473711 
-0.1869442057656789 
-0.1489403498737008 
1.94131928932589 
1.758095230226812 
0.6483031359424516 
1.503795956983927 
0.5333016917925677 
0.04186876855420778 
0.1581309152191933 
0.1287704799707788 
-0.06241636069990524 
-1.322702999652233 
-0.9235497107405669 
-0.5762030106388693 
-6.938893903907228e-18 
-0.5673462805697688 
-0.1911243108143098 
-1.538356818264177 
8.326672684688674e-17 
-0.00232747467409596 
-5.204170427930421e-18 
-0.3269467748169461 
-0.0824176113706746 
-1.714917332766369 
-0.8374868218722852 
1.716558702286469 
-1.351441463935471 
0.2941570068258462 
0.02914747011526604 
-1.053247595297546 
-0.08493752427669682 
0.2637244085817397 
1.116979268470041 
-0.1190656098848812 
0.5157056206993836 
0.04090606056019271 
-0.2503706444303917 
-0.5358041243394527 
-1.281203259409024 
1.427910500806147 
-1.713427295132039 
-1.179246598520676 
-0.5118810070688837 
0.5848748621991905 
0.3877665340828743 
1.437191561574279 
-1.039655873210692 
-0.2801951459985024 
-0.2720852908736176 
-0.2175232974655165 
0.02258715252692656 
-0.3214576161218159 
0.4680446887511676 
-0.1713541002628484 
0.3186086433988285 
0.6852452511163287 
-1.162279444878028 
0.8661780107432915 
0.4195519779533133 
-0.751760588859717 
-0.3547822810847077 
0.3721267026135507 
0.01525796459940505 
0.9633370238722055 
0.7408786988156891 
-2.53703308361608e-17 
-1.153824574863018 
-0.153012937000453 
0 
-1.605302974861454 
-0.4968559551206854 
-0.3691300457167082 
-0.7822553754650565 
-0.8022219228349453 
0 
0 
-1.544745403360821 
-0.9296758191357356 
-2.089659998319926 
0.8628911768277299 
-0.1502163813738431 
-0.218878533826722 
-0.1451370859967435 
0.06291843809752801 
0.6224095795950811 
-1.222779885186907 
0.2041457790649259 
-0.02339271061971843 
-0.09629944978974435 
0.4144253271879265 
-0.3248764272316461 
0.6213531932212355 
0.8169680811532838 
-0.3642919377521919 
0.0435692904696872 
2.222614453595284e-17 
0.01814802632746548 
1.33172351543667 
-0.04858155655978058 
0.6587389383844811 
0.2814131938980373 
0.09145094741133544 
0.8110783690002701 
-0.2429492957321579 
-0.4825816074539426 
0.7697291020994136 
-0.6111195378014418 
0.8925271859332634 
0.9014913838693012 
-0.06239582071502328 
0.2008572305119399 
-0.7593820714551482 
-1.717731137336626 
-0.9438273435111231 
-0.09476612220781962 
0.7813652132239169 
0.8792901109878881 
0.5786284765828409 
-0.3693976210800177 
-0.4228367719232598 
-0.8778624928341614 
-0.3521189446618177 
-0.9831865273051562 
1.83560270008767 
0.1102738215704177 
0.4846381299091345 
0.4846381299091345 
0.5648951338912531 
1.199460298978508 
0.3181782061040935 
0.1890361219915829 
0.1027634860013266 
0.7919890463854635 
0.06118202179816883 
0.2004438437835362 
0.5531120446086694 
1.734723475976807e-18 
0.9682566835026281 
3.469446951953614e-18 
0.9196914454578298 
0.4907931553359076 
0.1690269571790376 
0.1632324273324458 
0.2672711196491336 
0.4603317715927039 
0.8704306229193053 
0.6103984422025115 
1.055537051442745 
0 
0.7064687482630027 
0.03748659703191006 
0.2651423298621668 
0.2949604660721871 
0.05167316203489086 
0.3815555359736122 
1.387778780781446e-17 
0.3806174237860302 
0 
1.257478885538082 
0.1510086964875191 
0 
-3.469446951953614e-18 
0.2881704414442121 
0.2167686232962535 
0.6607503943902712 
0.70155528671689 
0.9235113832205799 
1.219342958864582 
0.0828023687275929 
-0.07356904283399335 
-1.566992699290074 
-0.09893235806444824 
-0.7879921865068649 
0 
-0.12188739278354 
-0.5794354948638498 
-0.08777349569651116 
-0.6677554457084579 
1.257674520083185e-16 
0 
-0.3773408722937045 
-0.9510333800616982 
-0.167911197241237 
-0.7817288177603751 
0.607462228314245 
0.6167671962552548 
0.03966371048021253 
1.421772136459518 
0.8406173015768952 
0 
0.3119520449013553 
0.2434111892449095 
-0.1486866213284682 
-0.145884593860534 
-0.3830298200104156 
0.799303153492774 
-0.06141626823475543 
0.02145335480350034 
0.1843025584397141 
-0.6862401813657166 
1.084650818325582 
0.4758046437648272 
-0.2487172517767606 
-2.156084455524285 
-0.3558925824401258 
0.3453113363848115 
-0.2459393267052686 
-0.1314722822891933 
0.75140818121668 
0.4456168402007896 
0.2508509654955378 
-0.3493623664505927 
0.06386047486056004 
-0.5672682939631967 
-0.6884438911686035 
0.7975770344162589 
0.2073464354672443 
-0.6420044990829027 
-0.8365210768317221 
0.5650345718488704 
-2.116633815648195 
1.291421964332763 
0.05694847496011807 
0.1747801995116149 
0.7967601702802446 
1.502001436394074 
0.1737443840649945 
-0.8440454942918177 
-0.08996695915893466 
-0.05428739951428038 
-0.5908450348336634 
-2.081668171172169e-17 
-0.3978118084146133 
2.775557561562891e-17 
1.387778780781446e-17 
-1.016697274954555 
7.806255641895632e-18 
-0.0008037382212257691 
-0.1997071548381736 
0.00279102654077791 
1.084450764736932 
0.07760425120221584 
1.073659053767725 
0.7329090827631445 
0.6342717907026526 
-0.9847825549138224 
-2.299733745431236 
-1.678459029257925 
0.96829138452317 
-0.8771563525486332 
-0.9465062183381917 
0.6683871328814271 
-0.04881531312799535 
-0.3040444089689222 
0.03473621633563802 
-0.01662269268732118 
-0.5674346207755591 
0.3582910768140441 
1.890068856040302 
-0.5586355379449144 
-0.7348375978660451 
-0.284664157887641 
-0.4146263377510802 
0.4570763552640358 
-0.05718713907823191 
0.02965384581773515 
0.09615491083974322 
0.4478291157245436 
1.018008993627407 
-0.8569116993820748 
-0.710585958164456 
0.1868238317926326 
5.377642775528102e-17 
-1.099725218846737 
-0.2355270791651236 
-0.9507802107995997 
-0.5638182862508367 
0.6196641216681554 
0.4345504764993177 
-0.5589013278461187 
-0.3446933456022104 
-0.723783499461317 
1.377959160769237 
-0.7300667462055556 
-0.08025216988554666 
-0.3824449692025716 
0.9933234641554569 
-0.4488079211986841 
0.6922979784387103 
-0.2200701358811785 
-0.7954117382743721 
0.6288219548439894 
-0.9680390255150126 
0.1663481300797471 
0.06043147762474371 
-0.9234866647633709 
0.5211124969850781 
-2.401313967013285 
-0.1090753957975765 
1.15637310648057 
1.030779706106672 
-0.8988437749274434 
-0.05067629985196748 
-0.1413014538340743 
-0.8094847855074506 
0 
-0.09471993854585047 
-1.557524228544841 
-0.412559589164388 
-2.339236745064672 
-0.07694950877928543 
-6.938893903907228e-18 
-0.4778601937351552 
-0.59604010099979 
0.7664356423469115 
-2.527058196691264 
0.7510730083942715 
0.3510239034838387 
0.3309608863829266 
5.204170427930421e-18 
0.2475303092101754 
-0.5413218742718665 
0.469902392604752 
0.458982415852722 
0.1934161055915855 
0.436949113266777 
0.3777457713964056 
-0.4269221633649512 
0.5735607813968318 
0.6765792418650575 
-0.03583021573330581 
-1.671450274211159 
1.173859747788017 
-1.45702184498814 
-1.746471301223988 
0.1051784332608801 
0.02793151498336394 
-1.07261253470807 
0.6261467759885391 
-0.8993264494365173 
0.3236345141118589 
-1.481386997603854 
2.254695047597689 
-0.3441714858379143 
0.2885846854258814 
0.342184629454882 
-0.5346874020286111 
1.170421532637475 
-1.882757306257966 
0.2811897516379004 
0.06799535032985191 
1.747167662226748 
-1.809884522722313 
0.8451223747833506 
0.7243560169893105 
3.295974604355933e-17 
1.187035980536799 
0.02662761288066245 
0.6216957619299439 
0.7957561129047893 
-0.3993321322139158 
-0.1718167146246634 
-0.04598136162851969 
-0.8876801750427804 
-0.303337828689706 
-2.112258084257628 
0 
0 
-1.420735255041975 
1.387778780781446e-17 
-1.138163112549864 
-0.5042135575619451 
-0.4462049602240531 
-0.1236087638040487 
-0.8167321622111627 
-0.208366743521942 
-0.208366743521942 
-0.208366743521942 
-1.147216241455137 
-1.517883041479706e-18 
-0.03443576716882944 
