svm_type c_svc
kernel_type linear
nr_class 2
total_sv 23956
rho -0.99777
label 1 0
nr_sv 12123 11833
SV
10 0:0.004076572 1:0.039800213 2:0.71425652 3:0.24697575 4:-0.011869054 5:0.10666908 6:-0.23015313 7:0.88350733 8:0.83760578 9:0.10206718 10:0.80631297 
10 0:0.06043051 1:0.12487451 2:0.81349999 3:0.49709204 4:0.056390609 5:0.20600667 6:-0.1955835 7:0.95197693 8:0.92301789 9:0.11377163 10:0.80631297 
10 0:0.0038347834 1:0.028291736 2:0.70752851 3:0.22575967 4:-0.015276744 5:0.18289204 6:-0.16423439 7:0.88528645 8:0.83400038 9:0.10538651 10:-0.63038735 
10 0:-0.014597304 1:0.15975998 2:0.71244251 3:0.16309428 4:-0.12752282 5:0.11714242 6:-0.22740557 7:0.91796769 8:0.88112253 9:0.11464185 10:0.80631297 
10 0:0.17825478 1:0.3349692 2:0.78472155 3:0.54979775 4:0.1235336 5:0.47755972 6:-0.061919669 7:0.96180523 8:0.93594783 9:0.10699555 10:0.80631297 
10 0:0.19797859 1:0.10368658 2:0.8830276 3:0.37443248 4:0.0091388257 5:0.34023076 6:-0.17864253 7:0.95671962 8:0.94662486 9:-0.074253744 10:-3.1136641 
10 0:0.15140546 1:0.26877492 2:0.86738011 3:0.76357942 4:0.070678182 5:0.32340661 6:-0.15420546 7:0.97892495 8:0.95625164 9:0.20911241 10:0.80631297 
10 0:0.092070992 1:0.24614006 2:0.72491429 3:0.32484127 4:0.18504349 5:0.3587101 6:-0.059196393 7:0.94663682 8:0.91606027 9:0.23724573 10:0.80631297 
10 0:0.12945476 1:0.14853605 2:0.76038133 3:0.38839383 4:0.12384629 5:0.010396525 6:-0.17596697 7:0.96798982 8:0.96442474 9:0.16433687 10:0.80631297 
10 0:-0.051485206 1:-0.03426713 2:0.44255967 3:-0.25389767 4:0.034885779 5:-0.11934057 6:-0.89120345 7:0.84573898 8:0.82452694 9:0.080916393 10:0.80631297 
10 0:0.055503449 1:0.20547585 2:0.71752098 3:0.47597833 4:0.027083604 5:0.07028631 6:-0.16604728 7:0.92236431 8:0.8935899 9:0.25255062 10:0.80631297 
10 0:0.031078842 1:0.10241138 2:0.82113241 3:0.50158253 4:-0.025355587 5:-0.0074506993 6:-0.17365327 7:0.90023866 8:0.86076886 9:0.15135713 10:0.80631297 
10 0:0.023125814 1:0.1106109 2:0.64474976 3:0.29468813 4:0.010124794 5:0.11546472 6:-0.13768033 7:0.95277845 8:0.93715124 9:0.34551905 10:0.80631297 
10 0:0.079638817 1:0.13540311 2:0.75654014 3:0.45656817 4:0.087778229 5:0.15389814 6:-0.27796353 7:0.95278463 8:0.94085741 9:0.19733261 10:0.80631297 
10 0:0.056843396 1:0.12728387 2:0.83536511 3:0.44747709 4:0.085750016 5:0.17154221 6:-0.13953387 7:0.94872187 8:0.92569882 9:0.086047967 10:2.0810667 
10 0:0.0040367149 1:0.039468317 2:0.70973992 3:0.24599581 4:-0.0079653545 5:0.10668549 6:-0.22989058 7:0.88211866 8:0.83418072 9:0.1020623 10:0.90748103 
10 0:0.0088193133 1:0.099459447 2:0.71990668 3:0.14126242 4:-0.092935832 5:0.14702683 6:-0.19449872 7:0.91249763 8:0.88300375 9:0.082430529 10:2.0810667 
10 0:0.13999067 1:0.19570561 2:0.7507929 3:0.43102697 4:0.14390997 5:0.45731617 6:-0.14241457 7:0.94959223 8:0.92831496 9:0.10049005 10:2.0810667 
10 0:0.3508677 1:0.24861724 2:0.98269208 3:0.777864 4:0.12900803 5:0.39675673 6:-0.0270139 7:0.98580326 8:0.98053591 9:0.16489352 10:-0.2844857 
10 0:0.15290904 1:0.12534533 2:0.76609477 3:0.36199103 4:0.12012955 5:0.011994912 6:-0.15307671 7:0.96754852 8:0.96217295 9:0.1696753 10:2.0810667 
10 0:0.073518661 1:0.1444775 2:0.71536099 3:0.31546143 4:0.060869677 5:0.085172088 6:-0.1712212 7:0.91072924 8:0.89011962 9:0.22429738 10:2.0810667 
10 0:-0.11792608 1:0.096551077 2:0.52159377 3:-0.027286712 4:-0.046930595 5:-0.13561624 6:-0.69437312 7:0.88217817 8:0.85744672 9:0.10962045 10:2.0810667 
10 0:0.04379295 1:0.095319149 2:0.84269927 3:0.5159504 4:-0.011903254 5:-0.0060216682 6:-0.07035957 7:0.90112111 8:0.86464416 9:0.13313048 10:2.0810667 
10 0:0.24274789 1:0.16446487 2:0.83234669 3:0.56330834 4:0.15207457 5:0.1016392 6:-0.19932217 7:0.96762858 8:0.95749754 9:0.12387623 10:2.0810667 
10 0:0.019426461 1:0.019344903 2:0.75173972 3:0.29349715 4:0.010797253 5:0.1717069 6:-0.14795867 7:0.88060756 8:0.84684092 9:0.098704184 10:2.3758821 
10 0:0.088162238 1:0.10780987 2:0.90328545 3:0.46354266 4:0.13606652 5:0.24113306 6:-0.071484856 7:0.95606565 8:0.9418816 9:0.093412814 10:2.3758821 
10 0:0.1535231 1:0.0012267482 2:0.78492433 3:0.37660353 4:0.17089359 5:0.4579206 6:-0.047197647 7:0.947102 8:0.93365874 9:0.105317 10:2.3758821 
10 0:0.2301114 1:0.2046083 2:0.90077932 3:0.56138758 4:0.14242024 5:0.32372868 6:-0.2062351 7:0.9627798 8:0.96312944 9:0.15275387 10:1.2273496 
10 0:0.13186154 1:0.11807405 2:0.77431731 3:0.46339785 4:0.24482742 5:0.52820779 6:-0.026009856 7:0.94621565 8:0.9307234 9:0.15101842 10:2.3758821 
10 0:0.076454275 1:0.050800549 2:0.77537137 3:0.35978897 4:0.11274684 5:0.013109872 6:-0.1190141 7:0.96512234 8:0.9621493 9:0.1500299 10:2.3758821 
10 0:-0.023514954 1:-0.031547548 2:0.51257994 3:-0.19532964 4:0.017719195 5:-0.096595337 6:-0.69975196 7:0.86081864 8:0.83893802 9:0.07595065 10:2.3758821 
10 0:0.10642102 1:0.043647801 2:0.53200537 3:-0.013711992 4:0.024351837 5:-0.10612668 6:-0.6721242 7:0.87722459 8:0.8580041 9:0.10863873 10:2.3758821 
10 0:0.038495511 1:0.022127631 2:0.8467451 3:0.55143667 4:-0.005269539 5:-0.011120855 6:-0.26279096 7:0.8940557 8:0.86382377 9:0.12844155 10:2.3758821 
10 0:0.16611948 1:0.059775828 2:0.8215249 3:0.35990869 4:0.1766813 5:0.13867038 6:-0.24546819 7:0.9565501 8:0.95187025 9:0.04357298 10:2.3758821 
10 0:0.027705036 1:0.016199319 2:0.73822065 3:0.19875467 4:0.011185812 5:0.21993245 6:-0.17988342 7:0.87263359 8:0.84309123 9:0.09994662 10:2.0254084 
10 0:-0.028578586 1:-0.12281821 2:0.50136725 3:-0.35844827 4:-0.023189114 5:0.33589415 6:-0.6678964 7:0.83921892 8:0.82481597 9:0.33866946 10:2.0254084 
10 0:0.1227926 1:0.099779175 2:0.91669107 3:0.4364473 4:0.16739859 5:0.24996318 6:-0.10369253 7:0.94780502 8:0.94108667 9:0.03346326 10:2.0254084 
10 0:0.01923622 1:0.019183725 2:0.74786077 3:0.29233288 4:0.01286895 5:0.17171932 6:-0.14778921 7:0.87922347 8:0.84337815 9:0.098699981 10:2.4793948 
10 0:0.071922711 1:0.094894823 2:0.77546136 3:0.30812189 4:0.018495955 5:0.25505157 6:-0.12416622 7:0.91017718 8:0.90182013 9:0.11809212 10:2.0254084 
10 0:0.33117362 1:0.2087556 2:0.93371957 3:0.43272216 4:0.17716715 5:0.33017616 6:-0.058346453 7:0.96682222 8:0.97138962 9:0.13789982 10:2.4792004 
10 0:0.17021749 1:0.027667637 2:0.80127241 3:0.35767689 4:0.11964337 5:0.37279689 6:-0.28465377 7:0.95328863 8:0.94752976 9:0.15433598 10:2.0254084 
10 0:0.13389486 1:0.095822008 2:0.73153439 3:0.33021459 4:0.207091 5:0.47494008 6:-0.15664984 7:0.92994009 8:0.91906185 9:0.15730074 10:2.0254084 
10 0:0.10508671 1:0.050800549 2:0.79438392 3:0.39559848 4:0.10868184 5:0.014740938 6:-0.048412549 7:0.96448213 8:0.9631875 9:0.15255091 10:2.0254084 
10 0:0.10514228 1:-0.14761914 2:0.73050428 3:0.17375557 4:0.28968193 5:0.3140869 6:-0.2838678 7:0.93104464 8:0.92689078 9:0.22901756 10:2.0254084 
10 0:-0.058910826 1:-0.0065270077 2:0.45205349 3:-0.40169482 4:-0.0057313713 5:-0.17964407 6:-0.99513285 7:0.851166 8:0.82599941 9:0.087290988 10:2.0254084 
10 0:0.059390416 1:0.0074043247 2:0.54722433 3:0.051029108 4:0.089784123 5:-0.077099699 6:-0.64069125 7:0.87652913 8:0.8608226 9:0.11361851 10:2.0254084 
10 0:0.043263231 1:0.014468142 2:0.81996167 3:0.3101078 4:-0.0083786771 5:-0.01452714 6:-0.35944046 7:0.88539919 8:0.85888677 9:0.10679142 10:2.0254084 
10 0:-0.0063408437 1:-0.029529713 2:0.60019177 3:0.09338367 4:0.022309919 5:0.14214182 6:-0.30172457 7:0.93742112 8:0.9286951 9:0.29828131 10:2.0254084 
10 0:-0.010913054 1:-0.02445072 2:0.65137475 3:0.036956993 4:0.08259633 5:0.031694257 6:-0.38095238 7:0.95322839 8:0.9456235 9:0.35517574 10:2.0254084 
10 0:0.031658382 1:-0.04944259 2:0.62618764 3:-0.015903023 4:-0.082287406 5:0.57366992 6:-0.36386633 7:0.85582911 8:0.85303051 9:0.10663059 10:2.0254084 
10 0:0.25807351 1:0.19220635 2:0.86768615 3:0.3776081 4:0.22354474 5:0.27553939 6:-0.060605858 7:0.96267831 8:0.96083455 9:0.048325202 10:2.0254084 
10 0:0.062549033 1:-0.052671001 2:0.65168139 3:0.16909513 4:0.20792096 5:0.10810989 6:-0.27405805 7:0.91029945 8:0.92307428 9:0.20167315 10:2.0254084 
10 0:-0.012922568 1:-0.10917172 2:0.52073322 3:-0.17692653 4:-0.050532072 5:0.47166559 6:-0.63303067 7:0.85176061 8:0.82948787 9:0.39560191 10:1.8337052 
10 0:0.027433678 1:0.016064158 2:0.73437229 3:0.19796607 4:0.013014634 5:0.21994239 6:-0.17967959 7:0.87126194 8:0.83964369 9:0.099942066 10:2.1285203 
10 0:0.05876996 1:0.086486631 2:0.77495204 3:0.29015683 4:0.033105185 5:0.20436424 6:-0.12527812 7:0.90383646 8:0.89900547 9:0.083129631 10:1.8337052 
10 0:0.17225764 1:-0.097597766 2:0.80939097 3:0.30323435 4:0.084620629 5:0.20456789 6:-0.24999957 7:0.95396281 8:0.94659015 9:0.12840643 10:1.8337052 
9.984342935646424 0:-0.00044248903 1:-0.07599153 2:0.66447338 3:0.017698005 4:-0.014009553 5:0.00085632184 6:-0.48510316 7:0.87441216 8:0.86191246 9:0.31447137 10:1.8337052 
10 0:0.19692142 1:-0.008627973 2:0.75387756 3:0.31682378 4:0.1887811 5:0.48845627 6:-0.031776766 7:0.93507309 8:0.9230165 9:-0.042210608 10:1.8337052 
10 0:0.086506574 1:0.07288829 2:0.81472177 3:0.40161157 4:0.10771696 5:0.019859569 6:-0.051502252 7:0.96551086 8:0.96493889 9:0.028469911 10:1.8337052 
10 0:0.16144768 1:-0.14545451 2:0.75932836 3:0.14780663 4:0.21425417 5:0.19130558 6:-0.24633162 7:0.93987174 8:0.93069012 9:-0.0029509117 10:1.8337052 
10 0:-0.029950475 1:-0.01522973 2:0.50959818 3:-0.28044275 4:-0.0076195317 5:-0.14707888 6:-0.77615426 7:0.86672423 8:0.83876244 9:0.086028263 10:1.8337052 
10 0:0.11888645 1:0.016397107 2:0.71276215 3:0.22029688 4:0.10595439 5:0.090181011 6:-0.17302082 7:0.88751165 8:0.88047759 9:0.1811548 10:1.8337052 
10 0:0.13215173 1:0.062841105 2:0.56201275 3:0.17166852 4:0.14716732 5:-0.062673292 6:-0.57482976 7:0.87730397 8:0.86177888 9:0.057287541 10:1.8337052 
10 0:0.046618378 1:0.011347574 2:0.84038202 3:0.3111153 4:-0.0070289297 5:-0.010453243 6:-0.27832132 7:0.8887514 8:0.86162811 9:0.036583585 10:1.8337052 
10 0:-0.07459319 1:-0.097561005 2:0.52336819 3:-0.31300784 4:-0.06546261 5:-0.30536093 6:-0.68716614 7:0.93896722 8:0.92534574 9:0.10936793 10:1.8337052 
10 0:-0.015359334 1:-0.030252625 2:0.67361127 3:0.035951862 4:0.065090608 5:0.075006133 6:-0.35251728 7:0.95750185 8:0.94932933 9:0.31239691 10:1.8337052 
10 0:-0.076210556 1:-0.1091072 2:0.50422687 3:-0.28773749 4:-0.15985553 5:-0.02675855 6:-0.90259727 7:0.85181326 8:0.83605649 9:0.13509113 10:1.8337052 
10 0:-0.0049701056 1:-0.10980634 2:0.50736347 3:-0.17194013 4:-0.070127367 5:0.47952266 6:-0.66244831 7:0.857939 8:0.82632852 9:0.51171921 10:2.2087868 
10 0:0.13493374 1:0.0084319994 2:0.87686845 3:0.25334471 4:0.16621798 5:0.19237835 6:-0.13068152 7:0.93185004 8:0.92708806 9:0.026028634 10:2.2087868 
10 0:0.12704322 1:-0.037477417 2:0.75692679 3:0.21350064 4:0.029547597 5:0.16043307 6:-0.16271361 7:0.89574974 8:0.88980893 9:0.099161284 10:2.2087868 
10 0:-0.052170878 1:-0.14844966 2:0.4628405 3:-0.31563582 4:-0.00037197428 5:0.21898115 6:-0.82547882 7:0.92328592 8:0.91821417 9:0.26790394 10:2.2087868 
10 0:0.32780513 1:0.07142867 2:0.87413241 3:0.28958477 4:0.18263917 5:0.32347177 6:-0.17436113 7:0.94454241 8:0.95844114 9:0.14327455 10:2.3789158 
10 0:0.30394391 1:0.034052736 2:0.86144774 3:0.38455566 4:0.097979372 5:0.18569 6:-0.072254323 7:0.96657352 8:0.95783001 9:0.062744651 10:2.2087868 
10 0:0.13554666 1:0.11540568 2:0.84906866 3:0.53899943 4:0.11820494 5:0.016021811 6:-0.16302026 7:0.9688224 8:0.96858224 9:0.090487137 10:2.2087868 
10 0:0.13990213 1:-0.14588719 2:0.7209785 3:0.030205906 4:0.12027815 5:0.32532594 6:-0.34903674 7:0.93688347 8:0.92254114 9:0.056372751 10:2.2087868 
10 0:0.020791983 1:0.053304313 2:0.62920437 3:0.23946664 4:0.023539861 5:-0.037700531 6:-0.20924574 7:0.88894616 8:0.86689155 9:0.026940872 10:2.2087868 
10 0:0.17789578 1:-0.019387497 2:0.7237304 3:0.17870215 4:0.10014579 5:0.082751398 6:-0.14218428 7:0.88894463 8:0.87614228 9:0.11928008 10:2.2087868 
10 0:0.056507094 1:0.018439745 2:0.85337724 3:0.30187965 4:-0.0052725894 5:0.001319428 6:-0.2251749 7:0.8895159 8:0.86210126 9:0.036559541 10:2.2087868 
10 0:0.076798449 1:0.013676002 2:0.70565044 3:0.22029191 4:0.066150401 5:0.17600412 6:-0.16307092 7:0.96173683 8:0.95323625 9:0.20092862 10:2.2087868 
10 0:-0.033242615 1:-0.087866269 2:0.49122814 3:-0.25048281 4:-0.072751193 5:-0.207215 6:-0.9158572 7:0.90665311 8:0.89174838 9:0.25582017 10:2.2087868 
10 0:0.075111083 1:-0.11632557 2:0.60342149 3:0.022323066 4:0.096555342 5:0.15597438 6:-0.58924697 7:0.90606511 8:0.90878131 9:-0.16225242 10:2.2087868 
10 0:-0.037046863 1:-0.06011421 2:0.5079119 3:-0.31565722 4:-0.17697612 5:0.015576299 6:-0.78851678 7:0.86640576 8:0.8381486 9:0.13121161 10:2.2087868 
10 0:0.00049714227 1:0.020945852 2:0.54627332 3:-0.13167828 4:-0.072136082 5:0.51002997 6:-0.59598539 7:0.87401713 8:0.83399816 9:0.52981977 10:2.2015831 
10 0:0.15383543 1:0.0064242505 2:0.89107974 3:0.22537471 4:0.15365349 5:0.20023459 6:-0.080965827 7:0.93071614 8:0.92442421 9:0.029602118 10:2.2015831 
10 0:0.14924358 1:0.018738703 2:0.7843121 3:0.22202972 4:0.03678881 5:0.18169637 6:-0.066345748 7:0.89856897 8:0.8917583 9:0.096040889 10:2.2015831 
10 0:-0.078085835 1:-0.031009956 2:0.46008318 3:-0.37656896 4:-0.021714415 5:0.22136005 6:-0.8050279 7:0.93028823 8:0.91928755 9:0.25149173 10:2.2015831 
10 0:0.33862171 1:0.20522946 2:0.88723368 3:0.39662364 4:0.12020429 5:0.30891963 6:-0.013469829 7:0.97388105 8:0.96097556 9:0.099596341 10:2.2015831 
10 0:0.30380495 1:0.18528616 2:0.79222999 3:0.34868483 4:0.20973256 5:0.59812461 6:-0.07510968 7:0.94185719 8:0.92764051 9:-0.029397777 10:2.2015831 
10 0:0.10112726 1:0.078962337 2:0.83686658 3:0.42871528 4:0.11036763 5:0.010041722 6:-0.21808486 7:0.96504102 8:0.96546587 9:0.093785064 10:2.2015831 
10 0:0.1180695 1:0.041991374 2:0.74056255 3:0.088353511 4:0.065028822 5:0.35362539 6:-0.28531192 7:0.9444117 8:0.92466626 9:0.098805771 10:2.2015831 
10 0:0.038613818 1:0.096546017 2:0.64319352 3:0.36153333 4:0.046434215 5:0.066682654 6:-0.13138686 7:0.88754868 8:0.86889208 9:0.03013424 10:2.2015831 
10 0:0.15779776 1:-0.0099514983 2:0.73415177 3:0.17074527 4:0.094005335 5:0.10653783 6:-0.11377784 7:0.88956093 8:0.87244682 9:0.11389665 10:2.2015831 
10 0:-0.030289247 1:-0.015314573 2:0.52974221 3:-0.26376415 4:-0.079668958 5:-0.43625747 6:-0.67914502 7:0.94559394 8:0.92752451 9:0.11013391 10:2.2015831 
10 0:0.032823465 1:0.037537517 2:0.63292728 3:0.24969531 4:0.021277531 5:0.13018074 6:-0.20990076 7:0.94278795 8:0.93199504 9:0.27353517 10:2.2015831 
10 0:0.1083269 1:0.08661399 2:0.73520182 3:0.40690009 4:0.07821423 5:0.28405972 6:-0.0023407467 7:0.96569967 8:0.95649018 9:0.23807929 10:2.2015831 
10 0:-0.021154339 1:-0.045264153 2:0.50754448 3:-0.30809548 4:-0.076659863 5:-0.24300034 6:-0.804554 7:0.91690923 8:0.89519403 9:0.008829423 10:2.2015831 
10 0:-0.08070926 1:-0.051096988 2:0.48139146 3:-0.29023851 4:-0.19459171 5:0.027223296 6:-0.87751212 7:0.86594608 8:0.83249513 9:0.10923828 10:2.2015831 
10 0:-0.0019880969 1:0.010472926 2:0.54570675 3:-0.094127578 4:-0.070985095 5:0.51459175 6:-0.59707516 7:0.88148206 8:0.83397107 9:0.52884004 10:1.8671641 
10 0:-0.04069124 1:-0.070770877 2:0.44691435 3:-0.33133533 4:-0.038312494 5:0.16760121 6:-0.86303208 7:0.93292758 8:0.91692673 9:0.27538192 10:1.8671641 
10 0:0.4007255 1:0.22408001 2:0.90007047 3:0.43469038 4:0.13326745 5:0.32516811 6:-0.10473122 7:0.97498865 8:0.95819684 9:0.18475473 10:1.8671641 
10 0:0.30816165 1:0.082197896 2:0.75477398 3:0.27495913 4:0.16626528 5:0.53238274 6:-0.14874741 7:0.93241002 8:0.91356767 9:0.00067897245 10:1.8671641 
10 0:0.17605844 1:0.08890121 2:0.86175953 3:0.41590137 4:0.10998102 5:0.0083660419 6:-0.1217854 7:0.96632066 8:0.96644513 9:0.079000867 10:1.8671641 
10 0:0.25251378 1:0.083550065 2:0.79008763 3:0.20876253 4:0.067684661 5:0.26872815 6:-0.13642863 7:0.95542487 8:0.93133319 9:0.14414207 10:1.8671641 
9.919793080081243 0:0.067574168 1:0.090562823 2:0.67253415 3:0.40869812 4:0.06773026 5:0.15199217 6:-0.027460622 7:0.88846741 8:0.87386385 9:0.029232053 10:1.8671641 
10 0:0.18758018 1:0.058419921 2:0.77419971 3:0.21154675 4:0.097446165 5:0.11374767 6:-0.069994542 7:0.89812508 8:0.87499404 9:0.18333937 10:1.8671641 
10 0:0.083701317 1:0.0011347801 2:0.82009429 3:0.2028808 4:-0.017898576 5:0.016490486 6:-0.27272678 7:0.88477952 8:0.85182758 9:0.065783659 10:1.8671641 
10 0:0.095860063 1:-0.0040037015 2:0.64409738 3:0.13204074 4:0.016114518 5:0.12538453 6:-0.17029578 7:0.94542505 8:0.93141948 9:0.1959697 10:1.8671641 
10 0:0.11519767 1:0.033982297 2:0.690791 3:0.34919506 4:0.064174345 5:0.22675569 6:-0.24786347 7:0.96036617 8:0.94981763 9:0.2327905 10:1.8671641 
10 0:0.013599427 1:0.0060861143 2:0.54026985 3:-0.16902219 4:-0.064825491 5:-0.22544217 6:-0.69170723 7:0.92566664 8:0.90023282 9:0.10916123 10:1.8671641 
10 0:0.27750404 1:-0.032695014 2:0.84390417 3:0.22242214 4:0.19628743 5:0.47098691 6:-0.15288668 7:0.94266076 8:0.93919597 9:0.064924732 10:1.8671641 
10 0:-0.041280893 1:0.023143881 2:0.5424993 3:-0.16835445 4:-0.17439631 5:0.059728607 6:-0.72440212 7:0.88326367 8:0.84812247 9:0.087226168 10:1.8671641 
10 0:-0.018886734 1:0.046334451 2:0.60033281 3:-0.039225547 4:-0.056339895 5:0.52935317 6:-0.5033735 7:0.88886907 8:0.84577443 9:0.25799399 10:1.5342896 
10 0:0.14334985 1:0.0064242505 2:0.83674858 3:0.1067025 4:0.11036963 5:0.3467575 6:-0.10795481 7:0.92635187 8:0.90861473 9:0.28718569 10:1.5342896 
10 0:-0.038095233 1:-0.0082215127 2:0.42729327 3:-0.35093257 4:-0.079307275 5:0.078988339 6:-0.70781568 7:0.88544104 8:0.83850682 9:0.31095413 10:1.5342896 
10 0:0.37488656 1:0.13681964 2:0.91151923 3:0.39600189 4:0.13812399 5:0.41853082 6:-0.059252124 7:0.97163382 8:0.9554502 9:0.11555783 10:1.5342896 
10 0:0.23322672 1:-0.080835544 2:0.73457669 3:0.22228762 4:0.11055333 5:0.39306057 6:-0.18851245 7:0.92524503 8:0.90451092 9:-0.0015037847 10:1.5342896 
10 0:0.14911992 1:0.050170073 2:0.77647778 3:0.17680235 4:0.094300743 5:0.15466291 6:-0.063914322 7:0.89708629 8:0.86980783 9:0.17264222 10:1.5342896 
10 0:0.10276741 1:-0.051441916 2:0.54408406 3:0.10178649 4:0.21302094 5:0.031734449 6:-0.28235939 7:0.86472208 8:0.8404839 9:0.23039223 10:1.5342896 
10 0:0.064528019 1:-0.0045047022 2:0.65049918 3:0.17524742 4:0.012542619 5:0.12527673 6:-0.14851497 7:0.94439648 8:0.93078988 9:0.14079605 10:1.5342896 
10 0:0.10953882 1:0.057604588 2:0.74318058 3:0.41860735 4:0.079130495 5:0.25811622 6:-0.039369473 7:0.96570852 8:0.95686901 9:0.036520462 10:1.5342896 
10 0:0.19704421 1:-0.044253535 2:0.8368815 3:0.17145476 4:0.1532586 5:0.42877149 6:-0.16536633 7:0.94165514 8:0.93403645 9:0.090533905 10:1.5342896 
10 0:-0.096851122 1:0.0084159293 2:0.53022218 3:-0.17087941 4:-0.16007239 5:0.088743825 6:-0.76172271 7:0.88055136 8:0.84784618 9:0.078699872 10:1.5342896 
10 0:-0.044731497 1:0.039669933 2:0.62424774 3:0.015374624 4:-0.03991016 5:0.56685501 6:-0.45979111 7:0.88989681 8:0.85310904 9:-0.0021188718 10:1.128914 
10 0:0.088344847 1:0.011891784 2:0.75637769 3:0.16250734 4:0.042270583 5:0.24675463 6:-0.16915314 7:0.89360566 8:0.87483973 9:0.0891981 10:1.128914 
3.127587264290653 0:-0.085815123 1:0.047589427 2:0.53320322 3:-0.11655256 4:0.03706645 5:0.39289482 6:-0.61794413 7:0.94337023 8:0.93139347 9:-0.0080173636 10:1.128914 
10 0:-0.081405805 1:-0.0088607472 2:0.42164689 3:-0.24359306 4:-0.073137399 5:0.10237905 6:-0.72468851 7:0.88581778 8:0.84155061 9:0.47639579 10:1.128914 
10 0:0.33195097 1:-0.041474701 2:0.85124649 3:0.15590873 4:0.022098251 5:0.25830499 6:-0.18722841 7:0.94099897 8:0.93647394 9:-0.10013324 10:2.1402229 
10 0:0.21464193 1:0.037397672 2:0.87697378 3:0.36754234 4:0.11181413 5:0.36432279 6:-0.10830483 7:0.96075747 8:0.94700641 9:0.10567301 10:1.128914 
10 0:-0.1781003 1:-0.23551217 2:0.48801918 3:-0.79081909 4:-0.19135284 5:0.21718185 6:-0.63350516 7:0.84675697 8:0.82375183 9:0.26430867 10:1.128914 
10 0:0.27388875 1:0.17983607 2:0.82013432 3:0.40628145 4:0.16385667 5:0.5067485 6:-0.028806934 7:0.95329285 8:0.93464786 9:0.069755798 10:1.128914 
10 0:0.13920215 1:0.094423297 2:0.87267638 3:0.39071395 4:0.11627517 5:0.01288697 6:-0.07558694 7:0.96476647 8:0.9654803 9:0.07262126 10:1.128914 
10 0:0.013214761 1:0.15411238 2:0.81368729 3:0.21015545 4:0.076557921 5:0.37605172 6:-0.038622706 7:0.9539403 8:0.93393538 9:0.16352086 10:1.128914 
10 0:0.057425751 1:0.032635419 2:0.67585176 3:0.34219539 4:0.096879213 5:0.2255163 6:-0.17187459 7:0.87105007 8:0.87356345 9:-0.0035720854 10:1.128914 
10 0:0.10219029 1:0.063679699 2:0.80057639 3:0.2093426 4:0.094046949 5:0.19769107 6:-0.042789086 7:0.89871541 8:0.87176944 9:0.17962002 10:1.128914 
10 0:0.0076182438 1:-0.073070917 2:0.51351597 3:0.0042717209 4:0.15700416 5:-0.012742087 6:-0.43509134 7:0.8587668 8:0.83182722 9:0.16419687 10:1.128914 
10 0:0.012537506 1:-0.015602922 2:0.73951313 3:0.15694621 4:-0.03190857 5:0.0213399 6:-0.32587431 7:0.87928892 8:0.84386547 9:0.025390577 10:1.128914 
10 0:-0.059674516 1:-0.012478839 2:0.51655179 3:-0.30649652 4:-0.076179053 5:-0.19996204 6:-0.73796911 7:0.9466995 8:0.92579538 9:0.018615623 10:1.128914 
10 0:0.010444089 1:-0.0080078034 2:0.61640989 3:0.051094272 4:-0.0030571009 5:0.125145 6:-0.24158316 7:0.94055656 8:0.92586049 9:0.14732896 10:1.128914 
10 0:0.075586525 1:0.037712549 2:0.75366959 3:0.46776576 4:0.088486501 5:0.32421072 6:-0.026365096 7:0.96435458 8:0.9575231 9:0.026624719 10:1.128914 
10 0:-0.11226129 1:-0.11427544 2:0.50645673 3:-0.16983909 4:-0.12760357 5:0.24773423 6:-0.72513809 7:0.83744001 8:0.80335653 9:0.085287427 10:1.128914 
10 0:0.13026842 1:0.0052841151 2:0.84710024 3:0.17385563 4:0.11990866 5:0.39333364 6:-0.13260515 7:0.94496504 8:0.93369168 9:0.053270675 10:1.128914 
10 0:-0.13582834 1:-0.067898156 2:0.56784751 3:-0.25096301 4:-0.091682256 5:-0.0051456697 6:-0.73457154 7:0.91677068 8:0.90050825 9:-0.14235132 10:1.128914 
10 0:-0.019363744 1:-0.020068319 2:0.52465483 3:-0.16980064 4:-0.046399997 5:-0.22817001 6:-0.68813036 7:0.85543682 8:0.80490266 9:-0.066153655 10:1.2085846 
10 0:-0.023111338 1:0.07267535 2:0.6811435 3:0.12085299 4:-0.014868188 5:0.58146207 6:-0.34756714 7:0.89570708 8:0.8673544 9:0.080463248 10:1.2085846 
10 0:0.080987791 1:-0.0022083913 2:0.84621653 3:0.1852793 4:0.072397773 5:0.31767668 6:-0.12584575 7:0.9295247 8:0.90641856 9:0.35812849 10:1.2085846 
10 0:-0.085360383 1:0.055879861 2:0.52430412 3:-0.099816694 4:0.050711745 5:0.35334523 6:-0.65469426 7:0.94032747 8:0.93152084 9:-0.0082059697 10:1.2085846 
10 0:0.0079330845 1:-0.065030479 2:0.70006903 3:0.074956233 4:0.0077407415 5:-0.12147948 6:-0.325757 7:0.93144821 8:0.90030013 9:0.051136532 10:1.2085846 
10 0:-0.046938769 1:-0.0014616242 2:0.46698017 3:-0.14623972 4:-0.059784548 5:0.12323562 6:-0.64476006 7:0.89163599 8:0.84928514 9:0.42165314 10:1.2085846 
10 0:0.27442313 1:-0.022811186 2:0.86168736 3:0.14636226 4:-0.027680569 5:0.25922012 6:-0.15094394 7:0.94289215 8:0.93512314 9:-0.086385454 10:1.7894816 
10 0:0.4227107 1:0.29826675 2:0.96786051 3:0.67619017 4:0.1995252 5:0.42956483 6:-0.080444959 7:0.99109259 8:0.98023088 9:0.1096986 10:1.2085846 
10 0:-0.094007454 1:-0.069690034 2:0.58617032 3:-0.2563018 4:-0.19890182 5:0.33817594 6:-0.40284979 7:0.87988624 8:0.85434439 9:0.26711269 10:1.2085846 
10 0:0.29247722 1:0.22161622 2:0.81722954 3:0.39836231 4:0.17698338 5:0.54083892 6:-0.054778684 7:0.94773311 8:0.92722392 9:0.095739361 10:1.2085846 
10 0:0.11879405 1:0.044726557 2:0.85860296 3:0.33774581 4:0.094832339 5:0.0041882761 6:-0.13301606 7:0.96198468 8:0.96197982 9:0.047660411 10:1.2085846 
10 0:0.13019809 1:0.034539145 2:0.70528007 3:0.3051704 4:0.10226778 5:0.23579521 6:-0.041666305 7:0.87463217 8:0.87609807 9:-0.018323608 10:1.2085846 
10 0:0.073449384 1:0.035939126 2:0.81148782 3:0.24533831 4:0.091155627 5:0.22216281 6:-0.073305879 7:0.89705564 8:0.87163673 9:0.1429114 10:1.2085846 
10 0:0.081856326 1:0.014419727 2:0.6174644 3:0.12170272 4:0.20916477 5:0.15394467 6:-0.08632761 7:0.88395076 8:0.85623869 9:-0.078865837 10:1.2085846 
10 0:0.017658483 1:-0.0036880851 2:0.75135812 3:0.20264676 4:-0.041168085 5:0.0099058411 6:-0.29587515 7:0.88238285 8:0.84516174 9:0.033057257 10:1.2085846 
10 0:-0.036166509 1:-0.004537832 2:0.5451115 3:-0.16956317 4:-0.070251896 5:-0.15255412 6:-0.6604287 7:0.95154264 8:0.93091361 9:0.083690919 10:1.2085846 
10 0:0.10266744 1:0.073766997 2:0.75855503 3:0.54859892 4:0.090229025 5:0.28797444 6:-0.10977698 7:0.96283163 8:0.95670384 9:0.20493585 10:1.2085846 
10 0:-0.1117589 1:-0.11888026 2:0.50098124 3:-0.32482659 4:-0.15491832 5:0.30446863 6:-0.74334269 7:0.84883513 8:0.80628132 9:0.061119308 10:1.2085846 
10 0:-0.073133826 1:-0.028908396 2:0.51425275 3:-0.21706919 4:-0.043559439 5:-0.24808156 6:-0.85052874 7:0.91699556 8:0.89634025 9:0.065617769 10:1.2085846 
10 0:0.21072784 1:0.054821765 2:0.88020796 3:0.23059158 4:0.11131219 5:0.37672297 6:-0.023401185 7:0.9525933 8:0.93728588 9:0.096721558 10:1.2085846 
10 0:-0.076419745 1:0.023464845 2:0.6182312 3:-0.11518819 4:-0.0828449 5:0.03836821 6:-0.52112529 7:0.92873569 8:0.91500612 9:0.067678131 10:1.2085846 
10 0:-0.16750447 1:0.020138441 2:0.57204592 3:-0.071860657 4:-0.10908887 5:0.11520245 6:-0.6602867 7:0.88645129 8:0.86894373 9:0.037400706 10:1.2085846 
10 0:-0.052462369 1:-0.034349908 2:0.48171634 3:-0.29801249 4:-0.059737048 5:-0.40429913 6:-0.82726883 7:0.85564568 8:0.80086737 9:-0.10285848 10:1.3766645 
10 0:-0.024602342 1:0.039987356 2:0.66873225 3:0.097397533 4:-0.0014481546 5:0.5412829 6:-0.36608945 7:0.88788805 8:0.86647919 9:0.12438299 10:1.3766645 
10 0:0.064845423 1:0.013049766 2:0.82620804 3:0.14154765 4:0.045821029 5:0.29741325 6:-0.1468199 7:0.92735763 8:0.90188486 9:0.25313651 10:1.3766645 
9.999251751195509 0:-0.019174108 1:-0.019900944 2:0.52187246 3:-0.16912716 4:-0.042288081 5:-0.22817387 6:-0.68734636 7:0.85409225 8:0.80161132 9:-0.066149154 10:1.2926236 
10 0:0.03079776 1:-0.025153615 2:0.69763246 3:-0.07679828 4:-0.023702919 5:-0.096770446 6:-0.32900451 7:0.93398732 8:0.89945386 9:0.055104082 10:1.3766645 
10 0:-0.018707412 1:0.011601388 2:0.49428349 3:-0.077341335 4:-0.044519204 5:0.14759424 6:-0.59502664 7:0.89449908 8:0.85357106 9:0.42302473 10:1.3766645 
10 0:0.037833765 1:-0.028801827 2:0.85196303 3:0.17434317 4:-0.076958195 5:0.1814893 6:-0.16979276 7:0.94268942 8:0.93311288 9:-0.018195819 10:1.3671791 
10 0:0.36038068 1:0.3247184 2:0.98095236 3:0.62411775 4:0.25736957 5:0.69530682 6:-0.017349065 7:0.98794776 8:0.98130664 9:0.081979698 10:1.3766645 
10 0:-0.045675866 1:-0.028419847 2:0.62790285 3:-0.072030555 4:-0.16885497 5:0.39478074 6:-0.2876447 7:0.89715058 8:0.86966435 9:0.27814128 10:1.3766645 
10 0:0.2887017 1:0.40236146 2:0.85871177 3:0.46467593 4:0.23028622 5:0.66058919 6:-0.017982071 7:0.96067599 8:0.94297445 9:0.15460539 10:1.3766645 
10 0:0.11818473 1:-0.018773936 2:0.86353019 3:0.25709987 4:0.07305523 5:0.00311422 6:-0.1163891 7:0.96073494 8:0.96039563 9:0.10881076 10:1.3766645 
10 0:0.051996476 1:0.093505993 2:0.85151316 3:0.34476843 4:0.10795685 5:0.67610824 6:-0.015614144 7:0.95203817 8:0.94077012 9:-0.11579219 10:1.3766645 
10 0:0.084383338 1:0.0483139 2:0.8266968 3:0.31550858 4:0.087913121 5:0.20928593 6:-0.057687814 7:0.89619352 8:0.87210083 9:0.16179566 10:1.3766645 
10 0:0.062577636 1:0.046180732 2:0.58069163 3:0.24059654 4:0.20184486 5:0.1447578 6:-0.24240908 7:0.87305727 8:0.84511879 9:-0.16564407 10:1.3766645 
10 0:0.0063570717 1:-0.02695027 2:0.75382283 3:0.16971387 4:-0.047844302 5:0.00066011239 6:-0.28917377 7:0.88328311 8:0.84528276 9:0.025953697 10:1.3766645 
10 0:-0.057414299 1:0.00056693121 2:0.57876154 3:-0.11784988 4:-0.054798384 5:0.017165541 6:-0.56684603 7:0.95530802 8:0.93753047 9:0.080833564 10:1.3766645 
10 0:0.0026109291 1:-0.0025023009 2:0.63132652 3:0.25284509 4:0.0019652141 5:0.071233287 6:-0.19507561 7:0.94297086 8:0.9287596 9:0.1126069 10:1.3766645 
10 0:0.16329803 1:0.10733512 2:0.83058935 3:0.69409669 4:0.13039122 5:0.37195942 6:-0.019974541 7:0.9727041 8:0.96805485 9:0.035452565 10:1.3766645 
10 0:-0.13165835 1:-0.083252495 2:0.48038844 3:-0.32147652 4:-0.17540223 5:0.29432271 6:-0.81772263 7:0.85193536 8:0.80449773 9:0.075500097 10:1.3766645 
10 0:-0.082804422 1:-0.030810069 2:0.57711667 3:-0.12171494 4:-0.024477528 5:-0.20896154 6:-0.61647598 7:0.92680821 8:0.9105812 9:0.031491789 10:1.3766645 
10 0:0.14285714 1:0.0990753 2:0.90617284 3:0.26532915 4:0.11456398 5:0.42737681 6:-0.015096489 7:0.95625249 8:0.94102784 9:0.09268344 10:1.3766645 
10 0:-0.10651639 1:0.01847241 2:0.60494289 3:-0.17463415 4:-0.08402321 5:0.10587841 6:-0.57448686 7:0.92732807 8:0.91456806 9:0.12707792 10:1.3766645 
10 0:-0.094204734 1:-0.0093176123 2:0.52344811 3:-0.11379149 4:-0.10573049 5:0.099884352 6:-0.7913875 7:0.87209872 8:0.85971591 9:0.059064401 10:1.3766645 
10 0:-0.049985126 1:-0.02072435 2:0.47170416 3:-0.36068439 4:-0.067654594 5:-0.29761173 6:-0.85242565 7:0.85854239 8:0.80252376 9:-0.094175264 10:1.6864907 
10 0:0.0017395631 1:0.052998968 2:0.71151866 3:0.12653633 4:0.016842461 5:0.53562361 6:-0.27783578 7:0.89068657 8:0.87667393 9:0.21093677 10:1.6864907 
10 0:0.036837715 1:0.013049766 2:0.85908991 3:0.19804486 4:0.036685839 5:0.34010388 6:-0.07685655 7:0.93394636 8:0.90773608 9:0.24964415 10:1.6864907 
10 0:-0.051948539 1:-0.034063521 2:0.4790969 3:-0.29683023 4:-0.054948618 5:-0.40430075 6:-0.82632548 7:0.85430082 8:0.79759258 9:-0.10285274 10:1.4569058 
10 0:0.01315298 1:0.015135243 2:0.75208866 3:0.1593 4:0.0012838465 5:0.12497898 6:-0.20291888 7:0.89329558 8:0.87022219 9:0.031958552 10:1.6864907 
10 0:-0.031825605 1:0.062020373 2:0.60995415 3:0.049162187 4:0.12142099 5:0.54145637 6:-0.40583749 7:0.94671943 8:0.94798977 9:-0.043808252 10:1.6864907 
10 0:-0.012132618 1:-0.0055217168 2:0.69763246 3:-0.13728748 4:-0.046960077 5:0.022906755 6:-0.58015308 7:0.93598947 8:0.89968243 9:0.058285616 10:1.6864907 
10 0:-0.017687038 1:0.018635188 2:0.5222351 3:-0.035684419 4:-0.028634713 5:0.18080049 6:-0.54351667 7:0.89687032 8:0.85793162 9:0.53284393 10:1.6864907 
10 0:0.1655868 1:0.056682158 2:0.88199715 3:0.22116877 4:-0.088558865 5:0.15071998 6:-0.078771134 7:0.95089859 8:0.93909036 9:-0.0099512586 10:1.4308563 
10 0:-0.047446079 1:0.16421611 2:0.61966538 3:-0.06657476 4:-0.15066997 5:0.39500284 6:-0.3070497 7:0.89581618 8:0.86891475 9:0.27856661 10:1.6864907 
10 0:0.14163901 1:0.055218108 2:0.89760925 3:0.33129095 4:0.070610183 5:0.006690125 6:-0.084032365 7:0.96465847 8:0.9638478 9:0.10112072 10:1.6864907 
10 0:0.09623685 1:0.09870123 2:0.85643472 3:0.42863313 4:0.098716512 5:0.7078939 6:-0.078087931 7:0.94995798 8:0.94032091 9:-0.4994521 10:1.6864907 
10 0:0.11509905 1:0.031819373 2:0.72005468 3:0.23320303 4:0.096657251 5:0.2603407 6:-0.0099996667 7:0.87107438 8:0.87042881 9:-0.0079849485 10:1.6864907 
10 0:0.048214147 1:0.017685852 2:0.810016 3:0.29532367 4:0.076967478 5:0.13286832 6:-0.14860343 7:0.89202962 8:0.86839694 9:0.24662105 10:1.6864907 
10 0:0.1281871 1:0.19475825 2:0.64001828 3:0.37931465 4:0.24937366 5:0.22824762 6:-0.076690612 7:0.88848663 8:0.85921308 9:-0.18335875 10:1.6864907 
10 0:0.015716174 1:0.027234241 2:0.78590187 3:0.48826873 4:-0.045325586 5:-0.0046073508 6:-0.41768153 7:0.88818192 8:0.85020387 9:0.038314098 10:1.6864907 
10 0:0.20088925 1:0.12266848 2:0.84912961 3:0.64790865 4:0.16004167 5:0.48264514 6:-0.0060527979 7:0.97093035 8:0.96903074 9:-0.0074315707 10:1.6864907 
10 0:-0.04079801 1:0.020159712 2:0.5666912 3:-0.074635994 4:-0.013783382 5:-0.21036546 6:-0.66036222 7:0.92430622 8:0.90981586 9:0.021190936 10:1.6864907 
10 0:0.14258322 1:0.074636561 2:0.889365 3:0.29333627 4:0.098465224 5:0.40987992 6:-0.079137134 7:0.95142864 8:0.9361732 9:0.08230161 10:1.6864907 
10 0:-0.097618302 1:0.055167381 2:0.6269452 3:-0.11087869 4:-0.068901103 5:0.16544943 6:-0.51812188 7:0.93103262 8:0.92244994 9:0.13404236 10:1.6864907 
10 0:-0.0039693569 1:0.035467384 2:0.59603045 3:-0.036842873 4:-0.071412054 5:0.12484913 6:-0.61148343 7:0.88728065 8:0.8769961 9:0.045669059 10:1.6864907 
10 0:0.012856869 1:0.050767904 2:0.69832349 3:0.20979943 4:-0.036360276 5:-0.28723614 6:-0.1403991 7:0.90153068 8:0.84567233 9:0.077478326 10:1.7887397 
10 0:0.094681882 1:0.027610115 2:0.72317869 3:0.18723476 4:0.029580429 5:0.48639033 6:-0.25277647 7:0.88764925 8:0.87461338 9:0.41999595 10:1.7887397 
10 0:0.029801154 1:0.025295998 2:0.86618465 3:0.2432177 4:0.027371707 5:0.37036491 6:-0.065288996 7:0.93301699 8:0.90815279 9:0.18554728 10:1.7887397 
10 0:-0.049495598 1:-0.020551531 2:0.46912423 3:-0.35925378 4:-0.062500455 5:-0.29761265 6:-0.85145477 7:0.85719295 8:0.79924218 9:-0.094169449 10:1.7628844 
10 0:0.013152744 1:-0.028468781 2:0.71084359 3:0.060326157 4:-0.030692478 5:0.068543838 6:-0.35245523 7:0.88890754 8:0.86296841 9:0.07439771 10:1.7887397 
10 0:0.094112243 1:0.12127713 2:0.66096921 3:0.23360122 4:0.18049326 5:0.71882055 6:-0.23993241 7:0.95212552 8:0.95420162 9:0.048437443 10:1.7887397 
10 0:-0.054129538 1:0.022085886 2:0.72263679 3:0.2243977 4:-0.053725987 5:-0.031111127 6:-0.63913788 7:0.93961971 8:0.90416142 9:0.013442041 10:1.7887397 
10 0:-0.0095237629 1:-0.0015529186 2:0.47244846 3:-0.028440551 4:-0.024391547 5:0.15092148 6:-0.58728422 7:0.88809245 8:0.85066983 9:-0.12966314 10:1.7887397 
10 0:0.12179344 1:0.073041757 2:0.90246011 3:0.27404481 4:-0.084127652 5:0.16885004 6:-0.023664945 7:0.95528119 8:0.94332254 9:0.068017129 10:1.5838596 
10 0:-0.035584836 1:0.042135219 2:0.61428202 3:-0.040582212 4:-0.13865564 5:0.35550191 6:-0.29032252 7:0.89652586 8:0.86865377 9:0.27805851 10:1.7887397 
10 0:0.17609844 1:-0.023809647 2:0.8272099 3:0.29966923 4:0.063782338 5:0.67281471 6:-0.14795736 7:0.94533623 8:0.93451725 9:-0.43848256 10:1.7887397 
10 0:0.16262379 1:0.029099818 2:0.74564358 3:0.25099367 4:0.098381526 5:0.32615748 6:-0 7:0.876492 8:0.8701178 9:-0.017008174 10:1.7887397 
10 0:0.051511769 1:0.012220252 2:0.81599513 3:0.24769873 4:0.065840707 5:0.093456971 6:-0.17950092 7:0.89097197 8:0.86773425 9:0.13233954 10:1.7887397 
10 0:0.48686254 1:0.51500369 2:0.82155028 3:0.92333752 4:0.54915869 5:0.17422354 6:-0.11220316 7:0.94805519 8:0.92826053 9:0.22206705 10:1.7887397 
10 0:0.016599027 1:0.012766099 2:0.7604707 3:0.35764982 4:-0.047805901 5:-0.013126596 6:-0.49695046 7:0.88683413 8:0.84715197 9:0.052054538 10:1.7887397 
10 0:0.23686333 1:0.11313761 2:0.84187005 3:0.50846442 4:0.16498303 5:0.5081824 6:-0.051318389 7:0.96620122 8:0.96455662 9:-0.028319514 10:1.7887397 
10 0:0.019945726 1:0.078737135 2:0.62855544 3:0.042760922 4:0.015374669 5:-0.030357114 6:-0.41795024 7:0.9360985 8:0.92102755 9:0.012403407 10:1.7887397 
10 0:0.10536372 1:0.065059513 2:0.91477139 3:0.34313264 4:0.095973089 5:0.44510336 6:-0.0039808943 7:0.95343544 8:0.94028782 9:-0.017211996 10:1.7887397 
10 0:-0.001832164 1:0.018472061 2:0.63838869 3:-0.039498487 4:-0.051053758 5:0.20129126 6:-0.46825697 7:0.9311491 8:0.92525747 9:0.14152646 10:1.7887397 
10 0:0.054247233 1:0.044484365 2:0.62977094 3:0.089397238 4:-0.032544583 5:0.14972168 6:-0.51866034 7:0.89147013 8:0.88392974 9:0.11025445 10:1.7887397 
10 0:0.083250468 1:0.028562162 2:0.71129812 3:0.21556713 4:0.033249489 5:0.36864123 6:-0.1417393 7:0.8813239 8:0.86852119 9:0.40106334 10:1.6084876 
10 0:0.01273106 1:0.050344644 2:0.69608658 3:0.20896734 4:-0.033148279 5:-0.28723431 6:-0.14023908 7:0.90011368 8:0.84221431 9:0.077474702 10:1.8612821 
10 0:0.054056008 1:0.016096048 2:0.77653829 3:0.26539925 4:-0.021825658 5:0.051410311 6:-0.15950015 7:0.90361276 8:0.87787174 9:0.08217554 10:1.6084876 
10 0:0.090588739 1:0.12235184 2:0.67721662 3:0.35797081 4:0.22307222 5:0.73551422 6:-0.18533039 7:0.95044664 8:0.95480813 9:0.22201821 10:1.6084876 
10 0:0.026417253 1:0.019457431 2:0.59457886 3:0.25144024 4:-0.0027639538 5:0.17871742 6:-0.23367628 7:0.90128752 8:0.86621442 9:0.3926729 10:1.6084876 
10 0:0.091474385 1:0.13456207 2:0.93326244 3:0.54602275 4:-0.056583278 5:0.22325906 6:-0 7:0.95995384 8:0.95185594 9:0.11141939 10:1.879502 
10 0:0.48753394 1:0.072970748 2:0.97316527 3:0.39193935 4:0.26806959 5:0.76779006 6:-0.089452883 7:0.96275353 8:0.96419969 9:0.088648447 10:1.6084876 
10 0:0.049482114 1:0.056839323 2:0.66892247 3:0.12028911 4:-0.091026323 5:0.33180681 6:-0.1217983 7:0.90287482 8:0.88436074 9:0.25950143 10:1.6084876 
10 0:0.30903275 1:0.023161213 2:0.83582128 3:0.30715654 4:0.21689181 5:0.65184728 6:-0.10840428 7:0.9324722 8:0.92290878 9:0.040223177 10:1.6084876 
10 0:0.1276268 1:0.090004965 2:0.91602678 3:0.38267204 4:0.061534092 5:0.0077127218 6:-0.23681097 7:0.96484011 8:0.96201587 9:0.074391493 10:1.6084876 
10 0:0.26572814 1:0.17662342 2:0.91542554 3:0.40055462 4:0.1229416 5:0.80522928 6:-0.10357533 7:0.9601026 8:0.95042011 9:-0.21171053 10:1.6084876 
10 0:0.17202965 1:0.066902359 2:0.79092617 3:0.30816815 4:0.11033757 5:0.40756279 6:-0.011306032 7:0.88429608 8:0.87682773 9:0.060341129 10:1.6084876 
10 0:0.09705286 1:0.035217176 2:0.85786315 3:0.30026315 4:0.066003835 5:0.14518767 6:-0.054632039 7:0.89750016 8:0.87346645 9:0.087490701 10:1.6084876 
10 0:0.02101363 1:0.034893702 2:0.80054572 3:0.73685136 4:-0.040463705 5:-0.017423803 6:-0.31666614 7:0.89153479 8:0.85326415 9:0.050362927 10:1.6084876 
10 0:0.25222271 1:0.060920045 2:0.86811863 3:0.46668655 4:0.17533277 5:0.551971 6:-0.018616916 7:0.96715667 8:0.96630458 9:-0.025113613 10:1.6084876 
10 0:-0.10311553 1:0.062651463 2:0.56267855 3:-0.078022466 4:-0.099445502 5:0.35548777 6:-0.58034897 7:0.87805542 8:0.83788197 9:0.08636146 10:1.6084876 
10 0:0.10305241 1:0.10992765 2:0.71419811 3:0.50152251 4:0.068348622 5:0.17662478 6:-0.063435903 7:0.94854313 8:0.93730365 9:0.16506052 10:1.6084876 
10 0:0.10029111 1:0.11181246 2:0.65882133 3:0.36251788 4:0.0057581017 5:0.14199511 6:-0.24648784 7:0.89381016 8:0.88830166 9:0.041884763 10:1.6084876 
10 0:0.21436663 1:0.18406489 2:0.782299 3:0.59874338 4:0.31287419 5:0.86841986 6:-0.069533608 7:0.96203766 8:0.97038593 9:0.10818932 10:1.7757982 
10 0:0.025963636 1:0.01224076 2:0.58609266 3:0.295375 4:0.010339112 5:0.17833749 6:-0.16602411 7:0.89691741 8:0.8635988 9:0.26802014 10:1.7757982 
10 0:0.16636417 1:0.072119891 2:0.90960699 3:0.51533508 4:-0.060484245 5:0.22022845 6:-0.089171562 7:0.95280235 8:0.94615629 9:0.077981746 10:1.9684304 
10 0:0.40049864 1:-0.01641863 2:0.97386575 3:0.3292445 4:0.22372756 5:0.55649697 6:-0.089539997 7:0.9595114 8:0.9571575 9:0.037389986 10:1.7757982 
10 0:0.044879221 1:0.11429632 2:0.70133912 3:0.32555157 4:-0.035983344 5:0.31086936 6:-0.062796571 7:0.90641436 8:0.89421485 9:0.1754039 10:1.7757982 
10 0:0.20592537 1:-0.067665292 2:0.81567652 3:0.22706657 4:0.15637375 5:0.5703652 6:-0.16239293 7:0.92483621 8:0.9151214 9:0.12076291 10:1.7757982 
10 0:0.091684704 1:0.024847983 2:0.89869715 3:0.31083727 4:0.041806752 5:0.0040750236 6:-0.2593049 7:0.96182456 8:0.95913022 9:0.029102784 10:1.7757982 
10 0:0.38322295 1:0.2865798 2:0.95698136 3:0.58653859 4:0.20138557 5:0.91811114 6:-0.0012817088 7:0.96637477 8:0.95663339 9:-0.20237209 10:1.7757982 
10 0:0.01642239 1:0.019574298 2:0.80607433 3:0.58189172 4:-0.035541098 5:-0.020910943 6:-0.28333425 7:0.89008137 8:0.85348902 9:0.024162907 10:1.7757982 
10 0:0.25949865 1:0.073767038 2:0.89365461 3:0.45270913 4:0.18940952 5:0.60255838 6:-0.024533534 7:0.96740771 8:0.9683018 9:-0.012483434 10:1.7757982 
10 0:0.016839465 1:0.015526468 2:0.72051105 3:0.21456708 4:0.02117612 5:-0.026118319 6:-0.12323413 7:0.88130287 8:0.8516113 9:0.079521038 10:1.4512522 
10 0:0.070294911 1:0.058828921 2:0.70625791 3:0.74071319 4:0.041223659 5:0.1140508 6:-0.40360027 7:0.91298106 8:0.88219455 9:0.089911015 10:1.4512522 
10 0:0.31391676 1:-0.034357053 2:0.92040703 3:0.23252213 4:0.15153709 5:0.43374553 6:-0.15303196 7:0.95242926 8:0.94515112 9:0.22754284 10:1.4512522 
10 0:0.20389159 1:-0.064032868 2:0.80275757 3:0.20070448 4:0.091225728 5:0.45217481 6:-0.18447361 7:0.92323334 8:0.90865383 9:0.14584032 10:1.4512522 
10 0:0.34530263 1:0.29696966 2:0.93857295 3:0.45302075 4:0.22015191 5:0.91908749 6:-0.051947261 7:0.95862045 8:0.94926137 9:-0.15423329 10:1.4512522 
10 0:0.0180116 1:0.024680709 2:0.79728897 3:0.37082905 4:-0.034645398 5:-0.01916886 6:-0.30555671 7:0.88708242 8:0.85191918 9:0.028458741 10:1.4512522 
10 0:0.25828608 1:0.1085783 2:0.91171464 3:0.43067252 4:0.19974964 5:0.61610347 6:-0.050156364 7:0.96802634 8:0.96884909 9:0.040200917 10:1.4512522 
10 0:-0.086030281 1:-0.063742253 2:0.53166129 3:-0.12318312 4:-0.089052379 5:0.22965249 6:-0.68319585 7:0.85890302 8:0.83556741 9:0.072352548 10:1.4512522 
10 0:0.047711611 1:-0.00089152862 2:0.73259502 3:0.19085943 4:0.026147144 5:0.023240338 6:-0.07632579 7:0.87279005 8:0.85139997 9:0.080707377 10:1.4983706 
10 0:0.016674465 1:0.015396913 2:0.71836752 3:0.21371595 4:0.02075326 5:-0.02611864 6:-0.12309414 7:0.87991762 8:0.84812893 9:0.079517261 10:1.5125624 
10 0:-0.094123074 1:-0.1574773 2:0.56009006 3:-0.28908646 4:-0.083700768 5:-0.14717114 6:-0.92415622 7:0.85549822 8:0.83136283 9:0.20145361 10:1.4983706 
10 0:0.19277124 1:0.067239852 2:0.70099966 3:0.37341484 4:0.36084087 5:0.59147165 6:-0.36682667 7:0.93805976 8:0.9504686 9:0.10472858 10:1.4983706 
10 0:0.1138321 1:0.068603215 2:0.79080438 3:0.54073549 4:0.082374447 5:0.11908711 6:-0.17537769 7:0.92543307 8:0.89907871 9:0.056172445 10:1.4983706 
10 0:0.31861744 1:0.097184315 2:0.84588962 3:0.25265878 4:0.087924743 5:0.45601129 6:-0.028109214 7:0.9406353 8:0.92015751 9:0.00706411 10:1.4983706 
10 0:0.33381188 1:0.18614727 2:0.96712763 3:0.43189612 4:0.25011042 5:0.91644934 6:-0.038231015 7:0.95997841 8:0.9526084 9:-0.16452877 10:1.4983706 
10 0:0.47971094 1:-0.064010191 2:0.81223646 3:0.1977096 4:0.83053406 5:0.21543818 6:-0.09285223 7:0.86973264 8:0.89230404 9:0.24997524 10:1.4983706 
10 0:0.3197252 1:0.10319123 2:0.92965038 3:0.40639679 4:0.20760299 5:0.64610264 6:-0.016512276 7:0.96873869 8:0.96866571 9:0.11726577 10:1.4983706 
10 0:0.10184332 1:0.0045642814 2:0.70620424 3:0.30745478 4:0.12797589 5:0.23653979 6:-0.17681445 7:0.92671161 8:0.92579621 9:0.24513796 10:1.4983706 
10 0:0.04531276 1:0.00026914059 2:0.73323606 3:0.193669 4:0.026877647 5:-0.059361438 6:-0.10894268 7:0.87010573 8:0.84821719 9:0.062070871 10:0.90846987 
10 0:0.04995036 1:-0.043795543 2:0.64642609 3:0.12564896 4:0.034050302 5:0.13076819 6:-0.32411601 7:0.86582301 8:0.84705603 9:0.53763462 10:0.90846987 
10 0:-0.023454701 1:-0.09235103 2:0.60117289 3:-0.24811022 4:-0.092300845 5:0.006831271 6:-0.59553115 7:0.91040409 8:0.8827304 9:0.21174198 10:0.90846987 
10 0:0.047244398 1:-0.00088410686 2:0.73045908 3:0.19010264 4:0.025364793 5:0.023238925 6:-0.076238327 7:0.87141824 8:0.84791851 9:0.080703556 10:1.5561261 
10 0:0.097724838 1:0.060298708 2:0.71835491 3:0.28852498 4:0.087929106 5:0.18726601 6:-0.13538911 7:0.89271397 8:0.89741065 9:0.1437548 10:0.90846987 
10 0:0.33575357 1:0.12216106 2:0.84656508 3:0.25596939 4:0.068615148 5:0.48540829 6:-0.026178469 7:0.93889934 8:0.91311092 9:0.011716143 10:0.90846987 
10 0:0.007919433 1:-0.048040307 2:0.75863841 3:0.12176294 4:-0.02954831 5:0.00045802912 6:-0.50426048 7:0.95399595 8:0.94945542 9:-0.030511633 10:0.90846987 
10 0:0.069059441 1:-0.01522973 2:0.78027023 3:0.23283736 4:0.092216978 5:0.32074644 6:-0.11111096 7:0.86372164 8:0.86117932 9:0.071785159 10:0.90846987 
10 0:0.53956775 1:-0.046960311 2:0.80225809 3:0.15996782 4:0.73358818 5:0.18757029 6:-0.1075726 7:0.86578075 8:0.87883098 9:0.18933462 10:0.90846987 
10 0:0.2485856 1:0.046415656 2:0.89671305 3:0.35275284 4:0.18785789 5:0.62258587 6:-0.063964891 7:0.9624415 8:0.96222861 9:0.1468583 10:0.90846987 
10 0:0.06104555 1:-0.016356023 2:0.69452866 3:0.25338102 4:0.11771927 5:0.099473983 6:-0.20741693 7:0.92111747 8:0.9219175 9:0.24379866 10:0.90846987 
10 0:0.035303605 1:-0.10568022 2:0.74772402 3:-0.028132575 4:-0.072114577 5:0.02202055 6:-0.71037544 7:0.93434005 8:0.91875855 9:0.12771355 10:0.90846987 
10 0:0.063500597 1:0.0083435668 2:0.7416017 3:0.16312389 4:0.026347389 5:-0.029119062 6:-0.080482742 7:0.87191 8:0.84564503 9:0.12245901 10:0.077702689 
10 0:0.035536788 1:-0.052364122 2:0.63288648 3:0.049287345 4:0.013449169 5:0.062105822 6:-0.36765196 7:0.8643799 8:0.84310288 9:0.18635344 10:0.077702689 
10 0:0.044868881 1:0.0002669394 2:0.73110039 3:0.19290087 4:0.025991755 5:-0.059362885 6:-0.10881815 7:0.86873812 8:0.84474873 9:0.062068157 10:0.96279326 
10 0:0.23153007 1:0.0027636315 2:0.78688821 3:0.33528671 4:0.36948298 5:0.73817682 6:-0.11961739 7:0.94744623 8:0.96155716 9:0.09810646 10:0.077702689 
10 0:0.15034006 1:0.055631652 2:0.82805801 3:0.35640549 4:0.12934938 5:0.14085479 6:-0.049941925 7:0.91228664 8:0.89613519 9:0.044733959 10:0.077702689 
10 0:0.31822293 1:0.043174137 2:0.89104285 3:0.21563961 4:0.016606219 5:0.42252871 6:-0.1099106 7:0.95623575 8:0.93311993 9:0.22968539 10:0.077702689 
10 0:0.23076924 1:-0.057827659 2:0.70039361 3:0.17986116 4:0.073214788 5:0.16278555 6:-0.1629565 7:0.88454214 8:0.88575225 9:0.16986286 10:0.077702689 
10 0:0.19663094 1:0.16848348 2:0.85648508 3:0.26025825 4:0.052587161 5:0.53489041 6:-0.010869483 7:0.93968541 8:0.91324069 9:0.03152078 10:0.077702689 
10 0:0.27664468 1:0.0506499 2:0.93057718 3:0.26881353 4:0.19795488 5:0.85352364 6:-0.089374853 7:0.94572934 8:0.9402625 9:0.35813647 10:0.077702689 
10 0:0.089108899 1:-0.010878464 2:0.77941661 3:0.16971605 4:0.073139112 5:0.32918709 6:-0.13824896 7:0.86244764 8:0.85684156 9:0.11221705 10:0.077702689 
10 0:0.061195954 1:-0.1005982 2:0.71957126 3:0.03525313 4:0.050661808 5:0.31175841 6:-0.50956609 7:0.8694228 8:0.85524369 9:0.10594209 10:0.077702689 
10 0:0.58986315 1:-0.034586784 2:0.80695024 3:0.14010274 4:0.63532419 5:0.17443575 6:-0.093366807 7:0.86986246 8:0.86893917 9:-0.006003995 10:0.077702689 
10 0:-0.24916079 1:-0.1226224 2:0.36128564 3:-0.45735825 4:-0.31347043 5:-0.58916458 6:-0.98469367 7:0.91770668 8:0.8764857 9:-0.14714591 10:0.077702689 
10 0:0.24130901 1:0.020306295 2:0.89966864 3:0.30856939 4:0.16229322 5:0.64600885 6:-0.056648016 7:0.96037111 8:0.95913449 9:0.17536121 10:0.077702689 
10 0:0.13538847 1:0.0079878253 2:0.7366217 3:0.22543746 4:0.121142 5:0.16907858 6:-0.052703748 7:0.92853887 8:0.92646846 9:0.22375712 10:0.077702689 
10 0:0.019157002 1:-0.064398846 2:0.73911457 3:-0.11075199 4:-0.11356282 5:-0.036861931 6:-0.68640662 7:0.93753022 8:0.91740414 9:0.038693447 10:0.077702689 
10 0:0.016487932 1:-0.035696269 2:0.55578605 3:-0.081100002 4:-0.059688299 5:0.01967599 6:-0.62130638 7:0.91205068 8:0.90831711 9:-0.3230828 10:0.077702689 
3.789843053386352 0:0.06287858 1:0.0082739804 2:0.73947057 3:0.16247682 4:0.025437396 5:-0.029123897 6:-0.080391241 7:0.87053952 8:0.84218704 9:0.12245405 10:0.12872689 
10 0:-0.1059265 1:-0.20674861 2:0.47566231 3:-0.68638718 4:-0.15603946 5:0.1308655 6:-0.79871006 7:0.91314259 8:0.88099878 9:0.21138488 10:0.34613241 
10 0:0.15396826 1:0.030876084 2:0.84777167 3:0.30949231 4:0.14107123 5:0.14425286 6:-0.058382224 7:0.90620426 8:0.89495069 9:0.037962892 10:0.34613241 
10 0:-0.062451058 1:-0.25046058 2:0.65159459 3:-0.27362983 4:-0.29431183 5:0.009417762 6:-0.91999931 7:0.92005167 8:0.90913495 9:0.14487113 10:1.0332664 
10 0:0.11083408 1:-0.034052766 2:0.89830008 3:0.17530026 4:-0.029220272 5:0.44843688 6:-0.093211006 7:0.9583237 8:0.93359302 9:0.30806832 10:0.34613241 
10 0:0.09504942 1:0.022572783 2:0.81792561 3:0.21624614 4:0.067995993 5:0.43035862 6:-0.0066779666 7:0.8729468 8:0.86373183 9:0.11197794 10:0.34613241 
10 0:0.05439266 1:-0.075951245 2:0.72002248 3:0.090988681 4:0.018257849 5:0.15513069 6:-0.53200819 7:0.87786817 8:0.85340954 9:0.28764856 10:0.34613241 
10 0:0.29951506 1:0.053045948 2:0.93844347 3:0.38765435 4:0.1651757 5:0.68407906 6:-0.036705846 7:0.96664268 8:0.96421639 9:0.15997555 10:0.34613241 
10 0:0.04974853 1:-0.0201382 2:0.61415166 3:0.11020968 4:0.023394158 5:0.080595488 6:-0.41632624 7:0.87376507 8:0.86375154 9:0.091004492 10:0.34613241 
10 0:0.015656018 1:-0.0038083771 2:0.62653517 3:0.0034569429 4:-0.0065454886 5:-0.0065890223 6:-0.39122016 7:0.87127258 8:0.84174957 9:0.15087861 10:-0.78670248 
10 0:-0.092298235 1:-0.1535135 2:0.55822494 3:-0.39085623 4:-0.19509777 5:-0.68561237 6:-0.93818713 7:0.87904103 8:0.83639989 9:0.16977348 10:-0.78670248 
10 0:0.19834023 1:0.033773127 2:0.71857937 3:0.25309635 4:0.34418825 5:0.8474282 6:-0.26984054 7:0.93704767 8:0.94320592 9:0.12954909 10:-0.78670248 
9.907450782275697 0:-0.13999067 1:-0.22331327 2:0.43810809 3:-0.6392608 4:-0.2245265 5:0.08770307 6:-0.89677484 7:0.91468122 8:0.87683369 9:0.14562356 10:-0.78670248 
10 0:0.12981854 1:0.005937645 2:0.77939061 3:0.22826802 4:0.13114679 5:0.11683625 6:-0.14247473 7:0.89054126 8:0.87929582 9:0.060820964 10:-0.78670248 
10 0:-0.026950175 1:-0.16728122 2:0.67309767 3:-0.22481919 4:-0.34446414 5:-0.040135431 6:-0.839231 7:0.93010086 8:0.91401986 9:0.18250616 10:0.19359816 
10 0:0.13428352 1:0.022612346 2:0.71224868 3:0.20112993 4:0.077898643 5:0.11410509 6:-0.098018948 7:0.88924225 8:0.88391271 9:0.19056137 10:-0.78670248 
10 0:0.089166607 1:0.016803358 2:0.78111374 3:0.24499429 4:0.0095695578 5:0.51945003 6:-0.18848103 7:0.92635595 8:0.90370036 9:0.079106919 10:-0.78670248 
10 0:0.19850619 1:-0.061039118 2:0.85223768 3:0.16218532 4:0.10116769 5:0.58337746 6:-0.25565846 7:0.94016895 8:0.93030166 9:0.12797401 10:-0.78670248 
10 0:0.18465347 1:0.1221104 2:0.91206579 3:0.4452527 4:0.10591796 5:0.59382377 6:-0.10805481 7:0.90368727 8:0.89492127 9:0.026737308 10:-0.78670248 
10 0:-0.007769768 1:-0.07120573 2:0.58625073 3:-0.34396254 4:-0.071617686 5:-0.040526446 6:-0.95132704 7:0.86937762 8:0.8325056 9:0.071399831 10:-0.78670248 
10 0:-0.27116765 1:-0.075575634 2:0.36689655 3:-0.30642741 4:-0.32193311 5:-0.53372398 6:-0.96748826 7:0.93216899 8:0.88907273 9:-0.044542973 10:-0.78670248 
10 0:0.24777699 1:0.10650607 2:0.9572744 3:0.41694094 4:0.17086443 5:0.71687027 6:-0.053571907 7:0.96846924 8:0.96585856 9:0.16302095 10:-0.78670248 
10 0:0.039256732 1:-0.0024964046 2:0.63440353 3:0.32990818 4:-0.047887677 5:-0.18658988 6:-0.57256682 7:0.92894705 8:0.92278043 9:-0.030746605 10:-0.78670248 
10 0:0.098574841 1:0.016905814 2:0.72167432 3:0.17219453 4:0.029003232 5:0.077449501 6:-0.13409415 7:0.87370095 8:0.836311 9:0.034368763 10:-0.62809886 
10 0:0.084629852 1:0.008657628 2:0.69326638 3:0.16813336 4:0.03050492 5:0.12422005 6:-0.21682338 7:0.86741803 8:0.83250173 9:0.03537776 10:-0.74185249 
10 0:0.17503963 1:-0.014277292 2:0.73634577 3:0.227801 4:0.29967419 5:0.68546901 6:-0.2383777 7:0.93795916 8:0.94363436 9:0.11402341 10:-0.62809886 
9.670011098608263 0:-0.079327905 1:-0.13374237 2:0.53474963 3:-0.37694475 4:-0.2255539 5:0.20349467 6:-0.72903252 7:0.93196528 8:0.88988043 9:0.12575673 10:-0.62809886 
10 0:0.14172334 1:0.011692692 2:0.80917631 3:0.21602573 4:0.12694417 5:0.1134376 6:-0.061936125 7:0.89590168 8:0.88120033 9:0.22013018 10:-0.62809886 
10 0:0.095423529 1:-0.024712717 2:0.64596756 3:0.106412 4:0.028270597 5:0.016071945 6:-0.20379783 7:0.87722533 8:0.86609179 9:0.23380398 10:-0.62809886 
10 0:0.13069994 1:0.11762014 2:0.82495577 3:0.39904134 4:0.015965503 5:0.53231601 6:-0.023346526 7:0.94049459 8:0.91882627 9:0.13989158 10:-0.62809886 
10 0:0.21534649 1:0.17051939 2:0.94371549 3:0.52379398 4:0.14497729 5:0.72245434 6:-0.0069444486 7:0.90925214 8:0.90445289 9:0.014262393 10:-0.62809886 
10 0:0.070464039 1:0.031453222 2:0.7386277 3:0.076519817 4:-0.020956267 5:-0.058632065 6:-0.47700525 7:0.89443006 8:0.85754478 9:0.1893754 10:-0.62809886 
10 0:0.4284825 1:-0.0075021423 2:0.76319404 3:0.09365324 4:0.33992336 5:0.11061482 6:-0.12138624 7:0.86848204 8:0.83915201 9:0.13371442 10:-0.62809886 
10 0:-0.010065477 1:-0.018156227 2:0.61647937 3:-0.36839624 4:-0.077434053 5:-0.027875519 6:-0.73921681 7:0.88027305 8:0.83750984 9:0.13090386 10:-0.62809886 
10 0:-0.15687169 1:-0.0090756639 2:0.42672773 3:-0.36729633 4:-0.14398119 5:-0.94535467 6:-0.88351681 7:0.94771037 8:0.91472941 9:0.19002956 10:-0.62809886 
9.997297849254828 0:-0.310332 1:0.0070069531 2:0.38609124 3:-0.24190022 4:-0.29629219 5:-0.47528147 6:-0.93694587 7:0.94159555 8:0.90052867 9:0.1369702 10:-0.62809886 
10 0:-0.01477813 1:0.033685767 2:0.76238771 3:-0.095180924 4:-0.12809073 5:-0.020841875 6:-0.54912479 7:0.94634633 8:0.92335577 9:-0.32353474 10:-0.62809886 
10 0:0.063334142 1:0.099850192 2:0.68660518 3:0.35945976 4:-0.0045436615 5:-0.19121368 6:-0.41423638 7:0.93834407 8:0.93266147 9:-0.059327076 10:-0.62809886 
10 0:0.044952052 1:-0.0091342712 2:0.7386319 3:0.17301337 4:0.02808534 5:0.14741618 6:-0.079395077 7:0.87500273 8:0.8379729 9:0.03356486 10:-0.60824762 
10 0:0.097609354 1:0.016764924 2:0.71981173 3:0.1715116 4:0.027796013 5:0.07743902 6:-0.13394184 7:0.8723277 8:0.83289124 9:0.034366886 10:-0.58611762 
10 0:0.1417367 1:-0.090267173 2:0.73881103 3:0.19073205 4:0.25685965 5:0.62232772 6:-0.2309583 7:0.93643813 8:0.94101344 9:0.13013474 10:-0.60824762 
10 0:0.19761894 1:0.033616452 2:0.8637282 3:0.34053081 4:0.13811663 5:0.022773102 6:-0.2566482 7:0.9096445 8:0.89126263 9:0.12605506 10:-0.60824762 
10 0:-0.13526816 1:0.0082949263 2:0.64923602 3:-0.23078603 4:-0.36631347 5:-0.0090643272 6:-0.87087072 7:0.94028693 8:0.91351893 9:0.16183226 10:-0.68683075 
10 0:0.16148695 1:0.055404213 2:0.83402392 3:0.39646596 4:0.017729018 5:0.59116317 6:-0.0017364577 7:0.93966127 8:0.91943836 9:0.1760554 10:-0.60824762 
10 0:-0.097776144 1:-0.16951915 2:0.56563072 3:-0.51151283 4:-0.18300957 5:-0.012118926 6:-0.97169643 7:0.94806728 8:0.93657046 9:0.19847464 10:-0.60824762 
10 0:0.075809518 1:0.044034137 2:0.75088878 3:0.12299943 4:-0.02107635 5:-0.12878855 6:-0.45958509 7:0.89796081 8:0.85797133 9:0.19988035 10:-0.60824762 
8.071321571239601 0:0.037468956 1:-0.11486727 2:0.74988809 3:0.074576696 4:0.22791601 5:0.079554923 6:-0.13879882 7:0.8661998 8:0.83592124 9:0.13778978 10:-0.60824762 
9.417468844074838 0:-0.15868005 1:0.0039705037 2:0.45946658 3:-0.28325748 4:-0.12347655 5:-0.69144481 6:-0.8131872 7:0.95572912 8:0.92412765 9:0.21316869 10:-0.60824762 
10 0:-0.049261155 1:-0.027410866 2:0.75364387 3:-0.17567561 4:-0.1349883 5:0.011339686 6:-0.5693144 7:0.94466458 8:0.92352167 9:-0.21082728 10:-0.60824762 
10 0:0.030950634 1:0.025114812 2:0.75301327 3:0.21971837 4:0.027783351 5:0.22035187 6:-0.058416862 7:0.87512092 8:0.83990197 9:0.032134116 10:-0.90220481 
10 0:-0.0039760447 1:0.0034909541 2:0.62074108 3:-0.15143489 4:-0.018587784 5:-0.014465495 6:-0.62573423 7:0.87321854 8:0.84228214 9:0.30035148 10:-0.90220481 
10 0:0.044511815 1:-0.0090580371 2:0.73676253 3:0.17232732 4:0.026893009 5:0.14740729 6:-0.079304546 7:0.87362747 8:0.83454639 9:0.033563037 10:-0.56898877 
10 0:0.25323924 1:0.19650008 2:0.83988831 3:0.47217907 4:0.31164353 5:0.68430122 6:-0.085718474 7:0.95871132 8:0.96283545 9:0.1380608 10:-0.90220481 
10 0:-0.11339244 1:0.15276108 2:0.6060053 3:-0.032266866 4:-0.1476541 5:0.32233824 6:-0.57548374 7:0.94619596 8:0.90301197 9:0.097225654 10:-0.90220481 
10 0:0.15748296 1:0.041746661 2:0.83580177 3:0.23598167 4:0.13240302 5:-0.018419572 6:-0.29144284 7:0.9009737 8:0.87955979 9:0.12487238 10:-0.90220481 
10 0:0.011106189 1:0.071146547 2:0.80814578 3:0.1129164 4:-0.14659401 5:0.61530503 6:-0.32442221 7:0.95609351 8:0.93105167 9:0.26056272 10:-0.90220481 
10 0:0.16668152 1:0.10206364 2:0.72906595 3:0.29488251 4:0.10964988 5:0.12234221 6:-0.18063932 7:0.90096921 8:0.89042705 9:-0.0094663973 10:-0.90220481 
10 0:0.15393514 1:0.1244319 2:0.79908351 3:0.35242385 4:-0.012426682 5:0.52532149 6:-0.19893481 7:0.93132102 8:0.91093208 9:0.15938244 10:-0.90220481 
10 0:-0.12001181 1:-0.17117564 2:0.52449284 3:-0.65465301 4:-0.22722083 5:-0.026482026 6:-0.93174495 7:0.94762612 8:0.93450627 9:0.13283064 10:-0.90220481 
10 0:0.038668517 1:0.058781208 2:0.724063 3:0.011188342 4:-0.029348479 5:-0.12428111 6:-0.58068707 7:0.89219387 8:0.85238701 9:0.17409674 10:-0.90220481 
10 0:-0.08294451 1:-0.031956036 2:0.73748201 3:0.036358205 4:0.1247508 5:0.065087894 6:-0.19119534 7:0.86506981 8:0.83520241 9:0.151657 10:-0.90220481 
10 0:-0.032844779 1:-0.0053899291 2:0.56736152 3:-0.39264281 4:-0.079877915 5:-0.0054066219 6:-0.81193469 7:0.87778377 8:0.83225295 9:0.055884131 10:-0.90220481 
10 0:-0.21671013 1:0.037037267 2:0.41707788 3:-0.16962309 4:-0.20733853 5:-0.24394613 6:-0.89458132 7:0.9463357 8:0.91962096 9:0.068649215 10:-0.90220481 
10 0:0.17421165 1:-0.014505011 2:0.88123994 3:0.31682347 4:0.10978015 5:0.52478915 6:-0.17742027 7:0.95637787 8:0.95341958 9:0.20915399 10:-0.90220481 
10 0:-0.091959739 1:-0.081071121 2:0.42743435 3:-0.50237994 4:-0.10097985 5:-0.228432 6:-0.88838964 7:0.84819462 8:0.80993101 9:0.04658248 10:-0.90220481 
10 0:0.2490178 1:0.28185627 2:0.92063902 3:0.87082832 4:0.19767194 5:-0.4989249 6:-0.1794501 7:0.97962622 8:0.97390475 9:0.14274472 10:-0.90220481 
10 0:-0.079364898 1:-0.011558983 2:0.74627065 3:-0.26204849 4:-0.14021757 5:0.063228345 6:-0.58546459 7:0.94310172 8:0.92448033 9:0.28252043 10:-0.90220481 
10 0:0.14132408 1:0.14702941 2:0.7911 3:0.63046475 4:0.11071934 5:0.099018594 6:-0.034509758 7:0.95241415 8:0.95519924 9:-0.052160526 10:-0.90220481 
10 0:0.030647451 1:0.024905433 2:0.75113729 3:0.21884679 4:0.026572649 5:0.22034428 6:-0.058350402 7:0.87374542 8:0.83646753 9:0.032132259 10:-0.86552337 
10 0:-0.104993 1:0.079754771 2:0.61240717 3:-0.060606439 4:-0.12250711 5:0.26923676 6:-0.56129019 7:0.94375588 8:0.9060045 9:0.029713973 10:-0.65615872 
10 0:0.20680275 1:0.064675262 2:0.88891409 3:0.30734196 4:0.14482425 5:-0.025706345 6:-0.12039729 7:0.9159816 8:0.89180118 9:0.1311001 10:-0.65615872 
10 0:0.039438037 1:-0.021282964 2:0.82798032 3:0.30415241 4:-0.15936825 5:0.62491995 6:-0.16985962 7:0.96047473 8:0.93563257 9:0.24507149 10:-0.65615872 
10 0:0.15260676 1:0.19411828 2:0.74382506 3:0.28959676 4:0.11894099 5:0.14300257 6:-0.11740532 7:0.90278215 8:0.89182946 9:-0.02026425 10:-0.65615872 
10 0:0.20737721 1:0.052225649 2:0.81961204 3:0.35304192 4:-0.019448446 5:0.50246229 6:-0.097825467 7:0.93749935 8:0.9146431 9:0.11018035 10:-0.65615872 
10 0:-0.073408555 1:-0.03865251 2:0.61052212 3:-0.40066565 4:-0.21946743 5:-0.025598815 6:-0.71428537 7:0.95929897 8:0.94449829 9:0.078012948 10:-0.65615872 
10 0:-0.010916083 1:-0.086146731 2:0.79014349 3:0.065722059 4:-0.13616257 5:0.3732864 6:-0.29922039 7:0.94302342 8:0.92100627 9:0.18436796 10:-0.65615872 
10 0:-0.062445723 1:0.047746792 2:0.77487321 3:0.1281595 4:-0.018634944 5:-0.038259646 6:-0.39238608 7:0.90129277 8:0.86714683 9:0.17305813 10:-0.65615872 
10 0:-0.01907118 1:0.0051064113 2:0.61331703 3:-0.24424109 4:-0.075684486 5:-0.00014130946 6:-0.6491871 7:0.88605972 8:0.84086319 9:0.030634927 10:-0.65615872 
10 0:-0.08643207 1:-0.049200164 2:0.46837158 3:-0.40713669 4:-0.10087351 5:-0.22901345 6:-0.76715805 7:0.86513593 8:0.82339654 9:-0.61226736 10:-0.65615872 
10 0:0.28407383 1:0.32293629 2:0.94561975 3:0.64830986 4:0.28344646 5:-0.7517756 6:-0.1317689 7:0.97765553 8:0.97893305 9:0.1408828 10:-0.65615872 
10 0:-0.047618791 1:0.020145311 2:0.78465687 3:-0.032267066 4:-0.12624414 5:0.10751054 6:-0.46702527 7:0.9482781 8:0.93046601 9:0.2934203 10:-0.65615872 
10 0:0.12143413 1:0.090114823 2:0.76771885 3:0.5879931 4:0.14588404 5:0.094596118 6:-0.17446602 7:0.93976019 8:0.94829365 9:-0.059308071 10:-0.65615872 
10 0:0.049687133 1:0.020606602 2:0.77026421 3:0.25836126 4:0.032625069 5:0.54632782 6:-0.083625479 7:0.87713027 8:0.84208125 9:0.14679929 10:-0.68677207 
10 0:-0.14316143 1:-0.0601803 2:0.5381178 3:-0.24225836 4:-0.20225178 5:-0.43571217 6:-0.92907835 7:0.87970441 8:0.84738564 9:0.25881066 10:-0.68677207 
10 0:0.15839002 1:0.02722217 2:0.86991567 3:0.2769626 4:0.14010159 5:-0.032263496 6:-0.14113232 7:0.90399418 8:0.8813615 9:0.12866819 10:-0.68677207 
10 0:-0.20497532 1:-0.015207434 2:0.62406039 3:-0.27989593 4:-0.32875555 5:-0.019718614 6:-0.82116548 7:0.93367569 8:0.9171399 9:0.40601389 10:-0.82244417 
10 0:0.10403437 1:0.019762654 2:0.84652093 3:0.59205979 4:-0.15601853 5:0.69464338 6:-0.056900889 7:0.96165109 8:0.93888251 9:0.19273776 10:-0.68677207 
10 0:0.23496977 1:0.050863297 2:0.82915491 3:0.34118697 4:-0.024772504 5:0.48115558 6:-0.065829731 7:0.93557668 8:0.91353468 9:-0.042465141 10:-0.68677207 
10 0:0.027578473 1:-0.011255149 2:0.81151093 3:0.083982276 4:-0.15386247 5:0.36348458 6:-0.24879029 7:0.94653025 8:0.92442365 9:-0.13333645 10:-0.68677207 
10 0:-0.030788969 1:0.01036408 2:0.73694755 3:0.07428372 4:-0.022416603 5:0.00087484196 6:-0.4800375 7:0.89088738 8:0.86241084 9:0.19942551 10:-0.68677207 
10 0:-0.049828764 1:-0.0035072579 2:0.71749408 3:-0.10685869 4:0.0086968424 5:0.057225782 6:-0.57655892 7:0.86899502 8:0.83774338 9:0.34613786 10:-0.68677207 
6.327501834995024 0:-0.021190127 1:-0.032056652 2:0.60215733 3:0.026289888 4:-0.073380027 5:-0.0050593463 6:-0.71661266 7:0.88333795 8:0.84017183 9:-0.034065206 10:-0.68677207 
10 0:0.011220687 1:0.049207564 2:0.8145726 3:0.057105673 4:-0.10331427 5:0.16887027 6:-0.36877556 7:0.95103662 8:0.93437871 9:0.24118666 10:-0.68677207 
10 0:0.042365057 1:0.011354683 2:0.75650409 3:0.25965248 4:0.026450966 5:0.47058428 6:-0.15210302 7:0.87183856 8:0.83728265 9:0.14794364 10:-0.67446348 
10 0:-0.013419511 1:0.033005416 2:0.67870481 3:0.18395163 4:-0.004315801 5:-0.027546103 6:-0.3330405 7:0.8803636 8:0.85622617 9:0.37523734 10:-0.67446348 
10 0:-0.050496529 1:-0.028508284 2:0.52345522 3:-0.33229135 4:-0.15359547 5:-0.17114485 6:-0.95663865 7:0.91961767 8:0.88635635 9:0.22777507 10:-0.67446348 
10 0:0.049200549 1:0.02043472 2:0.76841285 3:0.25733627 4:0.031064448 5:0.54632737 6:-0.083529907 7:0.8757516 8:0.83863789 9:0.14679277 10:-0.6548219 
10 0:-0.012544624 1:-0.018378366 2:0.55426376 3:-0.21908331 4:-0.19388526 5:-0.40269742 6:-0.87875681 7:0.89037347 8:0.85282918 9:0.33621766 10:-0.67446348 
10 0:0.13072559 1:0.047044797 2:0.88788939 3:0.27130272 4:0.13630031 5:-0.011031721 6:-0.083333717 7:0.90315576 8:0.88294853 9:0.12912799 10:-0.67446348 
10 0:0.019265777 1:0.062024721 2:0.82614819 3:0.57002946 4:-0.16549955 5:0.46045322 6:-0.23076955 7:0.95928161 8:0.93623409 9:0.12860949 10:-0.67446348 
10 0:0.20360132 1:0.17484129 2:0.85549325 3:0.3740067 4:-0.0054774029 5:0.52362342 6:-0.019056799 7:0.94250365 8:0.92044048 9:-0.13359801 10:-0.67446348 
10 0:0.12869846 1:0.31298672 2:0.91551182 3:0.55750818 4:-0.055219507 5:0.49644061 6:-0.005790904 7:0.96646229 8:0.94575816 9:0.076379695 10:-0.67446348 
10 0:0.010725908 1:0.065432643 2:0.77314411 3:0.15277201 4:-0.014155884 5:0.06992018 6:-0.36367209 7:0.89714113 8:0.87102867 9:0.29891954 10:-0.67446348 
10 0:-0.055447638 1:0.030070837 2:0.62118992 3:-0.23802424 4:-0.065679731 5:0.0002343689 6:-0.65798073 7:0.88596704 8:0.84594644 9:-0.024295975 10:-0.67446348 
10 0:0.29132672 1:0.057816526 2:0.90975239 3:0.30112012 4:0.33103454 5:-0.59398687 6:-0.15731706 7:0.94174655 8:0.95888636 9:0.13580762 10:-0.67446348 
10 0:0.041324403 1:0.058784645 2:0.82151846 3:0.071170513 4:-0.085572628 5:0.24064898 6:-0.34589564 7:0.95026386 8:0.93447971 9:0.21233884 10:-0.67446348 
10 0:0.045516487 1:-0.0042222485 2:0.76527129 3:0.22395395 4:0.021245591 5:0.40352939 6:-0.12199585 7:0.87140984 8:0.83644665 9:0.12066915 10:-0.73137216 
10 0:0.053677846 1:0.033322839 2:0.74365367 3:0.25480888 4:0.0091744177 5:0.0056292868 6:-0 7:0.89041244 8:0.86734887 9:0.38548038 10:-0.73137216 
10 0:-0.015590367 1:-0.035334161 2:0.52345522 3:-0.31031657 4:-0.15585715 5:-0.16199747 6:-0.91688143 7:0.92301573 8:0.88700419 9:0.37688175 10:-0.73137216 
10 0:0.041950062 1:0.011259976 2:0.75468012 3:0.25862258 4:0.025226855 5:0.47058197 6:-0.15193047 7:0.87046818 8:0.83385888 9:0.14793782 10:-0.64467495 
10 0:0.12278912 1:0.013428355 2:0.89334583 3:0.24560892 4:0.12682777 5:0.011543694 6:-0.063157974 7:0.90022218 8:0.87943835 9:0.1410416 10:-0.73137216 
10 0:0.11604738 1:0.13256303 2:0.87769499 3:0.76033481 4:-0.12988914 5:0.46247785 6:-0.044854461 7:0.97095057 8:0.94853582 9:0.26130057 10:-0.73137216 
10 0:0.21405775 1:0.13260661 2:0.8610109 3:0.37412512 4:0.0006882056 5:0.56028744 6:-0.028571594 7:0.94079858 8:0.91838358 9:-0.14374132 10:-0.73137216 
10 0:0.20310225 1:0.38571367 2:0.95163975 3:0.70147493 4:0.04974033 5:0.61549363 6:-0.05555487 7:0.97052932 8:0.95339596 9:0.09204257 10:-0.73137216 
10 0:0.0054416349 1:-0.049200967 2:0.72888548 3:-0.045407339 4:-0.09252536 5:0.038625334 6:-0.54126662 7:0.87243144 8:0.8412815 9:0.23044863 10:-0.73137216 
10 0:-0.0095355987 1:0.035744738 2:0.67558624 3:0.12705085 4:-0.046217989 5:0.0089089047 6:-0.47882777 7:0.89526682 8:0.85586988 9:-0.017910387 10:-0.73137216 
10 0:-0.042894484 1:-0.047547722 2:0.4157197 3:-0.16133117 4:-0.074254101 5:-0.10106925 6:-0.89985557 7:0.93935736 8:0.92602182 9:0.1893523 10:-0.73137216 
10 0:0.050376999 1:0.0090837051 2:0.78527417 3:0.21522661 4:0.019322554 5:0.44821983 6:-0.02182672 7:0.8738274 8:0.83826259 9:0.11734016 10:-0.81743266 
10 0:0.065109236 1:0.037130994 2:0.75817669 3:0.31989626 4:0.019434969 5:0.047188508 6:-0.04694335 7:0.88771119 8:0.86750058 9:0.21568542 10:-0.81743266 
10 0:-0.072157977 1:-0.021080159 2:0.52591631 3:-0.27498947 4:-0.15066705 5:-0.11877379 6:-0.91038949 7:0.92497324 8:0.89030707 9:0.28802777 10:-0.81743266 
10 0:0.045070716 1:-0.0041871162 2:0.76344137 3:0.22306572 4:0.02030304 5:0.40352608 6:-0.12185699 7:0.87004018 8:0.83302634 9:0.12066442 10:-0.70361552 
9.607406608755689 0:0.044441591 1:-0.17838537 2:0.70052378 3:0.061950323 4:0.15838483 5:-0.095291939 6:-0.52879649 7:0.91971622 8:0.92811623 9:0.34521112 10:-0.81743266 
10 0:0.09648518 1:0.0057549008 2:0.83722801 3:0.18714012 4:0.1034015 5:0.019085409 6:-0.14096066 7:0.88841229 8:0.8678471 9:0.1614211 10:-0.81743266 
10 0:-0.049753736 1:0.010368589 2:0.62365886 3:-0.21636018 4:-0.26151754 5:-0.090392511 6:-0.79102501 7:0.93467184 8:0.92421219 9:0.50163504 10:-0.61086066 
10 0:0.23438833 1:0.16757436 2:0.87952807 3:0.40756227 4:0.017177157 5:0.58957308 6:-0.060629936 7:0.94237786 8:0.9218358 9:-0.10776003 10:-0.81743266 
10 0:-0.039293144 1:0.034787629 2:0.64142889 3:-0.06075038 4:-0.13442024 5:-0.010162502 6:-0.53537107 7:0.96074945 8:0.9527173 9:0.25677211 10:-0.81743266 
10 0:0.24332039 1:0.37575713 2:0.96065492 3:0.52328793 4:0.11423013 5:0.69642272 6:-0.021812671 7:0.96425923 8:0.95254319 9:0.057279301 10:-0.81743266 
10 0:0.028606655 1:0.064680794 2:0.71191322 3:0.29889764 4:-0.023565974 5:0.026895072 6:-0.34527742 7:0.89720474 8:0.86150226 9:-0.019739676 10:-0.81743266 
10 0:0.034358145 1:-0.018150874 2:0.52361682 3:-0.0072634078 4:0.0081320535 5:0.11130816 6:-0.59039418 7:0.94851262 8:0.93959053 9:0.13002144 10:-0.81743266 
10 0:0.027109147 1:0.02050557 2:0.80488948 3:0.25848044 4:0.019609864 5:0.6068259 6:-0.0079296592 7:0.87776667 8:0.84178252 9:0.096489235 10:-1.08387 
10 0:0.052683984 1:0.050777483 2:0.76817814 3:0.31371552 4:0.025908527 5:0.092492822 6:-0.047109667 7:0.88625566 8:0.86717976 9:-0.078500376 10:-1.08387 
10 0:0.049883766 1:0.0090080629 2:0.78342989 3:0.21437331 4:0.018469746 5:0.44821531 6:-0.021800955 7:0.87245399 8:0.8348349 9:0.11733585 10:-0.79158331 
10 0:0.00068422429 1:0.076756565 2:0.61218183 3:0.053789484 4:-0.050605 5:-0.044607452 6:-0.65692708 7:0.89895408 8:0.87371501 9:0.066900117 10:-1.08387 
10 0:-0.035242292 1:-0.15414745 2:0.59689345 3:-0.40693511 4:-0.29507404 5:-0.031106446 6:-0.74330321 7:0.93233208 8:0.91828379 9:0.30920701 10:-0.67240771 
10 0:-0.078891162 1:-0.053008942 2:0.58584135 3:-0.20527963 4:-0.1384827 5:-0.015602092 6:-0.68833546 7:0.95592245 8:0.94933262 9:0.12659729 10:-1.08387 
10 0:-0.17138254 1:-0.24326601 2:0.52940994 3:-0.61125044 4:-0.20565878 5:-0.096924667 6:-0.84151 7:0.93469589 8:0.91869523 9:0.39844037 10:-1.08387 
10 0:0.23934723 1:-0.0095093159 2:0.87519103 3:0.16651872 4:0.22901905 5:-0.46270719 6:-0.19211458 7:0.91951199 8:0.93020568 9:-0.011695359 10:-1.08387 
10 0:0.026843675 1:0.020334668 2:0.80302995 3:0.25745513 4:0.018718051 5:0.60682247 6:-0.0079202566 7:0.87638702 8:0.83834039 9:0.09648565 10:-1.0598088 
10 0:0.041894599 1:0.0078052873 2:0.73365558 3:0.24819653 4:0.018733795 5:0.65616842 6:-0.28148561 7:0.86927902 8:0.83334169 9:0.054663739 10:-1.6804956 
10 0:-0.041114729 1:0.0080306946 2:0.54635372 3:-0.095050188 4:-0.085240568 5:-0.13463109 6:-0.85844035 7:0.9234156 8:0.89513082 9:0.032850948 10:-1.6804956 
10 0:0.12718796 1:0.097482415 2:0.77077955 3:0.099799732 4:0.019548027 5:0.48869415 6:-0.30804089 7:0.94744361 8:0.93935877 9:0.18599341 10:-1.6804956 
10 0:0.026855691 1:0.032532565 2:0.47887407 3:0.32767399 4:0.038244082 5:0.12327067 6:-0.28846087 7:0.94513847 8:0.92983478 9:0.31028032 10:-1.6804956 
8.384148016746579 0:-0.11577893 1:-0.13111983 2:0.39702412 3:-0.47310039 4:-0.096454898 5:-0.42594102 6:-0.98693376 7:0.84106064 8:0.80825569 9:-0.031142212 10:-1.6804956 
10 0:0.25113321 1:-0.011030844 2:0.84542394 3:0.1320058 4:0.14384422 5:-0.31503886 6:-0.18557444 7:0.92098001 8:0.91444279 9:-0.040770328 10:-1.6804956 
10 0:0.04148428 1:0.0077401016 2:0.73198968 3:0.24721183 4:0.017854689 5:0.65616739 6:-0.2811651 7:0.86791268 8:0.82993405 9:0.054661766 10:-1.6596755 
10 0:0.097294772 1:0.059256756 2:0.73344263 3:0.11224495 4:-0.0077288432 5:0.43196142 6:-0.45073672 7:0.94254581 8:0.93131873 9:0.1837374 10:-3.0026989 
10 0:-0.058476933 1:-0.20462125 2:0.63985054 3:-0.24096027 4:-0.22427869 5:-0.039821486 6:-0.70273806 7:0.93620006 8:0.91518227 9:0.17131268 10:-3.0026989 
10 0:-0.082633736 1:-0.077552814 2:0.60324748 3:-0.48648376 4:-0.30643838 5:0.023627929 6:-0.6308726 7:0.86097054 8:0.82826433 9:0.068295508 10:-3.0026989 
3.904151160731654 0:-0.0014919808 1:-0.015515757 2:0.4694689 3:0.057131725 4:0.046167691 5:0.1078783 6:-0.35384726 7:0.94223129 8:0.92807531 9:0.26959038 10:-3.0026989 
10 0:-0.19430732 1:-0.3563406 2:0.45229233 3:-0.8031154 4:-0.27495628 5:-0.025626823 6:-0.90158687 7:0.90985724 8:0.88614582 9:0.139669 10:-3.0026989 
10 0:0.0038631203 1:-0.018470142 2:0.59974274 3:-0.086005794 4:-0.07256893 5:-0.1257788 6:-0.55817766 7:0.92930095 8:0.90411432 9:0.042517114 10:-2.9722019 
10 0:0.0084668162 1:-0.0028427996 2:0.69323688 3:0.15576774 4:-0.0039418413 5:0.15633986 6:-0.36102107 7:0.86254103 8:0.8256242 9:0.025323597 10:-4.7007356 
10 0:-0.011679749 1:-0.10060289 2:0.55859101 3:-0.045081444 4:-0.013641143 5:-0.017889146 6:-0.7009458 7:0.8507299 8:0.82900637 9:0.41424106 10:-4.7007356 
10 0:-0.015814016 1:-0.078558667 2:0.54973912 3:-0.087965492 4:-0.054519417 5:-0.11131148 6:-0.75195429 7:0.87615363 8:0.85129445 9:0.08441762 10:-4.7007356 
10 0:-0.034920642 1:-0.031150114 2:0.63291047 3:-0.061736057 4:-0.039155048 5:-0.057773136 6:-0.57026655 7:0.87566216 8:0.83400708 9:0.059510666 10:-4.7007356 
10 0:-0.037624755 1:-0.079659283 2:0.62902684 3:-0.11642948 4:-0.26386981 5:-0.068389253 6:-0.84473097 7:0.94604201 8:0.91535696 9:0.12307307 10:-4.7007356 
10 0:-0.084181707 1:0.021252949 2:0.60163156 3:-0.092407131 4:-0.15326685 5:-0.085100795 6:-0.67177547 7:0.88694758 8:0.85831055 9:0.14060254 10:-4.7007356 
10 0:-0.11472585 1:-0.34196175 2:0.54261929 3:-0.24000125 4:-0.31653398 5:0.070185758 6:-0.99561509 7:0.89460721 8:0.86120169 9:0.14577266 10:-4.7007356 
10 0:-0.073713032 1:-0.16399789 2:0.47326346 3:-0.59552749 4:-0.1586078 5:-0.024078001 6:-1 7:0.94584203 8:0.93615591 9:0.11722249 10:-4.7007356 
10 0:0.13702922 1:-0.22380938 2:0.70784635 3:0.01609826 4:-0.15641397 5:0.01325449 6:-0.59932788 7:0.92988996 8:0.91178764 9:0.08658457 10:-4.7007356 
10 0:-0.10166974 1:-0.085903058 2:0.51385489 3:-0.38258273 4:-0.12277018 5:-0.22964483 6:-1 7:0.86997749 8:0.82912143 9:0.1014435 10:-4.7007356 
10 0:-0.064276879 1:-0.11319166 2:0.43449691 3:-0.55718486 4:-0.094803846 5:-0.025254238 6:-0.98692034 7:0.85188463 8:0.80951221 9:0.10040709 10:-4.7007356 
10 0:-0.060578495 1:-0.073170768 2:0.46282273 3:-0.21010803 4:-0.0032289133 5:-0.15834615 6:-0.89795906 7:0.93843692 8:0.92095752 9:0.15967116 10:-4.7007356 
10 0:-0.29991902 1:-0.10277706 2:0.48339053 3:-0.35869384 4:-0.3144363 5:-0.22673416 6:-1 7:0.94623513 8:0.9252871 9:0.27152313 10:-4.7007356 
10 0:-0.065427236 1:0.011512326 2:0.42638073 3:-0.2162355 4:-0.084141879 5:-0.13860207 6:-0.81674314 7:0.87308116 8:0.82223983 9:0.075236052 10:-4.7007356 
10 0:-0.0066485955 1:-0.0015215286 2:0.79382886 3:0.13279844 4:0.025935822 5:-0.40006597 6:-0.20842089 7:0.92174043 8:0.90494003 9:0.029244852 10:-4.7007356 
7.212801809087062 0:-0.1104423 1:-0.0257114 2:0.55018323 3:-0.22196601 4:-0.11983264 5:0.011838103 6:-0.90813677 7:0.9093487 8:0.89469513 9:0.096554132 10:-4.7007356 
10 0:0.01208861 1:-0.0090838077 2:0.68842202 3:0.040821272 4:-0.014257275 5:0.050696723 6:-0.37371722 7:0.86547391 8:0.82415284 9:0.0052457704 10:-5.0794287 
10 0:0.030629148 1:0.072073782 2:0.65574498 3:0.21420532 4:-0.015407642 5:-0.087778247 6:-0.3215992 7:0.93819723 8:0.91150216 9:0.087453501 10:-5.0794287 
10 0:0.0083837919 1:-0.0028191081 2:0.69167613 3:0.15514948 4:-0.0035293026 5:0.15633903 6:-0.3606102 7:0.8611853 8:0.82224812 9:0.02532275 10:-4.6840235 
10 0:0.016346039 1:-0.079039243 2:0.54442059 3:-0.24263576 4:-0.078430071 5:-0.11506024 6:-0.77853117 7:0.88133267 8:0.84893422 9:0.075395688 10:-5.0794287 
10 0:-0.10320542 1:-0.021645743 2:0.68358486 3:-0.14940272 4:-0.054523969 5:0.15016274 6:-0.53275098 7:0.93042945 8:0.93055915 9:0.27983467 10:-5.0794287 
10 0:-0.14279034 1:-0.069938576 2:0.40320146 3:-0.41601176 4:-0.16903995 5:-0.12715341 6:-0.87265117 7:0.93046327 8:0.8889185 9:0.099862305 10:-5.0794287 
10 0:-0.022335621 1:-0.005572312 2:0.64579908 3:-0.25272959 4:-0.057924265 5:-0.065934739 6:-0.68604624 7:0.88427925 8:0.83826502 9:0.024358306 10:-5.0794287 
10 0:-0.074796087 1:-0.0021285183 2:0.62242823 3:-0.34792369 4:-0.29344277 5:-0.16078347 6:-0.85703022 7:0.95097471 8:0.91525754 9:0.11413455 10:-5.0794287 
10 0:-0.10400989 1:0.045471312 2:0.60800779 3:-0.17174461 4:-0.15201021 5:-0.095666905 6:-0.66028702 7:0.8893657 8:0.86318273 9:0.16764612 10:-5.0794287 
10 0:-0.12314853 1:-0.13079039 2:0.54934545 3:-0.40922095 4:-0.39497554 5:-0.018525479 6:-0.89503712 7:0.90936369 8:0.86562919 9:0.025672036 10:-5.0794287 
10 0:0.15742582 1:-0.028571594 2:0.74235655 3:-0.0075775316 4:-0.20836472 5:-0.028030494 6:-0.49818353 7:0.94170158 8:0.91618224 9:0.053917526 10:-5.0794287 
10 0:-0.06116142 1:-0.024956319 2:0.56855953 3:-0.37004431 4:-0.12492605 5:-0.073049312 6:-0.68707804 7:0.88542726 8:0.83983372 9:0.055672573 10:-5.0794287 
10 0:-0.046795016 1:-0.07007095 2:0.47287061 3:-0.57214054 4:-0.11203555 5:-0.024953959 6:-0.84004478 7:0.87072977 8:0.8184639 9:0.054211995 10:-5.0794287 
9.622713107665653 0:-0.047920671 1:-0.017583943 2:0.49568264 3:-0.49218277 4:-0.010218375 5:-0.12783295 6:-0.7559996 7:0.94621516 8:0.92685988 9:0.075074239 10:-5.0794287 
3.06618213774062 0:-0.0085787402 1:-0.013012756 2:0.46516219 3:-0.020062695 4:0.06423591 5:-0.50196396 6:-0.55624882 7:0.93917646 8:0.92498156 9:0.14549869 10:-5.0794287 
10 0:-0.23080056 1:-0.03605453 2:0.53992896 3:-0.32348941 4:-0.30140443 5:-0.17706499 6:-0.83455817 7:0.9555413 8:0.93592492 9:0.20071677 10:-5.0794287 
10 0:-0.087638201 1:0.028114485 2:0.4779794 3:-0.16482242 4:-0.060379422 5:-0.054398025 6:-0.73724928 7:0.88412147 8:0.838355 9:0.053612547 10:-5.0794287 
10 0:-0.019341193 1:0.037657081 2:0.80642192 3:0.10057954 4:4.1076463e-05 5:-0.41675317 6:-0.17205772 7:0.92619867 8:0.90917312 9:0.10877727 10:-5.0794287 
10 0:-0.23426371 1:0.00099068695 2:0.50413359 3:-0.33158748 4:-0.36563537 5:-0.023311956 6:-0.84996251 7:0.94063119 8:0.89901058 9:0.10693073 10:-5.0794287 
10 0:-0.15702693 1:-0.04942612 2:0.56137077 3:-0.33711694 4:-0.15487114 5:-0.0079682986 6:-0.89284091 7:0.91666854 8:0.90073609 9:0.044128229 10:-5.0794287 
10 0:-0.34374185 1:-0.044183974 2:0.35327622 3:-0.14468117 4:-0.23888881 5:-0.11400979 6:-0.83955658 7:0.86542716 8:0.8307106 9:0.051725995 10:-5.0794287 
10 0:0.02991574 1:0.00011774859 2:0.73298637 3:0.16230696 4:-0.013619959 5:0.044276312 6:-0.21165173 7:0.87443123 8:0.83221343 9:0.029917599 10:-3.9450098 
10 0:0.074917111 1:0.074884461 2:0.72165538 3:0.40017484 4:0.024518341 5:-0.030017868 6:-0.095441256 7:0.94480504 8:0.92060754 9:0.068424705 10:-3.9450098 
10 0:0.011970229 1:-0.0090079595 2:0.68687125 3:0.040659221 4:-0.013248903 5:0.050696833 6:-0.37329148 7:0.86411359 8:0.8207828 9:0.0052451499 10:-5.0639066 
10 0:0.034592785 1:-0.026066222 2:0.59334598 3:-0.086686752 4:-0.066060908 5:-0.070504133 6:-0.5758205 7:0.8967029 8:0.86018963 9:0.067719175 10:-3.9450098 
10 0:-0.060240788 1:-0.12910656 2:0.69090337 3:-0.14632319 4:-0.085129733 5:0.067995887 6:-0.59355359 7:0.93357227 8:0.93345069 9:0.24117648 10:-3.9450098 
10 0:-0.11619216 1:0.034356129 2:0.49785518 3:-0.2562958 4:-0.13781379 5:-0.062393323 6:-0.65580415 7:0.9410606 8:0.89988386 9:0.07195498 10:-3.9450098 
10 0:0.0069161102 1:0.015164008 2:0.7200435 3:0.10205112 4:-0.045958922 5:-0.047902501 6:-0.29166734 7:0.9050644 8:0.85900817 9:0.10283279 10:-3.9450098 
10 0:-0.24721436 1:-0.1255759 2:0.54442514 3:-0.28262071 4:-0.29477073 5:0.11185678 6:-0.8559252 7:0.92352038 8:0.90295188 9:0.13712097 10:-4.6661219 
10 0:0.13013494 1:0.11948023 2:0.82532534 3:0.131163 4:-0.14895001 5:0.011322212 6:-0.21359732 7:0.95999194 8:0.93291057 9:0.067094507 10:-3.9450098 
10 0:-0.039554967 1:-0.053900539 2:0.50901722 3:-0.35545696 4:-0.10884993 5:-0.020336976 6:-0.7539146 7:0.88217942 8:0.82694709 9:0.080095908 10:-3.9450098 
10 0:-0.21382409 1:-0.023622374 2:0.57200645 3:-0.19556562 4:-0.26623051 5:-0.13961371 6:-0.74877427 7:0.9607527 8:0.94352316 9:0.16018795 10:-3.9450098 
10 0:0.020852284 1:0 2:0.82153552 3:0.1773248 4:-0.01453578 5:-0.32932066 6:-0.31618805 7:0.92908418 8:0.91293113 9:0.091412035 10:-3.9450098 
10 0:-0.28261444 1:-0.00060126233 2:0.43113978 3:-0.11002254 4:-0.18711473 5:-0.098982626 6:-0.72640379 7:0.8820647 8:0.85857109 9:0.10209268 10:-3.9450098 
10 0:0.028755608 1:0.017545022 2:0.73923256 3:0.22087578 4:-0.013323209 5:-0.12333938 6:-0.22086463 7:0.87473636 8:0.8317695 9:0.035483024 10:-3.2120049 
10 0:-0.074801261 1:-0.047286751 2:0.49954539 3:-0.34720183 4:-0.062175255 5:-0.12529253 6:-0.93265914 7:0.84739456 8:0.81181021 9:0.25132469 10:-3.2120049 
10 0:0.087886231 1:0.065448869 2:0.7476461 3:0.46318092 4:0.05844911 5:-0.014963576 6:-0.14836484 7:0.94235991 8:0.92228504 9:0.060465535 10:-3.2120049 
10 0:0.029622769 1:0.00011670988 2:0.7313755 3:0.16166349 4:-0.012661763 5:0.044275868 6:-0.21141056 7:0.87305682 8:0.8288104 9:0.029916225 10:-3.9305968 
10 0:-0.039534807 1:0.052852781 2:0.60588368 3:-0.0046585277 4:-0.048993168 5:-0.034876813 6:-0.54011865 7:0.90132293 8:0.86521788 9:0.087309019 10:-3.2120049 
2.570835672697513 0:0.0047736168 1:0.02471576 2:0.7290863 3:-0.046514859 4:-0.075940828 5:0.26814678 6:-0.40523141 7:0.94061121 8:0.94166991 9:0.27721361 10:-3.2120049 
10 0:0.0048751921 1:0.04549187 2:0.72466533 3:0.21197148 4:-0.037835734 5:-0.041995026 6:-0.31560788 7:0.90245628 8:0.86023201 9:0.074291992 10:-3.2120049 
1.880130910515768 0:-0.062783416 1:0.098814184 2:0.67463388 3:0.031012067 4:-0.22584575 5:-0.15863151 6:-0.57266965 7:0.96104203 8:0.92942685 9:0.084174362 10:-3.2120049 
10 0:-0.001947428 1:0.068948702 2:0.65950455 3:0.037647831 4:-0.094230167 5:-0.071463322 6:-0.51463132 7:0.89472711 8:0.87879328 9:0.17873471 10:-3.2120049 
10 0:-0.11757541 1:-0.024847983 2:0.45938844 3:-0.45080363 4:-0.17982738 5:-0.034058273 6:-0.96909127 7:0.95399021 8:0.93876029 9:0.022267537 10:-3.2120049 
10 0:0.024131333 1:0.21558484 2:0.79142893 3:0.15251939 4:-0.14124523 5:-0.015152663 6:-0.29594566 7:0.95279588 8:0.92781115 9:0.011849504 10:-3.2120049 
10 0:-0.052275319 1:0.090595093 2:0.63496383 3:-0.089994206 4:-0.079169544 5:-0.30641219 6:-0.49294013 7:0.89573889 8:0.85576323 9:0.18369752 10:-3.2120049 
7.007490648195986 0:-0.49603537 1:-0.54998055 2:0.39183542 3:-0.72819367 4:-0.54891509 5:-0.097939097 6:-0.81071117 7:0.79570054 8:0.76223809 9:0.6350037 10:-3.2120049 
10 0:-0.042380395 1:0.070921986 2:0.55113187 3:-0.17689871 4:-0.090802779 5:-0.018668443 6:-0.64876977 7:0.89220648 8:0.83707019 9:0.10950384 10:-3.2120049 
10 0:-0.033467357 1:0.092462506 2:0.58493297 3:0.13006582 4:0.017475025 5:0.081869856 6:-0.54836442 7:0.89768981 8:0.86978418 9:0.049489595 10:-3.2120049 
10 0:-0.10563766 1:0.23943198 2:0.66243635 3:0.038690245 4:-0.16145116 5:0.029639519 6:-0.42610706 7:0.96537094 8:0.93583199 9:0.067326755 10:-3.2120049 
10 0:0.085678892 1:0.059024337 2:0.74224565 3:0.29565324 4:0.074506738 5:0.032049485 6:-0.16121529 7:0.93624398 8:0.91796573 9:0.094047564 10:-2.4534743 
10 0:-0.026609905 1:0.076636697 2:0.62436253 3:0.015148026 4:-0.027012802 5:0.041776152 6:-0.46095863 7:0.90611558 8:0.87118188 9:0.085637708 10:-2.4534743 
10 0:0.051489292 1:0.030549901 2:0.69953038 3:-0.047602389 4:-0.090090826 5:0.32907547 6:-0.51788775 7:0.93913334 8:0.93556886 9:0.37238963 10:-2.4534743 
10 0:-0.10265968 1:0.057055204 2:0.49616711 3:-0.16611936 4:-0.085667079 5:-0.10863011 6:-0.64680743 7:0.94006798 8:0.90397096 9:0.068230201 10:-2.4534743 
10 0:0.046598644 1:0.061295258 2:0.76238252 3:0.32526586 4:-0.020066192 5:-0.021089106 6:-0.22544465 7:0.91048653 8:0.87026599 9:0.073983862 10:-2.4534743 
10 0:-0.19809624 1:0.020675211 2:0.61851366 3:-0.42935408 4:-0.24565984 5:-0.10367785 6:-0.77045457 7:0.95255931 8:0.92145945 9:0.1509545 10:-2.4534743 
10 0:-0.15683975 1:0.11489548 2:0.59150072 3:-0.23881165 4:-0.35704562 5:-0.041863954 6:-0.68917867 7:0.93506621 8:0.88773 9:0.010465191 10:-2.4534743 
10 0:-0.098994816 1:-0.033683101 2:0.47700813 3:-0.45489053 4:-0.17113154 5:-0.021815841 6:-0.69972393 7:0.95845546 8:0.94236242 9:0.10132528 10:-2.4534743 
10 0:0.032749198 1:0.18787861 2:0.80873183 3:0.11803717 4:-0.1215857 5:0.031572817 6:-0.24540673 7:0.95469312 8:0.93131517 9:0.019806018 10:-2.4534743 
10 0:-0.034080873 1:0.085106383 2:0.60427668 3:-0.076147704 4:-0.060096368 5:-0.0096239826 6:-0.50447438 7:0.9034368 8:0.8498587 9:0.10668532 10:-2.4534743 
10 0:0.025025035 1:0.12239448 2:0.66241196 3:0.21478707 4:0.070319499 5:0.19635234 6:-0.38199096 7:0.91040832 8:0.89305136 9:0.046352317 10:-2.4534743 
10 0:0.028407468 1:0.032712085 2:0.81884918 3:0.24590708 4:-0.042979805 5:-0.31631772 6:-0.3302811 7:0.92990365 8:0.91557742 9:0.098560418 10:-2.4534743 
10 0:-0.032567097 1:0.21598396 2:0.6845363 3:0.041896102 4:-0.080674486 5:0.043010586 6:-0.35934038 7:0.96503892 8:0.94168643 9:0.073458477 10:-2.4534743 
10 0:0.044858076 1:0.03653678 2:0.81886274 3:0.41503005 4:0.0038425412 5:0.16865405 6:-0.029764688 7:0.88859516 8:0.84783828 9:0.051949009 10:-1.4910243 
0.09735487878968037 0:-0.10834995 1:-0.15074575 2:0.46752317 3:-0.41480364 4:-0.11693291 5:-0.053354128 6:-0.83376311 7:0.85252458 8:0.81033812 9:0.18223311 10:-1.4910243 
10 0:0.048564962 1:0.023689875 2:0.75262133 3:0.29450415 4:0.083696438 5:0.10639597 6:-0.12032856 7:0.93415107 8:0.91791424 9:0.093882921 10:-1.4910243 
10 0:0.028520472 1:0.02679046 2:0.75953379 3:0.19399283 4:-0.0093724762 5:-0.045139225 6:-0.078931616 7:0.87737299 8:0.83160766 9:0.041917726 10:-2.4410563 
10 0:0.060974613 1:0.11843826 2:0.7073496 3:0.29458256 4:0.0330198 5:0.16480528 6:-0.064082042 7:0.92194536 8:0.89263662 9:0.086184776 10:-1.4910243 
10 0:-0.089593934 1:0.0024540486 2:0.50362639 3:-0.1796134 4:-0.062934747 5:0.00015180807 6:-0.63191381 7:0.93911278 8:0.90636862 9:0.053278695 10:-1.4910243 
10 0:0.01383222 1:0.035626281 2:0.78111737 3:0.31913419 4:-0.0036908052 5:0.02642752 6:-0.10757658 7:0.90781727 8:0.87611885 9:0.077484308 10:-1.4910243 
10 0:-0.038092769 1:0.031797333 2:0.57074668 3:-0.19295501 4:-0.27495555 5:-0.00071176315 6:-0.79991851 7:0.94131698 8:0.91235591 9:0.35218601 10:-3.1844834 
10 0:-0.038077815 1:0.0060807817 2:0.68802313 3:-0.06958084 4:-0.1976717 5:0.064023321 6:-0.4340907 7:0.96654421 8:0.93939397 9:0.20529941 10:-1.4910243 
10 0:0.067008993 1:0.068578024 2:0.70917203 3:0.26561669 4:-0.024112477 5:0.00067485041 6:-0.26387417 7:0.900297 8:0.88985749 9:0.20690238 10:-1.4910243 
10 0:-0.0816152 1:0.024068978 2:0.62116526 3:-0.099721882 4:-0.3047913 5:0.036472165 6:-0.55492359 7:0.93962207 8:0.89912131 9:0.081286389 10:-1.4910243 
10 0:-0.096557959 1:-0.067366148 2:0.44371765 3:-0.39083517 4:-0.1720236 5:-0.012128606 6:-0.79889749 7:0.95500721 8:0.93979192 9:0.18637211 10:-1.4910243 
10 0:-0.27574262 1:-0.064182804 2:0.30407239 3:-0.24530283 4:-0.2635781 5:-0.18186534 6:-0.98569413 7:0.84757009 8:0.80831955 9:0.075862619 10:-1.4910243 
10 0:0.040785862 1:0.093328053 2:0.76370446 3:0.22912322 4:-0.010537933 5:0.054271069 6:-0.014096084 7:0.91383809 8:0.8864603 9:0.17867172 10:-1.4910243 
10 0:-0.038495352 1:0.077163177 2:0.62343814 3:0.046878144 4:-0.032261454 5:0.00014981202 6:-0.44966388 7:0.89994009 8:0.85599499 9:0.044517806 10:-1.4910243 
10 0:0.069507503 1:0.051730716 2:0.84941161 3:0.72234966 4:-0.03310076 5:-0.17505697 6:-0.16979248 7:0.93473062 8:0.92232564 9:0.17219345 10:-1.4910243 
10 0:-0.052865837 1:-0.021218316 2:0.62763248 3:-0.04808807 4:-0.06654877 5:-0.039814587 6:-0.58573595 7:0.92466175 8:0.92223367 9:0.034365669 10:-1.4910243 
10 0:0.044418697 1:0.036232144 2:0.81713084 3:0.41338464 4:0.0037370531 5:0.16865072 6:-0.029732075 7:0.88719848 8:0.84437138 9:0.05194657 10:-1.4795012 
10 0:0.051020401 1:0.045400584 2:0.80054633 3:0.45989921 4:0.01149691 5:0.030127096 6:-0.18120319 7:0.90490417 8:0.88068035 9:0.07891976 10:0.036565397 
10 0:0.006119765 1:0.14107622 2:0.73046768 3:0.22196288 4:-0.12548273 5:0.32449478 6:-0.19772739 7:0.97233885 8:0.95143439 9:0.24149336 10:0.036565397 
10 0:-0.16526244 1:0.14532295 2:0.63500439 3:0.069560677 4:-0.2498038 5:-0.038062535 6:-0.49145618 7:0.93825072 8:0.9071288 9:0.24748231 10:0.036565397 
10 0:-0.13787131 1:-0.022300795 2:0.34361611 3:-0.21252855 4:-0.23498288 5:-0.18376302 6:-0.93842557 7:0.85887718 8:0.82199726 9:0.039186142 10:0.036565397 
10 0:0.051858796 1:0.15107764 2:0.7823687 3:0.36913729 4:0.025752887 5:0.11765534 6:-0.080000259 7:0.90902124 8:0.88999714 9:0.18443696 10:0.036565397 
10 0:-0.0098887154 1:0.12340443 2:0.71092627 3:0.31774798 4:0.016654861 5:0.009983816 6:-0.16219202 7:0.91195378 8:0.87873999 9:-0.025976811 10:0.036565397 
10 0:0.061023258 1:0.042373872 2:0.80951469 3:0.40992825 4:0.029081341 5:0.39615033 6:-0.19076516 7:0.88171493 8:0.85052558 9:0.096690832 10:1.0136767 
10 0:-0.013065702 1:0.031901651 2:0.55473285 3:0.087756252 4:-0.0020222294 5:0.037002815 6:-0.50454545 7:0.93876197 8:0.91120372 9:0.100731 10:1.0136767 
10 0:0.087074739 1:0.03425596 2:0.8164719 3:0.35652309 4:0.023866566 5:0.058891003 6:-0.095489001 7:0.90406792 8:0.88245207 9:0.11645202 10:1.0136767 
10 0:-0.29748608 1:0.0087558707 2:0.59924758 3:-0.15531343 4:-0.2048575 5:0.14351287 6:-0.73904188 7:0.94655601 8:0.92936935 9:0.21544658 10:-1.4674092 
0.001347298657481137 0:-0.030496304 1:0.16348798 2:0.65578167 3:0.10517108 4:-0.18805439 5:-0.047798236 6:-0.39625694 7:0.94234056 8:0.9147023 9:0.40540869 10:1.0136767 
10 0:-0.13861383 1:-0.023932479 2:0.33115627 3:-0.20384236 4:-0.20935019 5:-0.22985798 6:-0.97124092 7:0.85886209 8:0.82327626 9:0.039303946 10:1.0136767 
10 0:0.10656395 1:0.12003731 2:0.78450508 3:0.34680139 4:0.046507489 5:0.065412305 6:-0.15396676 7:0.90372717 8:0.88667021 9:0.19496056 10:1.0136767 
10 0:0.061628072 1:0.10468094 2:0.72946519 3:0.40495749 4:0.05354879 5:0.011565632 6:-0.0927375 7:0.90670818 8:0.88104734 9:-0.037593908 10:1.0136767 
10 0:-0.048824695 1:-0.031763916 2:0.51696668 3:-0.26863911 4:-0.011916511 5:-0.091315648 6:-0.72363564 7:0.94981193 8:0.93160417 9:0.38431651 10:1.0136767 
5.059215340773045 0:0.023498623 1:0.0095096544 2:0.57352217 3:0.21748897 4:0.080772194 5:-0.19822034 6:-0.22499996 7:0.94874129 8:0.93350626 9:0.47782903 10:1.0136767 
10 0:0.06195235 1:0.031190518 2:0.79908201 3:0.38335022 4:-0.02941188 5:-0.063512075 6:-0.33435937 7:0.92596329 8:0.91680336 9:0.24305 10:1.0136767 
10 0:0.1215107 1:0.042602643 2:0.7018431 3:0.16709746 4:0.09305003 5:0.036501528 6:-0.27507349 7:0.94594822 8:0.94686602 9:0.30772667 10:1.0136767 
10 0:0.095524557 1:0.020718965 2:0.67961301 3:0.216592 4:-0.024684758 5:-0.071302953 6:-0.20268845 7:0.9301433 8:0.93141864 9:0.16426319 10:1.0136767 
10 0:-0.00024855871 1:0.13456035 2:0.65013243 3:0.079427293 4:-0.028254087 5:0.16463054 6:-0.26632295 7:0.90171437 8:0.86702433 9:0.18545451 10:1.6643488 
10 0:0.060425545 1:0.042020486 2:0.8078249 3:0.40830191 4:0.027467305 5:0.3961393 6:-0.19054817 7:0.88032904 8:0.84704767 9:0.096685893 10:1.0235934 
10 0:0.045010106 1:0.0132021 2:0.72087491 3:0.10696228 4:-0.078130032 5:0.38482387 6:-0.29933765 7:0.94282797 8:0.9402959 9:0.15265714 10:1.6643488 
10 0:0.025664769 1:0.042330974 2:0.57751986 3:0.12198358 4:0.016978763 5:0.0001110352 6:-0.45000048 7:0.93968434 8:0.91289719 9:0.090944505 10:1.6643488 
10 0:0.10056682 1:0.013793679 2:0.78243374 3:0.30127038 4:0.021134641 5:0.049365317 6:-0.16917289 7:0.8935297 8:0.87278814 9:0.11513304 10:1.6643488 
10 0:0.27765189 1:0.21891133 2:0.76828943 3:0.61285474 4:0.03318071 5:0.49729977 6:-0.18044676 7:0.97462431 8:0.95822536 9:0.3147915 10:1.6643488 
10 0:-0.049954307 1:0.060739422 2:0.5260903 3:-0.088919506 4:-0.067047315 5:0.013318304 6:-0.64738377 7:0.95870202 8:0.95061272 9:0.21967991 10:1.6643488 
10 0:-0.13019811 1:0.014685917 2:0.3584884 3:-0.17739785 4:-0.17517125 5:-0.21935422 6:-0.93919498 7:0.86609449 8:0.83444325 9:0.05109601 10:1.6643488 
10 0:0.12391964 1:0.0258844 2:0.7851116 3:0.27799343 4:0.05570335 5:0.0094747935 6:-0.15192426 7:0.89630656 8:0.88229847 9:0.15296607 10:1.6643488 
10 0:-0.37367849 1:-0.27416222 2:0.45752228 3:-0.29263117 4:-0.66692933 5:-0.1228053 6:-0.77422885 7:0.84283518 8:0.79355761 9:-0.37661732 10:1.6643488 
10 0:0.097474916 1:0.12765957 2:0.7656513 3:0.41160524 4:0.088668033 5:0.025500849 6:-0.018749171 7:0.9068176 8:0.88726801 9:-0.022323392 10:1.6643488 
10 0:-0.0045210679 1:0.050482118 2:0.54788898 3:-0.065819058 4:-0.0010469225 5:-0.13726884 6:-0.61090909 7:0.95554836 8:0.93619338 9:0.26322834 10:1.6643488 
10 0:0.045878521 1:0.084584688 2:0.60471918 3:0.50093738 4:0.096673411 5:-0.14307951 6:-0.14540022 7:0.95164748 8:0.93673777 9:0.23874926 10:1.6643488 
10 0:0.12693471 1:-0.008603879 2:0.6448687 3:0.24946092 4:0.13699124 5:0.16862466 6:-0.19945947 7:0.8683631 8:0.86713842 9:0.10376008 10:1.6643488 
10 0:0.24438944 1:-0.017833851 2:0.72836221 3:0.18273059 4:0.11400442 5:0.015235439 6:-0.19616552 7:0.948361 8:0.94777367 9:0.17556252 10:1.6643488 
10 0:0.066998077 1:0.049176245 2:0.68587194 3:0.23503788 4:-0.0079003877 5:-0.06042083 6:-0.14597375 7:0.9297053 8:0.93110023 9:0.11015608 10:1.6643488 
10 0:0.00056817432 1:0.044979925 2:0.7614603 3:0.43147319 4:-0.033975551 5:0.55522862 6:-0.082809326 7:0.94849485 8:0.9494764 9:0.26429306 10:2.3354408 
10 0:0.11199258 1:0.052760726 2:0.67061144 3:0.5066839 4:0.058304547 5:-0.10327194 6:-0.33771151 7:0.94659472 8:0.92083873 9:0.036001273 10:2.3354408 
10 0:0.090476303 1:0.0097744313 2:0.79672211 3:0.26648441 4:0.020294347 5:0.052222817 6:-0.10075156 7:0.89441706 8:0.87325734 9:0.19507302 10:2.3354408 
10 0:0.16772461 1:0.11796909 2:0.76398775 3:0.47931561 4:0.053622939 5:0.35217453 6:-0.19161978 7:0.9647968 8:0.95452906 9:0.29503589 10:2.3354408 
10 0:-0.063861445 1:0.016045613 2:0.40256932 3:-0.12188341 4:-0.13363364 5:-0.17901001 6:-0.80480945 7:0.87393025 8:0.84556078 9:0.0529593 10:2.3354408 
10 0:-0.00045217008 1:0.059557272 2:0.61147836 3:0.18500137 4:0.024510216 5:-0.0050732571 6:-0.35999927 7:0.96434453 8:0.94610486 9:0.20864536 10:2.3354408 
10 0:0.069749915 1:0.10910905 2:0.68166913 3:0.67313256 4:0.13122674 5:-0.072382205 6:-0.048950896 7:0.96053794 8:0.94738428 9:0.15808031 10:2.3354408 
10 0:0.21975909 1:0.033685734 2:0.75364031 3:0.22273918 4:0.1388903 5:0.037153231 6:-0.11946868 7:0.95041005 8:0.94902672 9:0.15828259 10:2.3354408 
10 0:0.029050008 1:0.025212423 2:0.68995925 3:0.27850859 4:0.0025982763 5:-0.066684108 6:-0.131779 7:0.92902498 8:0.93121465 9:0.0650965 10:2.3354408 
10 0:0.08644414 1:-0.030630859 2:0.66028163 3:0.1405127 4:0.07712524 5:0.21829472 6:-0.25966605 7:0.88689315 8:0.87293608 9:0.20394709 10:2.8588436 
10 0:0.11127499 1:0.18084121 2:0.79284711 3:0.60650905 4:0.018048052 5:0.75938529 6:-0.0075241007 7:0.9522465 8:0.95460535 9:0.30377074 10:2.8588436 
10 0:0.134858 1:0.09754624 2:0.68842153 3:0.39724102 4:0.088941071 5:-0.076980262 6:-0.29268225 7:0.94498226 8:0.92034904 9:0.022268904 10:2.8588436 
10 0:0.14489792 1:0.015438038 2:0.82309302 3:0.26253744 4:0.02570233 5:0.080843732 6:-0.0050767189 7:0.89916629 8:0.87552105 9:0.23174004 10:2.8588436 
10 0:0.053381979 1:0.069585307 2:0.65166281 3:0.054676626 4:-0.017454196 5:0.23829899 6:-0.55799767 7:0.94773576 8:0.94239781 9:0.13274949 10:1.683114 
10 0:0.25770617 1:-0.051687784 2:0.75488393 3:0.34331525 4:0.052215642 5:0.3156762 6:-0.21396666 7:0.95810949 8:0.94853875 9:0.25348887 10:2.8588436 
10 0:0.013706883 1:-0.049695966 2:0.54341178 3:-0.10743922 4:-0.038703437 5:0.019245814 6:-0.61019318 7:0.95764472 8:0.95295143 9:0.11342278 10:2.8588436 
10 0:-0.032920846 1:0.036170857 2:0.42300389 3:-0.087164445 4:-0.093973107 5:-0.10384876 6:-0.7623762 7:0.87394276 8:0.85095229 9:-0.0039993764 10:2.8588436 
10 0:0.06193505 1:0.065797145 2:0.62541704 3:0.3184705 4:0.04454997 5:0.094963232 6:-0.301816 7:0.96154343 8:0.94641267 9:0.071597832 10:2.8588436 
10 0:0.09921687 1:0.10910905 2:0.71249529 3:0.59895403 4:0.16058531 5:0.020980845 6:-0.0085655283 7:0.95894612 8:0.95030764 9:0.011323776 10:2.8588436 
10 0:0.12442216 1:-0.033931209 2:0.63499398 3:0.1571282 4:0.1095567 5:0.13263721 6:-0.20801427 7:0.86706289 8:0.85348486 9:0.12327198 10:2.8588436 
10 0:0.36644765 1:0.13077913 2:0.79613116 3:0.29357899 4:0.17884519 5:0.094622954 6:-0.011469752 7:0.95827906 8:0.95174573 9:0.15939754 10:2.8588436 
10 0:0.22847407 1:0.10109839 2:0.78950999 3:0.56646299 4:0.071531716 5:0.025566122 6:-0.020618799 7:0.9453109 8:0.94939986 9:0.072620354 10:2.8588436 
10 0:0.015655993 1:-0.0022215163 2:0.63878389 3:0.1525271 4:0.013583591 5:0.065769069 6:-0.19362687 7:0.87633824 8:0.86277572 9:0.43840913 10:2.695411 
10 0:0.016142368 1:-0.033527355 2:0.61746423 3:0.027512109 4:-0.0024973178 5:0.035036312 6:-0.37093021 7:0.92054771 8:0.89155431 9:0.18317352 10:2.695411 
10 0:0.14457826 1:0.11283396 2:0.79834615 3:0.56538624 4:0.049544553 5:0.79021296 6:-0.078560375 7:0.9503185 8:0.95274852 9:0.31007379 10:2.695411 
10 0:0.15538936 1:0.10061342 2:0.70987505 3:0.41267466 4:0.11235508 5:-0.019193871 6:-0.23827458 7:0.94507205 8:0.91991055 9:0.013258063 10:2.695411 
10 0:0.15941039 1:0.041837964 2:0.84919448 3:0.300237 4:0.035578402 5:0.12650294 6:-0.026168095 7:0.90405583 8:0.87784141 9:0.16482715 10:2.695411 
10 0:0.30122415 1:0.029492264 2:0.77614699 3:0.35616186 4:0.061292164 5:0.34319617 6:-0.12625675 7:0.96026288 8:0.94936236 9:0.27284562 10:2.695411 
10 0:0.058776774 1:-0.1118249 2:0.60770903 3:0.0074202584 4:-0.037255496 5:-0.063009323 6:-0.59307366 7:0.87293093 8:0.85904751 9:0.26785577 10:2.695411 
10 0:0.11182123 1:-0.21662071 2:0.58255855 3:5.3553286e-05 4:-0.15071981 5:-0.10554157 6:-0.50954185 7:0.91714715 8:0.89282677 9:0.1587324 10:2.695411 
10 0:-0.0063968013 1:0.001104583 2:0.52969074 3:-0.096427255 4:-0.033975278 5:0.019070676 6:-0.57355377 7:0.95752618 8:0.95149545 9:0.15899882 10:2.695411 
10 0:-0.010395992 1:0.03127556 2:0.43768271 3:-0.06275223 4:-0.058576045 5:0.03265503 6:-0.73267337 7:0.87378657 8:0.85409555 9:0.00064274687 10:2.695411 
10 0:0.15027373 1:0.01475166 2:0.7507837 3:0.33279269 4:0.12485761 5:0.055422571 6:-0.15476188 7:0.88554839 8:0.86934753 9:0.12308003 10:2.695411 
10 0:0.052893547 1:0.054452962 2:0.63530582 3:0.38583935 4:0.058722049 5:0.15104374 6:-0.17813556 7:0.9592734 8:0.9462938 9:0.29306697 10:2.695411 
10 0:0.11450952 1:0.079079136 2:0.698029 3:0.4154098 4:0.16841646 5:0.10299185 6:-0.044967685 7:0.9516768 8:0.9452421 9:0.051262427 10:2.695411 
10 0:-0.16734027 1:-0.14339023 2:0.404708 3:-0.67167584 4:-0.22293374 5:-0.31377563 6:-0.99089636 7:0.93999493 8:0.92126957 9:0.10526385 10:2.695411 
10 0:0.10613062 1:0.003029569 2:0.64342411 3:0.11080641 4:0.094976546 5:0.18277579 6:-0.18820327 7:0.87175089 8:0.85040025 9:0.12405886 10:2.695411 
10 0:0.31992338 1:0.092140327 2:0.79241801 3:0.27893311 4:0.1914948 5:0.08242478 6:-0.090969136 7:0.954511 8:0.94442052 9:0.12959527 10:2.695411 
10 0:0.20204134 1:0.079380728 2:0.76024277 3:0.46010529 4:0.096496311 5:0.045929185 6:-0.13185197 7:0.93581659 8:0.9400784 9:0.067204834 10:2.695411 
10 0:-0.011865354 1:-0.019273374 2:0.6213268 3:-0.051368371 4:-0.020420101 5:-0.010228974 6:-0.37112162 7:0.92419711 8:0.89249388 9:0.025827188 10:2.4727753 
10 0:0.11152585 1:0.033742509 2:0.71139709 3:0.33025458 4:0.12281255 5:0.049867103 6:-0.23452149 7:0.94169226 8:0.91789162 9:0.014316891 10:2.4727753 
10 0:0.11439903 1:0.034438558 2:0.85053837 3:0.26065852 4:0.03687083 5:0.16400388 6:-0.019938127 7:0.90072313 8:0.87318427 9:0.18979986 10:2.4727753 
10 0:0.28626454 1:0.16509549 2:0.82803002 3:0.42504473 4:0.10940114 5:0.46167816 6:-0.014851636 7:0.97342977 8:0.9606175 9:0.14198546 10:2.4727753 
10 0:0.0075518426 1:-0.048591817 2:0.58382945 3:-0.030003273 4:-0.16726807 5:-0.089218287 6:-0.50381684 7:0.92016634 8:0.89302737 9:0.14095519 10:2.4727753 
10 0:0.0073101123 1:-0.0038656541 2:0.55315945 3:0.054505135 4:-0.02092682 5:0.018497577 6:-0.42292495 7:0.96073939 8:0.95350451 9:0.084357286 10:2.4727753 
10 0:-0.0091584915 1:0.022028753 2:0.45913989 3:0.030674902 4:-0.02635135 5:0.15812281 6:-0.65182925 7:0.8728774 8:0.85830163 9:-0.0066969147 10:2.4727753 
10 0:0.054701595 1:0.069200264 2:0.71283477 3:0.56651298 4:0.089462683 5:0.28181986 6:-0.074533517 7:0.96650231 8:0.95809743 9:-0.0066583236 10:2.4727753 
10 0:0.14807913 1:0.1156158 2:0.79323872 3:0.50336441 4:0.20969556 5:0.17916025 6:-0.028874646 7:0.96352847 8:0.96112974 9:-0.0017342806 10:2.4727753 
10 0:-0.2085692 1:-0.15706619 2:0.39587276 3:-0.62367982 4:-0.25282072 5:-0.34079899 6:-0.93411788 7:0.94540409 8:0.92241371 9:0.0094774297 10:2.4727753 
10 0:0.21538063 1:0.10634086 2:0.82604615 3:0.28286789 4:0.21350467 5:0.10014569 6:-0.065351287 7:0.95673643 8:0.9481673 9:0.0229305 10:2.4727753 
10 0:0.20910726 1:0.16824732 2:0.83781755 3:0.53066908 4:0.16884006 5:0.1121971 6:-0.0074227662 7:0.95005265 8:0.95836645 9:0.050254278 10:2.4727753 
10 0:0.10797904 1:0.020264149 2:0.78724611 3:0.40921562 4:0.083833148 5:0.72500871 6:-0.12982501 7:0.94065575 8:0.94851181 9:0.16554542 10:2.644726 
10 0:0.064879375 1:0.067918053 2:0.62555742 3:0.52563583 4:0.013578896 5:0.019660471 6:-0.16115695 7:0.96610764 8:0.95938752 9:0.12507149 10:2.644726 
10 0:0.024009929 1:0.02447651 2:0.4870918 3:0.17993765 4:0.0034779288 5:0.29838965 6:-0.43420993 7:0.87311316 8:0.86193213 9:-0.001612025 10:2.644726 
10 0:0.084086863 1:0.08054439 2:0.73850267 3:0.60570481 4:0.1139364 5:0.37097016 6:-0.056496312 7:0.96505837 8:0.96050911 9:-0.032730441 10:2.644726 
10 0:0.16933985 1:0.10010004 2:0.80318825 3:0.44322503 4:0.2308817 5:0.25088591 6:-0 7:0.95808495 8:0.95874603 9:-0.048494613 10:2.644726 
10 0:-0.16006492 1:-0.068794184 2:0.4274458 3:-0.42440656 4:-0.24544006 5:-0.30185739 6:-0.86705824 7:0.95319322 8:0.92843959 9:0.1475066 10:2.644726 
10 0:0.049547668 1:0.0021812048 2:0.63274543 3:0.12807534 4:0.068493833 5:0.12607077 6:-0.24846129 7:0.87217203 8:0.84273987 9:0.091945306 10:2.644726 
10 0:0.05167722 1:-0.030429925 2:0.73799518 3:0.074462831 4:-0.084548974 5:-0.031167626 6:-0.33661952 7:0.91824378 8:0.90420122 9:0.25908958 10:2.644726 
10 0:0.20470743 1:0.044253997 2:0.82479968 3:0.30017101 4:0.21339599 5:0.033498568 6:-0.12593837 7:0.95174631 8:0.94372928 9:0.51491264 10:2.644726 
10 0:0.082504991 1:-0.0079339867 2:0.61224818 3:0.092102361 4:0.014437256 5:-0.0074199582 6:-0.23086272 7:0.87005808 8:0.85077843 9:0.0040725353 10:2.3316441 
10 0:0.15628545 1:0.046361979 2:0.8114567 3:0.32537447 4:0.090145386 5:0.74572671 6:-0.037599233 7:0.94284321 8:0.95056385 9:0.34037247 10:2.3316441 
10 0:0.047277334 1:0.033995115 2:0.52611302 3:0.35658892 4:0.032542304 5:0.42762373 6:-0.0063281726 7:0.87568204 8:0.86646881 9:0.042282551 10:2.3316441 
10 0:-0.73041053 1:-0.52104417 2:0.32093975 3:-0.40597666 4:-0.72580016 5:-0.54758566 6:-0.97056533 7:0.80462728 8:0.75820909 9:0.18005853 10:2.3316441 
10 0:-0.14955522 1:0.051802724 2:0.4806586 3:-0.29971976 4:-0.20536173 5:7.2751579e-05 6:-0.74941118 7:0.96255297 8:0.93705303 9:0.08314221 10:2.3316441 
