svm_type c_svc
kernel_type linear
nr_class 2
total_sv 23889
rho -0.999623
label 1 0
nr_sv 12077 11812
SV
10 0:0.061878693 1:-0.025071398 2:0.65190694 3:0.12336341 4:0.016072329 5:0.028276733 6:-0.29047515 7:0.87340218 8:0.85070341 9:0.29165638 10:6.0250141 
10 0:0.018349914 1:0.0014051793 2:0.61809347 3:0.24237172 4:0.02720337 5:0.070134398 6:-0.19565225 7:0.93020451 8:0.90738809 9:0.18492754 10:6.0250141 
10 0:0.17319245 1:0.014654667 2:0.76992273 3:0.21649425 4:0.32557924 5:0.40079178 6:-0.046414633 7:0.90163165 8:0.89294523 9:0.18661794 10:6.0250141 
10 0:0.0022663421 1:-0.13256303 2:0.59977342 3:-0.011853608 4:0.026327525 5:0.062718942 6:-0.57173186 7:0.93752659 8:0.91405236 9:0.16652355 10:6.0250141 
10 0:-0.049956451 1:-0.097638538 2:0.49302433 3:-0.14050148 4:0.017089756 5:-0.30592204 6:-0.63806899 7:0.91631393 8:0.88172343 9:0.31871494 10:6.0250141 
10 0:0.087251421 1:0 2:0.61545653 3:0.27803725 4:0.1423569 5:0.20631864 6:-0.14253869 7:0.95572782 8:0.94861613 9:0.36842886 10:6.0250141 
10 0:-0.044801937 1:-0.016045803 2:0.3801578 3:-0.14009539 4:0.0033664661 5:-0.20579369 6:-0.75848333 7:0.86302521 8:0.83894953 9:0.051550378 10:6.0250141 
10 0:0.037299519 1:-0.078077935 2:0.55311627 3:0.056646303 4:0.077657402 5:-0.00036194397 6:-0.37321887 7:0.93211863 8:0.92102668 9:0.18121507 10:6.0250141 
10 0:0.20361804 1:-0.08531276 2:0.73650362 3:0.18758155 4:0.24038228 5:0.31857083 6:-0.17209011 7:0.8770467 8:0.86274982 9:0.027092138 10:6.0250141 
10 0:0.30060862 1:0.21731272 2:0.79171197 3:0.32831985 4:0.36285846 5:0.48034791 6:-0.045550255 7:0.901137 8:0.91634526 9:0.077549007 10:6.0250141 
10 0:0.032803264 1:-0.038400496 2:0.64463038 3:0.055116503 4:0.0055271346 5:0.033811146 6:-0.31062301 7:0.8690518 8:0.8474126 9:0.29329232 10:5.4074477 
10 0:0.030077355 1:0.0050190712 2:0.64786991 3:0.29225924 4:0.036004587 5:0.055217178 6:-0.12659744 7:0.93044519 8:0.90942873 9:0.16289528 10:5.4074477 
10 0:0.0097993 1:-0.095705811 2:0.53179044 3:0.023698326 4:0.19785926 5:0.088665073 6:-0.46654003 7:0.92873187 8:0.89985124 9:0.061655688 10:5.4074477 
10 0:0.027210983 1:0.013337051 2:0.66759295 3:0.18571402 4:0.11803787 5:0.0043199295 6:-0.12353634 7:0.89039684 8:0.85748587 9:0.49726235 10:5.4074477 
10 0:0.021321869 1:0.012699944 2:0.52349387 3:0.26117792 4:0.11795937 5:0.014722045 6:-0.32187499 7:0.95706927 8:0.95386486 9:0.23525535 10:5.4074477 
10 0:-0.15321795 1:-0.11915411 2:0.47814246 3:-0.31425618 4:-0.2455348 5:-0.063149353 6:-0.97072008 7:0.85520974 8:0.8218916 9:0.27942516 10:5.4074477 
10 0:0.08546713 1:0.0085107234 2:0.74850906 3:0.30088731 4:0.10024641 5:0.045195305 6:-0.17779737 7:0.88259319 8:0.86464242 9:0.089957297 10:5.4074477 
10 0:-0.03089306 1:0.014704091 2:0.539104 3:-0.0047065077 4:0.10948666 5:0.033672706 6:-0.53136387 7:0.8837358 8:0.85978899 9:-0.083658427 10:5.4074477 
10 0:0.075949384 1:0.0034035725 2:0.6235295 3:0.29391798 4:0.14854816 5:0.28598535 6:-0.11803981 7:0.95529008 8:0.94776024 9:0.36238347 10:5.4074477 
10 0:-0.039604115 1:-0.0095187953 2:0.37691943 3:-0.20730041 4:0.014894371 5:-0.23072163 6:-0.66268706 7:0.86217656 8:0.83996508 9:0.07467759 10:5.4074477 
10 0:0.050354314 1:-0.08858874 2:0.55614157 3:0.013320593 4:0.05243096 5:-0.019795741 6:-0.36609693 7:0.93701903 8:0.92018268 9:0.17885456 10:5.4074477 
10 0:-0.12045252 1:0.037712549 2:0.55375606 3:-0.28121887 4:-0.17798506 5:-0.55576721 6:-0.8119124 7:0.95744847 8:0.93851211 9:0.12164918 10:5.4074477 
10 0:0.2976978 1:-0.0027050493 2:0.78346426 3:0.26361326 4:0.34715515 5:0.44195069 6:-0.058864553 7:0.88852696 8:0.90387015 9:0.074448762 10:5.4074477 
10 0:-0.22058006 1:-0.086195511 2:0.576813 3:-0.28461904 4:-0.041596346 5:-0.61734902 6:-0.78554425 7:0.93271459 8:0.89819261 9:0.22994202 10:5.4074477 
10 0:0.030069565 1:-0.013011611 2:0.66629076 3:0.067918145 4:0.0030089651 5:0.051025882 6:-0.23842394 7:0.87608917 8:0.85144117 9:0.43256954 10:5.1082148 
10 0:0.035320055 1:0.0098374999 2:0.65725098 3:0.20467576 4:0.041696551 5:0.067453803 6:-0.10485842 7:0.93053389 8:0.90886528 9:0.21349667 10:5.1082148 
10 0:-0.0069996267 1:-0.047239562 2:0.52791571 3:-0.12121496 4:0.15792241 5:0.11789387 6:-0.50607267 7:0.93071609 8:0.89943471 9:0.013795322 10:5.1082148 
10 0:0.049546422 1:0.010779145 2:0.69189406 3:0.21121766 4:0.1062763 5:0.011084356 6:-0.061753527 7:0.89567326 8:0.8616897 9:0.12771183 10:5.1082148 
10 0:0.10295476 1:0.055770013 2:0.61152984 3:0.36567633 4:0.14950687 5:0.033389383 6:-0.039062537 7:0.966626 8:0.96381444 9:0.35900098 10:5.1082148 
10 0:0 1:-0.048038957 2:0.66407044 3:-0.071437628 4:-0.025305934 5:0.066810265 6:-0.40172204 7:0.9564501 8:0.92659904 9:0.19364551 10:5.1082148 
10 0:-0.014522216 1:-0.05449613 2:0.51327646 3:-0.26268042 4:-0.0013799612 5:-0.23240315 6:-0.58227891 7:0.92703962 8:0.88750489 9:0.37056562 10:5.1082148 
10 0:-0.11411685 1:-0.054851356 2:0.50725116 3:-0.34997518 4:-0.24691828 5:-0.037794825 6:-0.75931312 7:0.86517517 8:0.82897712 9:0.054764493 10:5.1082148 
10 0:0.0020731263 1:-0.064285863 2:0.5947341 3:0.03562847 4:0.2646193 5:0.023778368 6:-0.29034159 7:0.93732384 8:0.9242495 9:0.11555862 10:5.7350822 
10 0:0.0066071794 1:-0.077489547 2:0.47765143 3:-0.28117352 4:0.33045792 5:-0.038052757 6:-0.52063627 7:0.93729593 8:0.91902665 9:0.18314671 10:5.1082148 
10 0:0.088822154 1:0.0011347801 2:0.75491504 3:0.25753336 4:0.087351152 5:0.042685822 6:-0.1606498 7:0.885037 8:0.86155572 9:-0.60827685 10:5.1082148 
10 0:-0.079224383 1:0.034103673 2:0.55385102 3:-0.053661971 4:0.096487455 5:0.026319425 6:-0.5556082 7:0.88906581 8:0.86768444 9:-0.024928264 10:5.1082148 
10 0:-0.026292025 1:-0.10041838 2:0.61221776 3:-0.22619899 4:-0.10703677 5:0.081866431 6:-0.68391896 7:0.90596508 8:0.88978637 9:0.1862335 10:5.1082148 
10 0:0.10578651 1:0.083947566 2:0.66062435 3:0.33042333 4:0.16099376 5:0.49466291 6:-0.0044552319 7:0.96079648 8:0.95162247 9:0.29549042 10:5.1082148 
10 0:-0.033910797 1:0.0035356007 2:0.3884877 3:-0.21423022 4:0.027408773 5:-0.16736962 6:-0.61230708 7:0.865331 8:0.84340677 9:-0.020169973 10:5.1082148 
10 0:0.036180571 1:-0.0035035016 2:0.55325137 3:-0.027219674 4:0.033426958 5:-0.016150346 6:-0.38026058 7:0.93968775 8:0.9187149 9:0.18075108 10:5.1082148 
10 0:0.072864322 1:0.013330176 2:0.72490345 3:0.2665803 4:0.17614449 5:0.30928083 6:-0.14914463 7:0.87814417 8:0.85852177 9:0.011606036 10:5.1082148 
10 0:0.0084492069 1:0.024753975 2:0.68960081 3:0.16636064 4:0.0061717259 5:0.064665878 6:-0.19237877 7:0.88322458 8:0.85711599 9:0.37005229 10:4.9787333 
10 0:0.025462972 1:-0.011472433 2:0.53956438 3:0.10039345 4:0.075762565 5:0.20886387 6:-0.43099108 7:0.86225077 8:0.82449196 9:0.085087611 10:4.9787333 
10 0:0.029387482 1:0.015258177 2:0.6601529 3:0.22184302 4:0.043651639 5:0.072591228 6:-0.098464167 7:0.93024606 8:0.90781735 9:0.16728748 10:4.9787333 
10 0:-0.050396734 1:-0.046012261 2:0.53400578 3:-0.17205462 4:0.12921909 5:0.14640546 6:-0.61989828 7:0.9343393 8:0.90107307 9:0.0084867033 10:4.9787333 
10 0:0.016099748 1:-0.005206979 2:0.67787488 3:0.19155589 4:0.090280671 5:0.014835281 6:-0.10686507 7:0.89047692 8:0.8583785 9:0.076552718 10:4.9787333 
10 0:0.07249436 1:0.013804527 2:0.6155903 3:0.45868081 4:0.16739511 5:0.038141626 6:-0.075045079 7:0.96433367 8:0.96279546 9:0.44585403 10:4.9787333 
10 0:-0.017679014 1:0.10641528 2:0.6888002 3:0.022987718 4:-0.021595139 5:0.13598367 6:-0.45000055 7:0.96370158 8:0.93180252 9:0.20477778 10:4.9787333 
10 0:-0.10862611 1:-0.00045422335 2:0.49436745 3:-0.33312055 4:-0.014422214 5:-0.25529677 6:-0.89325835 7:0.92397645 8:0.88552946 9:0.25684791 10:4.9787333 
10 0:-0.14933162 1:-0.086516014 2:0.4961929 3:-0.26896594 4:-0.24477811 5:-0.016950909 6:-0.79677727 7:0.86623851 8:0.82961888 9:0.20864692 10:4.9787333 
10 0:-0.093029139 1:-0.11036846 2:0.55108125 3:-0.11837671 4:0.1859648 5:-0.0025264907 6:-0.40659351 7:0.92906253 8:0.91587725 9:0.11420506 10:5.1579792 
10 0:-0.012065465 1:-0.042857391 2:0.49756813 3:-0.081368295 4:0.30254333 5:0.013366116 6:-0.46464107 7:0.94247949 8:0.92149427 9:0.21939862 10:4.9787333 
10 0:0.086526604 1:-0.0011347518 2:0.76906023 3:0.25069969 4:0.07735422 5:0.042396691 6:-0.13838342 7:0.88728103 8:0.86071192 9:-0.012291243 10:4.9787333 
10 0:-0.050721514 1:-0.035833748 2:0.57427181 3:0.075761209 4:0.098315811 5:0.0072860356 6:-0.45493834 7:0.89283013 8:0.8764019 9:-0.018062683 10:4.9787333 
10 0:-0.057418985 1:-0.082540824 2:0.61500687 3:-0.27280678 4:-0.13321258 5:-0.084056592 6:-0.84781759 7:0.91308032 8:0.89210883 9:0.041432063 10:4.9787333 
10 0:0.098101198 1:0.049914733 2:0.67896902 3:0.3837183 4:0.1698361 5:0.59927148 6:-0.046195109 7:0.96211316 8:0.95217728 9:0.33972586 10:4.9787333 
10 0:-0.00099009916 1:0.04106618 2:0.50554725 3:0.1522833 4:0.057881569 5:-0.03245905 6:-0.16307631 7:0.88135718 8:0.86234852 9:0.036853171 10:4.9787333 
10 0:0.0026109663 1:0.021020959 2:0.58125024 3:-0.029430242 4:0.029926613 5:0.011427318 6:-0.40366929 7:0.94688798 8:0.92286297 9:0.14032659 10:4.9787333 
10 0:0.048140633 1:0.0020600827 2:0.71328968 3:0.13872059 4:0.12812194 5:0.28305064 6:-0.25038739 7:0.8695012 8:0.85185394 9:0.03268452 10:4.9787333 
10 0:-0.26409392 1:-0.072985207 2:0.55755372 3:-0.31772856 4:-0.12432928 5:-0.39601001 6:-0.87158868 7:0.93410828 8:0.90162908 9:0.17716943 10:4.9787333 
10 0:0.051938283 1:0.069818988 2:0.74778339 3:0.32482034 4:0.023603041 5:0.083024134 6:-0 7:0.89693326 8:0.87124915 9:0.22143454 10:4.7181606 
10 0:0.038053208 1:-0.0040372131 2:0.54783969 3:0.074770416 4:0.064340865 5:0.062171385 6:-0.42792568 7:0.86624416 8:0.82303617 9:0.049141049 10:4.7181606 
10 0:0.034078375 1:-0.0024093549 2:0.6339721 3:0.17434575 4:0.038529639 5:0.064493338 6:-0.19105015 7:0.92777344 8:0.90408314 9:0.15812176 10:4.7181606 
10 0:0.025213487 1:-0.011376786 2:0.54660667 3:0.099995346 4:0.072135918 5:0.20978506 6:-0.43050081 7:0.86089548 8:0.82112052 9:0.085084309 10:4.9332774 
10 0:0.031551813 1:-0.07435439 2:0.65865325 3:0.088169297 4:0.16370054 5:0.15607105 6:-0.29865636 7:0.87943659 8:0.85769235 9:0.16309657 10:4.7181606 
10 0:-0.31575342 1:-0.078599844 2:0.38765692 3:-0.43497685 4:-0.4250509 5:-0.61596943 6:-0.98412468 7:0.92323004 8:0.89481523 9:0.0018812976 10:4.7181606 
10 0:0.069753544 1:0.091662281 2:0.6033804 3:0.3809911 4:0.16844063 5:0.031791239 6:-0.16363504 7:0.96154588 8:0.95961713 9:0.42428528 10:4.7181606 
10 0:0.036944814 1:0.099726285 2:0.71184085 3:0.12851242 4:-0.0091937312 5:0.22309475 6:-0.39846373 7:0.96806162 8:0.93561207 9:0.25245721 10:4.7181606 
10 0:-0.11414461 1:-0.0054493632 2:0.51101001 3:-0.33382124 4:-0.011475086 5:-0.14948339 6:-0.75699288 7:0.92966971 8:0.89183952 9:0.22075804 10:4.7181606 
10 0:-0.057525055 1:0.098206884 2:0.57679977 3:-0.11885608 4:-0.18217482 5:0.030347474 6:-0.50689426 7:0.88005914 8:0.84450858 9:0.20958527 10:4.7181606 
10 0:0.047162652 1:0.049308728 2:0.68657775 3:0.18261259 4:0.21733417 5:0.046882794 6:-0.14110377 7:0.95816561 8:0.94475327 9:0.062584237 10:4.890777 
10 0:0.083877796 1:0.034893504 2:0.79041953 3:0.26985494 4:0.072088259 5:0.043741834 6:-0.083052563 7:0.89130588 8:0.862093 9:-0.0025637163 10:4.7181606 
10 0:0.019916787 1:0.098233198 2:0.61483387 3:0.15450802 4:0.12292507 5:0.023108879 6:-0.24832162 7:0.90096912 8:0.88971311 9:-0.014979462 10:4.7181606 
10 0:-0.067089794 1:-0.043362442 2:0.58587872 3:-0.27092257 4:-0.15640391 5:-0.32976963 6:-0.96964596 7:0.91428398 8:0.88942913 9:0.017492725 10:4.7181606 
10 0:0.021782107 1:0.052760473 2:0.5302472 3:0.29034057 4:0.082809467 5:0.068282583 6:-0.10495653 7:0.88076171 8:0.86571189 9:0.046823096 10:4.7181606 
10 0:0.041032267 1:0.0096724514 2:0.62062276 3:0.16836687 4:0.064699218 5:0.055014935 6:-0.18835425 7:0.87923215 8:0.83362594 9:0.023787006 10:4.9405503 
10 0:0.0376806 1:-0.0040035706 2:0.55479818 3:0.074474023 4:0.061338899 5:0.062474623 6:-0.42743762 7:0.86488266 8:0.81967073 9:0.049139484 10:4.6785172 
10 0:0.055424692 1:-0.032192108 2:0.70115483 3:0.077549349 4:0.12699693 5:0.1066229 6:-0.21315791 7:0.89107294 8:0.86528225 9:0.13944792 10:4.9405503 
10 0:-0.3055239 1:-0.13156287 2:0.39418753 3:-0.32793284 4:-0.42913878 5:-0.9725723 6:-0.974272 7:0.92996035 8:0.90222826 9:0.13086778 10:4.9405503 
10 0:0.090770509 1:0.027609054 2:0.63534014 3:0.36028436 4:0.17726778 5:0.029818121 6:-0.057756785 7:0.96503923 8:0.96196859 9:0.56493237 10:4.9405503 
10 0:0.10494086 1:0.17330479 2:0.78917121 3:0.58523614 4:0.042086273 5:0.36838886 6:-0.021253691 7:0.97823358 8:0.95118223 9:0.10464731 10:4.9405503 
10 0:0.087841936 1:0.16095047 2:0.65078958 3:0.16740889 4:-0.079421537 5:0.070708317 6:-0.14630872 7:0.89272042 8:0.85781135 9:0.19390596 10:4.9405503 
10 0:0.075926534 1:0.15460835 2:0.73845457 3:0.44031329 4:0.27046536 5:0.14516222 6:-0.053982375 7:0.96854547 8:0.95754092 9:0.076318798 10:4.7868574 
10 0:0.11601622 1:0.053900738 2:0.81790439 3:0.37052346 4:0.072582721 5:0.031188995 6:-0.15528566 7:0.89681717 8:0.86387291 9:0.081106774 10:4.9405503 
10 0:0.11029467 1:0.093166671 2:0.62528134 3:0.28565535 4:0.1403755 5:0.0031224116 6:-0.1941522 7:0.90299354 8:0.88924227 9:0.19111192 10:4.9405503 
10 0:0.021778272 1:0.022456944 2:0.62465792 3:0.19473356 4:0.062839758 5:0.01314899 6:-0.17413922 7:0.87760914 8:0.83276435 9:0.016276048 10:4.8907162 
10 0:0.040630426 1:0.0095918109 2:0.62678366 3:0.16769897 4:0.061624808 5:0.055278863 6:-0.18813994 7:0.87785016 8:0.83021713 9:0.023785992 10:4.905035 
10 0:-0.29893129 1:-0.024562567 2:0.43344049 3:-0.28215113 4:-0.38877755 5:-0.9041478 6:-0.91628301 7:0.93676409 8:0.91397702 9:0.12033934 10:4.8907162 
10 0:0.073436205 1:0.17968988 2:0.81084042 3:0.71657868 4:0.084086863 5:0.43880823 6:-0.092254032 7:0.97598838 8:0.95541526 9:0.056276143 10:4.8907162 
10 0:-0.036015269 1:0.069027962 2:0.54955664 3:0.10014027 4:0.038733654 5:-0.16254877 6:-0.56818251 7:0.93307817 8:0.90067559 9:0.11668721 10:4.8907162 
10 0:0.070584701 1:0.20732683 2:0.67388312 3:0.29053558 4:0.0077435989 5:0.068806298 6:-0.15909395 7:0.89040913 8:0.86155591 9:0.18226129 10:4.8907162 
10 0:0.22285566 1:0.30207359 2:0.80724162 3:0.73268362 4:0.35680613 5:0.30115334 6:-0.025084407 7:0.98103588 8:0.97516299 9:0.089145297 10:4.5468892 
10 0:0.1006533 1:0.045390014 2:0.82137393 3:0.34959399 4:0.06774628 5:0.017411723 6:-0.14499558 7:0.89357016 8:0.85948566 9:0.04686667 10:4.8907162 
10 0:0.079667146 1:0.085259182 2:0.63916469 3:0.32642427 4:0.15416613 5:-0.029301464 6:-0.13288975 7:0.90075638 8:0.89098699 9:0.22080158 10:4.8907162 
10 0:0.032019052 1:-0.15148781 2:0.57482204 3:-0.046830617 4:0.070594218 5:0.053611747 6:-0.56816088 7:0.84770874 8:0.83380568 9:0.054925794 10:4.8907162 
10 0:-0.23754806 1:-0.035337088 2:0.53335472 3:-0.24950218 4:-0.16990774 5:-0.30875371 6:-0.95454556 7:0.93451713 8:0.90950106 9:0.027181413 10:4.8907162 
10 0:0.024353982 1:-0.0098380483 2:0.70825922 3:0.24845695 4:0.030772015 5:0.024088684 6:-0.25734811 7:0.87593224 8:0.85761053 9:0.23035266 10:4.0446035 
10 0:0.01694912 1:0.029067919 2:0.65526399 3:0.31253416 4:0.063448029 5:-0.16740268 6:-0.2357742 7:0.88112533 8:0.83759208 9:0.0228729 10:4.0446035 
10 0:0.025800148 1:0.027705373 2:0.68607682 3:0.23195366 4:0.059999723 5:0.23056894 6:-0.32743408 7:0.92922238 8:0.9053473 9:0.081233418 10:4.0446035 
10 0:0.021565035 1:0.022269771 2:0.63077191 3:0.19396136 4:0.059824225 5:0.013233457 6:-0.17394012 7:0.87622977 8:0.82935911 9:0.016275451 10:4.8581379 
10 0:-0.00015208701 1:0.041801754 2:0.7054649 3:0.11361373 4:0.075038182 5:0.0042303911 6:-0.24501437 7:0.89613822 8:0.86561987 9:0.37084728 10:4.0446035 
10 0:-0.23255265 1:0.06401615 2:0.46658211 3:-0.19524995 4:-0.32446615 5:-0.90368125 6:-0.8667387 7:0.94387779 8:0.92363907 9:0.12691371 10:4.0446035 
10 0:-0.104993 1:-0.08098158 2:0.47516646 3:-0.42684257 4:0.038859062 5:-0.057771351 6:-0.96591047 7:0.92845995 8:0.89480741 9:0.045067159 10:4.0446035 
10 0:0.014285656 1:-0.014433187 2:0.64946094 3:0.12742138 4:0.046239506 5:-0.016513486 6:-0.38477414 7:0.88436866 8:0.8516762 9:0.31604919 10:4.0446035 
10 0:0.087115468 1:0.055218108 2:0.64622047 3:0.36171568 4:0.1861185 5:0.031681528 6:-0.11403499 7:0.96204463 8:0.9593684 9:0.16340498 10:4.0446035 
10 0:0.11559398 1:0.15202182 2:0.81174381 3:0.57297799 4:0.10349125 5:0.42489545 6:-0.087902158 7:0.96936766 8:0.95316813 9:0.067109494 10:4.0446035 
10 0:-0.0066803063 1:0.067665655 2:0.56415483 3:0.057300917 4:0.053114974 5:-0.18379015 6:-0.4965034 7:0.9342513 8:0.90397945 9:0.13247178 10:4.0446035 
10 0:0.023320893 1:0.10814531 2:0.65839249 3:0.20542733 4:0.052423565 5:0.075069448 6:-0.20544854 7:0.88166944 8:0.85848087 9:0.16860404 10:4.0446035 
10 0:-0.10083291 1:-0.1108224 2:0.50468299 3:-0.14557445 4:0.25383121 5:-0.20476901 6:-0.53612307 7:0.93744664 8:0.91726738 9:0.15467771 10:4.0446035 
10 0:-0.18278999 1:-0.066412338 2:0.45745217 3:-0.3249505 4:-0.16867453 5:-0.66399148 6:-0.92285115 7:0.86623008 8:0.81234822 9:0.22344996 10:4.0446035 
10 0:-0.22899742 1:-0.097353987 2:0.39721234 3:-0.45432955 4:-0.03019829 5:-0.28476567 6:-0.98879699 7:0.90415091 8:0.88171059 9:0.026371323 10:4.0446035 
10 0:0.034257493 1:0.034042667 2:0.82893515 3:0.36348241 4:0.061067695 5:0.0081167837 6:-0.12347986 7:0.89143039 8:0.85979041 9:0.054126088 10:4.0446035 
10 0:0.096043224 1:0.058445341 2:0.65965862 3:0.36853771 4:0.1688366 5:-0.03745315 6:-0.14099346 7:0.9003648 8:0.89429835 9:0.2533984 10:4.0446035 
10 0:0.032549781 1:-0.038003279 2:0.63816825 3:0.22635009 4:0.14461407 5:0.053912215 6:-0.37411671 7:0.94556526 8:0.93793797 9:0.24265239 10:4.0446035 
10 0:0.028217826 1:-0.0035354104 2:0.52502534 3:0.24677006 4:0.11493704 5:0.013447683 6:-0.37974594 7:0.86102324 8:0.85486689 9:0.070471112 10:4.0446035 
10 0:-0.11376365 1:-0.12112135 2:0.46564831 3:-0.47021939 4:-0.024493624 5:-0.11032024 6:-0.95804196 7:0.92686427 8:0.9104988 9:0.25979393 10:4.0446035 
10 0:-0.087437307 1:-0.068468368 2:0.66381016 3:-0.025870616 4:-0.0010142278 5:0.098266964 6:-0.54390798 7:0.85790157 8:0.83412612 9:0.073746884 10:4.0446035 
10 0:-0.070735636 1:-0.06133426 2:0.46874301 3:-0.61474848 4:-0.16831678 5:-0.28814283 6:-0.87994478 7:0.94832266 8:0.93456009 9:0.34232545 10:4.0446035 
10 0:0.029108176 1:-0.15870148 2:0.53998368 3:-0.12331962 4:-0.0073349353 5:-0.055586398 6:-0.68913861 7:0.85001837 8:0.8228392 9:0.029436179 10:4.0446035 
10 0:-0.17542385 1:-0.082892836 2:0.51804689 3:-0.26984072 4:-0.19040094 5:-0.3487269 6:-0.93764994 7:0.93566834 8:0.90967959 9:0.043430698 10:4.0446035 
10 0:0.0032305426 1:-0.040939403 2:0.66737842 3:0.10685003 4:0.015015908 5:-0.010672154 6:-0.34472013 7:0.86758278 8:0.85038549 9:0.18685775 10:2.9362009 
10 0:0.0056287694 1:0.008545424 2:0.64914619 3:0.23820697 4:0.060280164 5:-0.26570302 6:-0.24844438 7:0.87571377 8:0.83627686 9:0.024329868 10:2.9362009 
10 0:0.022213035 1:-0.014655607 2:0.6914671 3:0.24291007 4:0.052551965 5:0.16959495 6:-0.31637148 7:0.92839614 8:0.90495858 9:0.081434884 10:2.9362009 
10 0:0.016783088 1:0.02882551 2:0.66100972 3:0.31129458 4:0.060346815 5:-0.16806848 6:-0.23550521 7:0.8797404 8:0.8341671 9:0.02287198 10:4.0141359 
10 0:-0.021744102 1:-0.018018018 2:0.66237977 3:-0.069219699 4:0.039231163 5:-0.042541951 6:-0.45266901 7:0.89169027 8:0.8594993 9:0.20391924 10:2.9362009 
10 0:-0.29654449 1:0.033466265 2:0.44880563 3:-0.20562375 4:-0.27814929 5:-0.86859853 6:-0.91290514 7:0.94034867 8:0.92606171 9:0.12698776 10:2.9362009 
10 0:-0.13019137 1:-0.11717765 2:0.45819649 3:-0.47542582 4:0.008231343 5:-0.13524618 6:-0.92676741 7:0.92822603 8:0.89485877 9:0.049564906 10:2.9362009 
10 0:0.024489838 1:-0.02713073 2:0.63933754 3:0.025959619 4:0.027889636 5:-0.025302156 6:-0.41666693 7:0.88260607 8:0.84872521 9:0.26412125 10:2.9362009 
10 0:0.084373738 1:0.012699944 2:0.63900206 3:0.31453859 4:0.17136652 5:0.022774057 6:-0.15264019 7:0.96038004 8:0.95670293 9:-0.034158786 10:2.9362009 
10 0:0.10176805 1:0.063241139 2:0.82684848 3:0.47274966 4:0.11682483 5:0.46187902 6:-0.047257167 7:0.96667779 8:0.95482853 9:0.11293775 10:2.9362009 
10 0:0.045599757 1:0.022706626 2:0.59449417 3:0.27860116 4:0.077391903 5:-0.15020406 6:-0.3461534 7:0.93659525 8:0.90932614 9:0.13566736 10:2.9362009 
10 0:0.031949507 1:-0.031079526 2:0.61305063 3:0.14735928 4:0.049491034 5:0.050213307 6:-0.34394121 7:0.86889404 8:0.85009489 9:0.184528 10:2.9362009 
10 0:0.39129257 1:0.19354814 2:0.85710977 3:0.51675206 4:0.4917478 5:0.45586472 6:-0.094088853 7:0.96775548 8:0.97913581 9:-0.031602495 10:4.7501512 
10 0:-0.10801516 1:-0.15367974 2:0.4983223 3:-0.20510282 4:0.20723641 5:-0.34476625 6:-0.56352611 7:0.93712448 8:0.91795573 9:0.10303184 10:2.9362009 
10 0:-0.17234204 1:-0.049912323 2:0.46097614 3:-0.29345015 4:-0.18313958 5:-0.63428705 6:-0.91643428 7:0.87961813 8:0.81924519 9:0.24424484 10:2.9362009 
10 0:-0.27479731 1:-0.13330011 2:0.38564859 3:-0.41311999 4:-0.078422847 5:-0.42880255 6:-0.94411427 7:0.90531643 8:0.88414926 9:0.055862146 10:2.9362009 
10 0:0.055624258 1:0.021560369 2:0.84286305 3:0.35904389 4:0.055662049 5:0.015810637 6:-0.08419091 7:0.8911097 8:0.86071252 9:0.059959813 10:2.9362009 
10 0:0.11923517 1:0.039540495 2:0.65443136 3:0.29417659 4:0.16703629 5:-0.038444102 6:-0.15782822 7:0.89342804 8:0.88857577 9:0.15769915 10:2.9362009 
10 0:-0.13901479 1:-0.091669653 2:0.54290477 3:-0.35495927 4:-0.1530843 5:-1 6:-0.97773132 7:0.90799793 8:0.88865259 9:0.1593753 10:2.9362009 
10 0:0.0045210679 1:-0.065229363 2:0.58635226 3:-0.015575613 4:0.10354834 5:-0.073595117 6:-0.52173829 7:0.93958813 8:0.92986398 9:0.2183578 10:2.9362009 
10 0:0.017326661 1:-0.046233275 2:0.48169732 3:0.043150677 4:0.098215346 5:-0.046297209 6:-0.54008398 7:0.85260794 8:0.84425801 9:0.075560159 10:2.9362009 
10 0:-0.16188006 1:-0.15215212 2:0.41791746 3:-0.57107833 4:-0.076329952 5:-0.17243278 6:-0.97718575 7:0.92217387 8:0.90435556 9:0.16633426 10:2.9362009 
10 0:-0.021826713 1:-0.052216939 2:0.503103 3:-0.48433528 4:-0.16233276 5:-0.22806978 6:-0.73443038 7:0.95520419 8:0.93873646 9:0.64098594 10:2.9362009 
10 0:-0.13971947 1:-0.061015893 2:0.56587639 3:-0.1452338 4:-0.04732157 5:-0.072068939 6:-0.6525175 7:0.86646823 8:0.83383442 9:-0.010042408 10:2.9362009 
10 0:-0.11740578 1:-0.054491712 2:0.55402176 3:-0.23732908 4:-0.17633795 5:-0.28176734 6:-0.85524189 7:0.94266749 8:0.91823426 9:0.091254885 10:2.9362009 
10 0:0.041749513 1:0.0053950475 2:0.72642002 3:0.16309738 4:0.018218033 5:0.010656629 6:-0.15726846 7:0.88218617 8:0.86333452 9:0.25217572 10:3.1602838 
10 0:0.040028923 1:0.039060078 2:0.74669338 3:0.42387161 4:0.071893775 5:-0.083028485 6:-0.019666926 7:0.89015914 8:0.85554798 9:0.02319311 10:3.1602838 
10 0:0.041942723 1:0.013250428 2:0.75861997 3:0.27647209 4:0.060195383 5:0.16704586 6:-0.16592904 7:0.93347796 8:0.91156644 9:0.080646796 10:3.1602838 
10 0:0.0055736903 1:0.0084741841 2:0.65480987 3:0.23726235 4:0.057318235 5:-0.26678007 6:-0.24816139 7:0.87433731 8:0.83285721 9:0.024328885 10:2.9072848 
10 0:0.026837982 1:0.025225297 2:0.73330805 3:0.13180311 4:0.040628876 5:0.0039910873 6:-0.12028481 7:0.90399922 8:0.87437923 9:0.16071575 10:3.1602838 
10 0:-0.063929211 1:-0.011656562 2:0.51384786 3:-0.34775967 4:0.0049784351 5:-0.054379413 6:-0.78282798 7:0.93569005 8:0.90142738 9:0.048653656 10:3.1602838 
10 0:0.064574928 1:-0.010491606 2:0.65913813 3:0.31347143 4:0.16278311 5:0.015421341 6:-0.11236005 7:0.96123566 8:0.95781631 9:-0.002001522 10:3.1602838 
10 0:0.22574778 1:0.14046801 2:0.88747626 3:0.58965521 4:0.16166214 5:0.66042859 6:-0.0039717403 7:0.97536127 8:0.96773939 9:0.11071275 10:3.1602838 
10 0:0.14783604 1:0.24523165 2:0.7096905 3:0.83650403 4:0.16815218 5:0.067691951 6:-0 7:0.9585076 8:0.93674132 9:0.10910039 10:3.1602838 
10 0:0.30422345 1:0.079032053 2:0.84136902 3:0.36064922 4:0.47973066 5:0.39735911 6:-0.12266033 7:0.95441037 8:0.9702332 9:0.1371115 10:3.9157058 
10 0:-0.021545525 1:-0.018614367 2:0.55756964 3:-0.1164963 4:0.20465815 5:-0.3044432 6:-0.39673119 7:0.94538949 8:0.92507213 9:0.094677832 10:3.1602838 
10 0:-0.17678499 1:-0.040527933 2:0.48737197 3:-0.24917132 4:-0.17881657 5:-0.47530968 6:-0.85682897 7:0.88699275 8:0.8302787 9:-0.064236804 10:3.1602838 
10 0:-0.12980872 1:0.00074885148 2:0.47655929 3:-0.23745183 4:-0.051003204 5:-0.33126156 6:-0.71131871 7:0.92748229 8:0.90661041 9:0.094016211 10:3.1602838 
10 0:0.20297412 1:0.13802031 2:0.73837717 3:0.40552549 4:0.21603846 5:0.01364565 6:-0.017684284 7:0.91467824 8:0.91109728 9:0.089522226 10:3.1602838 
10 0:-0.082502397 1:-0.08482325 2:0.59855812 3:-0.2820864 4:-0.14789328 5:-0.70293079 6:-0.77675426 7:0.91855535 8:0.90237085 9:0.16837258 10:3.1602838 
10 0:0.060578495 1:-0.057856195 2:0.61505617 3:0.042025169 4:0.081505471 5:-0.13888356 6:-0.44202958 7:0.94677641 8:0.93259875 9:0.25242375 10:3.1602838 
10 0:0.043069437 1:-0.021756738 2:0.53267655 3:0.12164926 4:0.094867079 5:-0.059850424 6:-0.39451388 7:0.8620208 8:0.850835 9:0.070081171 10:3.1602838 
10 0:-0.042148643 1:-0.069569531 2:0.52059286 3:-0.34981076 4:-0.071068791 5:-0.14991275 6:-0.69303241 7:0.94142437 8:0.92033667 9:0.13888692 10:3.1602838 
10 0:-0.0048508478 1:0.062991657 2:0.62059569 3:0.062532288 4:-0.10183794 5:-0.01596825 6:-0.31318769 7:0.96896934 8:0.95422849 9:0.18484194 10:3.1602838 
10 0:0.050496736 1:0.03734191 2:0.77614058 3:0.35850929 4:0.065602202 5:0.13319853 6:-0.15804668 7:0.93471363 8:0.9117503 9:0.091254452 10:4.1782584 
10 0:0.039636846 1:0.038734338 2:0.751099 3:0.42219037 4:0.068200273 5:-0.083356506 6:-0.019644997 7:0.88876 8:0.85204955 9:0.023192064 10:3.1325534 
10 0:-0.027064956 1:0.069938576 2:0.58683677 3:-0.19206645 4:0.025989021 5:0.052364692 6:-0.5113129 7:0.94478526 8:0.90979282 9:-0.00053136581 10:4.1782584 
10 0:0.065184279 1:0.06239591 2:0.70299527 3:0.39704155 4:0.16848292 5:0.013757428 6:-0.09294461 7:0.965066 8:0.96217544 9:-0.022633508 10:4.1782584 
10 0:0.34927481 1:0.18090588 2:0.90628346 3:0.58645627 4:0.19426141 5:0.72008244 6:-0.10609347 7:0.97493236 8:0.96670426 9:0.16765473 10:4.1782584 
10 0:0.32500704 1:0.42098071 2:0.78971976 3:0.969807 4:0.29827357 5:0.39369808 6:-0.018578599 7:0.97717591 8:0.9601241 9:0.18654847 10:4.1782584 
10 0:0.33169199 1:0.0069125077 2:0.85623886 3:0.29921232 4:0.46101973 5:0.37328378 6:-0.070936049 7:0.95085712 8:0.96886038 9:0.13295808 10:2.8172541 
10 0:0.088480346 1:0.20216441 2:0.67979705 3:0.263469 4:0.27315913 5:-0.107459 6:-0.03710706 7:0.96129951 8:0.94045462 9:0.072003611 10:4.1782584 
10 0:-0.04004184 1:0.14103845 2:0.57626057 3:-0.042415458 4:0.038504008 5:-0.14612139 6:-0.4000628 7:0.95214988 8:0.93323308 9:0.074420377 10:4.1782584 
10 0:0.075048554 1:0.069787206 2:0.89215447 3:0.55290204 4:0.073154507 5:0.036471219 6:-0.057830878 7:0.89782678 8:0.87088556 9:-0.063143214 10:4.1782584 
10 0:0.084086818 1:0.064662432 2:0.71615905 3:0.28854567 4:0.099673397 5:0.0040976968 6:-0.13005697 7:0.96463841 8:0.9491497 9:0.17618366 10:4.1782584 
10 0:0.051738025 1:0.17612926 2:0.67704552 3:0.47926282 4:-0.029728024 5:0.31275862 6:-0.060439849 7:0.97500936 8:0.96260415 9:0.2355005 10:4.1782584 
10 0:0.058498763 1:0.057819499 2:0.82099719 3:0.39322281 4:0.077542343 5:0.11433964 6:-0.19916524 7:0.93906419 8:0.91605449 9:0.06511139 10:3.8816978 
10 0:0.030639276 1:0.10570556 2:0.76169122 3:0.47114141 4:0.077500305 5:0.041123252 6:-0.31105697 7:0.90719971 8:0.88440991 9:0.082634252 10:3.8816978 
10 0:0.096862407 1:0.035339534 2:0.66155292 3:0.34909571 4:0.15122714 5:0.0069513352 6:-0.2480786 7:0.96089871 8:0.95598789 9:0.022684756 10:3.8816978 
10 0:0.30303712 1:0.13013065 2:0.87066582 3:0.48449688 4:0.18949467 5:0.52042639 6:-0.16335346 7:0.96598309 8:0.9562601 9:0.11965805 10:3.8816978 
10 0:0.29392973 1:0.35831052 2:0.769669 3:0.66506445 4:0.35495185 5:0.3670028 6:-0.14985402 7:0.95873609 8:0.94817996 9:0.19289257 10:3.8816978 
10 0:0.43404997 1:0.077880256 2:0.89507845 3:0.29946343 4:0.46543232 5:0.41160649 6:-0.012698366 7:0.95761879 8:0.97452104 9:0.13574782 10:3.0499615 
10 0:0.1648948 1:0.33290043 2:0.75573132 3:0.6035348 4:0.36718152 5:0.094524906 6:-0.083195001 7:0.96912438 8:0.95105668 9:0.096127009 10:3.8816978 
10 0:-0.010468305 1:0.20893658 2:0.62472302 3:0.14194528 4:0.13489988 5:0.029879225 6:-0.22244893 7:0.95849098 8:0.94810771 9:0.091419872 10:3.8816978 
10 0:0.085820247 1:0.057021333 2:0.88948723 3:0.43923735 4:0.066551413 5:0.036141376 6:-0.078716169 7:0.89248082 8:0.86605834 9:-0.069924578 10:3.8816978 
10 0:0.2117377 1:0.1438282 2:0.72579644 3:0.36349144 4:0.27140549 5:0.052217258 6:-0.21649439 7:0.90050409 8:0.90298028 9:0.16133873 10:3.8816978 
10 0:0.08770323 1:0.10777047 2:0.72815922 3:0.39733412 4:0.11090491 5:0.082108874 6:-0.12806574 7:0.96574195 8:0.94905633 9:0.2030181 10:3.8816978 
10 0:0.068069317 1:0.046233275 2:0.59530786 3:0.25970595 4:0.11109334 5:-0.041983753 6:-0.20427558 7:0.87315266 8:0.85604402 9:0.062614677 10:3.8816978 
10 0:0.095392099 1:0.15789462 2:0.68214396 3:0.58992385 4:0.019302335 5:0.39368973 6:-0.13344251 7:0.97172459 8:0.96186982 9:0.22448059 10:3.8816978 
10 0:-0.10187896 1:0.0402764 2:0.60114656 3:-0.11130362 4:-0.03984722 5:-0.0058743989 6:-0.70173141 7:0.87953073 8:0.85424544 9:0.060734631 10:3.8816978 
10 0:0.00054704422 1:0.056142571 2:0.61061274 3:0.04291003 4:-0.021056668 5:-0.13294667 6:-0.61478268 7:0.94324678 8:0.92732752 9:0.06422612 10:3.8816978 
10 0:0.12579972 1:0.16675896 2:0.77897905 3:0.55187466 4:0.19124422 5:0.020890553 6:-0 7:0.97487959 8:0.97152394 9:-0.026804173 10:3.9715031 
10 0:-0.24463641 1:-0.61077546 2:0.38642538 3:-0.43877525 4:-0.26272085 5:-0.49073741 6:-0.99882126 7:0.80777649 8:0.77686974 9:0.1468835 10:3.9715031 
10 0:0.18155716 1:0.22857128 2:0.71990932 3:0.49654673 4:0.39213784 5:0.14260798 6:-0.16477424 7:0.95778134 8:0.94310968 9:0.061615423 10:3.9715031 
10 0:0.19722044 1:0.026072114 2:0.72448313 3:0.24660142 4:0.2511106 5:0.060270664 6:-0.21920752 7:0.89320444 8:0.8954948 9:0.122246 10:3.9715031 
10 0:0.075247561 1:0.038890411 2:0.62015433 3:0.24599384 4:0.11305375 5:-0.047531213 6:-0.1045119 7:0.87501825 8:0.85745667 9:0.056079947 10:3.9715031 
10 0:0.038045398 1:0.10410415 2:0.62716175 3:0.20116457 4:0.050311839 5:0.13256388 6:-0.23975384 7:0.95352814 8:0.93754995 9:0.13355392 10:3.9715031 
10 0:-0.13548544 1:-0.024947217 2:0.60342923 3:-0.1360681 4:-0.048028716 5:-0.0084493256 6:-0.69240944 7:0.87623296 8:0.85938053 9:0.059906488 10:3.9715031 
10 0:0.10996043 1:0.094975202 2:0.75086602 3:0.69197578 4:0.19732162 5:0.014011273 6:-0.38056756 7:0.96803897 8:0.9662484 9:0.078495489 10:2.9227542 
10 0:0.55739777 1:0.090322485 2:0.89315977 3:0.26128808 4:0.42639369 5:0.28626766 6:-0.13548411 7:0.95344039 8:0.95864744 9:0.11728716 10:3.7857497 
10 0:0.072576367 1:-0.005106383 2:0.84716803 3:0.30054139 4:0.042968363 5:0.042992952 6:-0.13589343 7:0.88224315 8:0.8562081 9:-0.042633174 10:2.9227542 
10 0:0.21164909 1:-0.011615002 2:0.75369597 3:0.22465552 4:0.24618759 5:0.11608276 6:-0.11801432 7:0.89521535 8:0.89939119 9:0.11659803 10:2.9227542 
10 0:0.070881128 1:-0.023117471 2:0.65246559 3:0.15638153 4:0.030389336 5:0.039995424 6:-0.34460314 7:0.94270706 8:0.93485967 9:0.06548788 10:2.9227542 
10 0:-0.057862716 1:-0.083435567 2:0.50878093 3:-0.067382609 4:0.040136369 5:-0.0087920028 6:-0.78515624 7:0.92542822 8:0.89887032 9:0.031256512 10:1.8500598 
10 0:-0.0462227 1:-0.065375987 2:0.58010372 3:-0.14369694 4:-0.039607571 5:-0.177678 6:-0.66688777 7:0.86380776 8:0.83416495 9:-0.0041141163 10:0.60121614 
0.008148956710193745 0:-0.063462436 1:-0.10981599 2:0.52563023 3:-0.23289558 4:0.018529547 5:-0.030107067 6:-0.74609428 7:0.92897901 8:0.90199202 9:0.028442733 10:0.60121614 
10 0:0.11513856 1:0.008282385 2:0.75351563 3:0.39344207 4:0.20169645 5:0.0096687025 6:-0.33159576 7:0.96382168 8:0.96419197 9:0.036787131 10:0.60121614 
10 0:-0.4365669 1:-0.07959842 2:0.38259844 3:-0.29066454 4:-0.53793447 5:-0.4689336 6:-0.95489208 7:0.84697924 8:0.78080258 9:0.057378855 10:0.60121614 
10 0:0.33350575 1:-0.015437733 2:0.866514 3:0.16413097 4:0.32819096 5:0.41853102 6:-0.13244798 7:0.94395648 8:0.94464247 9:0.16549215 10:2.8385585 
9.999872086344311 0:0.14564795 1:0.083982792 2:0.75294197 3:0.31147113 4:0.43868938 5:0.45701096 6:-0.099709768 7:0.94653207 8:0.9424657 9:0.025218158 10:0.60121614 
10 0:-0.072373127 1:-0.14674657 2:0.44124582 3:-0.2832571 4:-0.11695793 5:-0.15255808 6:-0.97271251 7:0.86468603 8:0.83314149 9:0.22297276 10:0.60121614 
10 0:0.13260164 1:0.0029654025 2:0.69395555 3:0.17642003 4:0.18388684 5:0.11894012 6:-0.23208988 7:0.88272709 8:0.87744645 9:0.068983044 10:0.60121614 
0.5196328858252404 0:0.0011189483 1:-0.023523561 2:0.59180214 3:0.13102111 4:0.055084025 5:0.18135796 6:-0.33606558 7:0.9371763 8:0.9311391 9:0.080875134 10:0.60121614 
10 0:-0.034665202 1:-0.020739493 2:0.57258801 3:-0.1142729 4:-0.055720753 5:0.0040398614 6:-0.7842873 7:0.87015999 8:0.85939025 9:-0.022125627 10:0.60121614 
10 0:-0.029572647 1:-0.016185428 2:0.60619728 3:-0.2585481 4:-0.045832262 5:-0.14466272 6:-0.7439615 7:0.87204456 8:0.84061073 9:-0.0015490366 10:-0.36846204 
10 0:0.013687939 1:-0.015711502 2:0.60491142 3:-0.033295086 4:0.014449407 5:0.19343465 6:-0.48920274 7:0.86179242 8:0.81838384 9:0.071465458 10:-0.36846204 
10 0:-0.0057946735 1:-0.038747089 2:0.60036543 3:-0.13694248 4:0.0001983393 5:0.16666034 6:-0.61904651 7:0.91742605 8:0.89227704 9:0.24962023 10:-0.36846204 
10 0:-0.026229741 1:-0.1034236 2:0.57612719 3:-0.29621394 4:-0.075190726 5:-0.013906255 6:-0.73086413 7:0.87227669 8:0.84550376 9:0.083622559 10:-0.36846204 
9.308614640658922 0:-0.050693225 1:-0.079520906 2:0.46652503 3:-0.59264982 4:-0.077445096 5:-0.06807589 6:-0.64317153 7:0.93433707 8:0.92440581 9:0.27126878 10:-0.36846204 
10 0:0.0074659823 1:-0.063803731 2:0.55686224 3:-0.13690858 4:0.014576142 5:0.00030564975 6:-0.6738282 7:0.93404302 8:0.9052918 9:0.01237516 10:-0.36846204 
10 0:0.12239369 1:-0.020674755 2:0.77869051 3:0.16625864 4:0.059273666 5:0.13230311 6:-0.23132504 7:0.95350872 8:0.93401949 9:-0.21529623 10:-0.36846204 
10 0:0.24920128 1:-0.080381638 2:0.69411111 3:0.15985711 4:0.24230347 5:0.3771273 6:-0.2163123 7:0.91980468 8:0.90492844 9:0.18024962 10:-0.36846204 
10 0:-0.40733821 1:-0.09372559 2:0.42792766 3:-0.2295423 4:-0.51967413 5:-0.39483603 6:-0.86395617 7:0.86933196 8:0.80033302 9:0.13757777 10:-0.36846204 
10 0:0.22674252 1:0.0080646499 2:0.87067371 3:0.18049386 4:0.26533364 5:0.45881491 6:-0.12220115 7:0.94394835 8:0.94178182 9:0.14363478 10:1.7710505 
10 0:0.24217193 1:0.02251099 2:0.79381859 3:0.29921636 4:0.4353438 5:0.46983999 6:-0.043354034 7:0.95187429 8:0.94615315 9:-0.24033356 10:-0.36846204 
10 0:-0.051025546 1:-0.04563256 2:0.49743109 3:-0.26245653 4:-0.11055793 5:-0.099831155 6:-0.83007906 7:0.88057284 8:0.84574212 9:-0.15151772 10:-0.36846204 
10 0:0.039201851 1:-0.0082269787 2:0.79441441 3:0.093701372 4:-0.0048317458 5:0.035215567 6:-0.2016665 7:0.88016011 8:0.84555863 9:0.26098572 10:-0.36846204 
10 0:-0.12420675 1:-0.048687659 2:0.50753139 3:-0.42500163 4:-0.14467387 5:-0.45308545 6:-0.81816321 7:0.91196402 8:0.89138938 9:0.16240983 10:-0.36846204 
10 0:-0.14341697 1:-0.057076983 2:0.5090503 3:-0.36662737 4:-0.19976 5:0.51303625 6:-0.79113058 7:0.8596737 8:0.81555468 9:0.065877691 10:-0.36846204 
0.00732305139074595 0:0.14106667 1:-0.035640316 2:0.65607065 3:0.14417914 4:0.087302024 5:0.12907543 6:-0.29382756 7:0.9529839 8:0.95233569 9:0.18102968 10:-0.36846204 
10 0:0.027520507 1:-0.023745143 2:0.59993966 3:-0.14066419 4:-0.055280729 5:0.018547092 6:-0.68758283 7:0.87652373 8:0.86492009 9:-0.0045972765 10:-0.36846204 
0.0684331919423537 0:0.13300492 1:0.039630021 2:0.68461647 3:0.1822399 4:0.074427384 5:0.1470907 6:-0.18855647 7:0.9471672 8:0.9357427 9:0.36025478 10:-0.36846204 
10 0:-0.015904577 1:-0.0034909859 2:0.6123276 3:-0.21017774 4:-0.047661974 5:-0.1132854 6:-0.72046693 7:0.87740139 8:0.8425626 9:0.021382801 10:-2.0011073 
10 0:0.00027599334 1:-0.052198159 2:0.58054918 3:-0.15625448 4:-0.025049646 5:0.14303462 6:-0.68062047 7:0.92017796 8:0.89003999 9:0.18583984 10:-2.0011073 
10 0:0.01355381 1:-0.01558046 2:0.60784913 3:-0.033163332 4:0.013904867 5:0.19423224 6:-0.48864688 7:0.86043786 8:0.81503736 9:0.071462023 10:-0.39065354 
9.351166489062891 0:-0.1221868 1:-0.10178083 2:0.41859327 3:-0.55803221 4:-0.10044101 5:-0.016439503 6:-0.83241737 7:0.92624072 8:0.91529974 9:0.27298692 10:-2.0011073 
10 0:-0.06247159 1:-0.027587503 2:0.4561612 3:-0.3674677 4:-0.07754526 5:-0.029432687 6:-1 7:0.8767529 8:0.82906777 9:-0.15241378 10:-2.0011073 
10 0:0.081937308 1:-0.073439366 2:0.68386437 3:0.19568063 4:0.15367474 5:0.0068047632 6:-0.49746142 7:0.95465391 8:0.95495124 9:0.061282695 10:-2.0011073 
9.993513702575466 0:0.085901959 1:-0.08239601 2:0.72482981 3:0.090431723 4:0.0070254554 5:0.076938899 6:-0.33940966 7:0.95068236 8:0.92524202 9:-0.34584641 10:-2.0011073 
10 0:-0.45436882 1:-0.099668838 2:0.40095914 3:-0.20826363 4:-0.52142719 5:-0.36067847 6:-0.96317094 7:0.85874309 8:0.7968181 9:-0.50122945 10:-2.0011073 
10 0:0.089142254 1:-0.052765132 2:0.83215503 3:0.15038376 4:0.18749443 5:0.43900185 6:-0.17519153 7:0.94010641 8:0.93493407 9:0.13807694 10:0.5270324 
8.810335189237991 0:0.22148777 1:-0.053679856 2:0.70917981 3:0.20000637 4:0.36337394 5:0.36625619 6:-0.25290091 7:0.93967215 8:0.93154425 9:-0.11795254 10:-2.0011073 
10 0:-0.014578818 1:-0.043621865 2:0.49168817 3:-0.21091577 4:-0.10258231 5:-0.073373845 6:-0.7780093 7:0.88522257 8:0.84472155 9:0.22224289 10:-2.0011073 
10 0:-0.081293543 1:-0.072270877 2:0.48146378 3:-0.35874227 4:-0.15607189 5:-0.40351569 6:-0.89931446 7:0.91321271 8:0.88790321 9:0.2091685 10:-2.0011073 
10 0:-0.027576905 1:-0.10947246 2:0.52918914 3:-0.36354619 4:-0.01203296 5:0.051489064 6:-0.86690535 7:0.93479791 8:0.91882483 9:0.18829432 10:-2.0011073 
10 0:-0.1112562 1:-0.061439562 2:0.49763593 3:-0.30313297 4:-0.20330504 5:0.43600595 6:-0.82660743 7:0.86048196 8:0.81685017 9:0.2722396 10:-2.0011073 
10 0:0.15885235 1:-0.099875155 2:0.61076129 3:0.10314418 4:0.045917137 5:0.063219057 6:-0.40617167 7:0.9504858 8:0.94374961 9:0.36031007 10:-2.0011073 
10 0:0.06086274 1:-0.016531257 2:0.60420335 3:-0.033963261 4:-0.052043583 5:0.025296235 6:-0.62249526 7:0.87726918 8:0.86384484 9:0.027049521 10:-2.0011073 
10 0:0.036033906 1:0.064106739 2:0.70538512 3:0.040155813 4:-0.027512001 5:-0.056197888 6:-0.31846628 7:0.89478682 8:0.86029671 9:0.070486965 10:-1.4428223 
10 0:0.012772701 1:0.026906787 2:0.6170591 3:-0.16863753 4:-0.11972485 5:0.0093409937 6:-0.60117873 7:0.89702051 8:0.85569571 9:0.053850186 10:-1.4428223 
10 0:-0.055328847 1:-0.018817923 2:0.46944262 3:-0.32528941 4:-0.081418088 5:-0.025605099 6:-0.8703703 7:0.88289046 8:0.83359428 9:-0.13154562 10:-1.4428223 
10 0:0.10325918 1:-0.0088351182 2:0.70707818 3:0.15720403 4:0.1253973 5:0.0083712448 6:-0.42602121 7:0.95789658 8:0.95651634 9:0.01439571 10:-1.4428223 
10 0:0.11740727 1:0.041654314 2:0.76962191 3:0.13228377 4:-0.0055356941 5:0.12520512 6:-0.22630813 7:0.96094663 8:0.93284785 9:-0.27002785 10:-1.4428223 
10 0:-0.33224491 1:0.099668536 2:0.46882939 3:-0.15096873 4:-0.42780003 5:-0.27238787 6:-0.82256309 7:0.88053349 8:0.8218125 9:-0.20329144 10:-1.4428223 
9.996817276898209 0:0.15884946 1:0.038248896 2:0.87435591 3:0.20174564 4:0.15766529 5:0.43407286 6:-0.087559867 7:0.95022067 8:0.94374026 9:0.1152738 10:-0.43813026 
10 0:0.34788841 1:0.15108178 2:0.80593245 3:0.25853778 4:0.38676726 5:0.40349917 6:-0.00479967 7:0.95716702 8:0.94532927 9:-0.11046113 10:-1.4428223 
10 0:0.023777418 1:0.092915466 2:0.57217712 3:-0.076877143 4:-0.071758419 5:0.033445472 6:-0.43986512 7:0.90151121 8:0.85973666 9:0.030366803 10:-1.4428223 
10 0:0.28369542 1:0.078382401 2:0.67211508 3:0.20907105 4:0.22809247 5:0.14932023 6:-0.038507984 7:0.93733767 8:0.9390105 9:-0.019887391 10:-1.4428223 
10 0:0.019954033 1:-0.026666723 2:0.72522404 3:-0.026729976 4:-0.048231145 5:0.021788283 6:-0.36666689 7:0.88159142 8:0.84008801 9:0.069352007 10:-1.4428223 
10 0:0.17889692 1:0.104164 2:0.73756082 3:0.21460397 4:0.13005588 5:0.11548675 6:-0.029377568 7:0.90035128 8:0.88666048 9:0.15796487 10:-1.4428223 
10 0:-0.0018133879 1:0.022061689 2:0.55872856 3:-0.22389442 4:-0.13271137 5:-0.24664591 6:-0.72370876 7:0.92808242 8:0.90126667 9:0.15169214 10:-1.4428223 
9.94806585379958 0:0.12420747 1:0.013013106 2:0.60399403 3:-0.066431431 4:0.021964896 5:0.16115488 6:-0.28278644 7:0.94406203 8:0.92800417 9:-0.32414188 10:-1.4428223 
10 0:0.086266259 1:0.076345076 2:0.66721904 3:0.22660811 4:-0.023860533 5:0.054855677 6:-0.2972965 7:0.8909068 8:0.87618735 9:0.066239319 10:-1.4428223 
10 0:0.042495016 1:0.097429357 2:0.77218933 3:0.47632714 4:0.0041089871 5:-0.041215526 6:-0.18518018 7:0.90597963 8:0.87634663 9:0.23302146 10:1.2585377 
10 0:0.049392735 1:0.093555246 2:0.78491142 3:0.38341546 4:0.012299883 5:0.21159531 6:-0.02861491 7:0.9511127 8:0.91839045 9:0.11778686 10:1.2585377 
10 0:0.0084148942 1:-0.0024855364 2:0.61151849 3:-0.087684824 4:-0.0037286882 5:0.12607485 6:-0.52489122 7:0.86923169 8:0.81598273 9:-0.0082395729 10:-1.4633905 
10 0:0.026229741 1:0.10810811 2:0.69307901 3:0.10233279 4:-0.072854578 5:0.095577769 6:-0.28487187 7:0.92101162 8:0.87647258 9:0.13462666 10:1.2585377 
10 0:0.14042037 1:0.025400716 2:0.76494704 3:0.36239463 4:0.13245403 5:0.009935775 6:-0.22451677 7:0.96722859 8:0.96390801 9:0.14125086 10:1.2585377 
10 0:0.16953789 1:0.20370915 2:0.863414 3:0.63670804 4:0.054912877 5:0.31968519 6:-0.0071422143 7:0.98381622 8:0.95672782 9:0.12755635 10:1.2585377 
10 0:0.23729318 1:0.2266124 2:0.77698909 3:0.36210855 4:0.18830133 5:0.45124539 6:-0 7:0.95747651 8:0.92337985 9:0.23619374 10:1.2585377 
10 0:-0.41573387 1:0.10083763 2:0.51012164 3:-0.071792988 4:-0.29972124 5:-0.2216198 6:-0.73007498 7:0.89051398 8:0.84276459 9:0.15693415 10:1.2585377 
10 0:0.14822485 1:0.0092164465 2:0.84021461 3:0.22154565 4:0.10744651 5:0.37893152 6:-0.16216257 7:0.94632262 8:0.93651144 9:0.15560839 10:-2.0665322 
10 0:0.074733684 1:0.14628237 2:0.67383988 3:0.34001147 4:-0.016747476 5:0.14348855 6:-0.078829197 7:0.92133917 8:0.88162626 9:0.29674282 10:1.2585377 
10 0:0.30829617 1:0.13529696 2:0.74485306 3:0.40680538 4:0.29793902 5:0.14662976 6:-0.067919438 7:0.95550945 8:0.95565085 9:0.18675826 10:1.2585377 
10 0:0.029489632 1:0.064397078 2:0.82567997 3:0.62143484 4:-0.024705647 5:0.0071906633 6:-0.16766509 7:0.90389332 8:0.86271784 9:0.15821878 10:1.2585377 
10 0:-0.021758631 1:0.044123378 2:0.58310626 3:-0.0746132 4:-0.10388666 5:-0.15604751 6:-0.66384251 7:0.93302551 8:0.90652683 9:0.17762757 10:1.2585377 
9.596697259814288 0:0.10630359 1:0.02202176 2:0.65206832 3:0.28331807 4:0.041933676 5:0.14706996 6:-0.16728652 7:0.95305361 8:0.93497183 9:0.35140127 10:1.2585377 
10 0:0.018090482 1:0.15063009 2:0.69597402 3:0.15725554 4:-0.10041436 5:0.52791656 6:-0.18844682 7:0.92204353 8:0.88466446 9:0.097148239 10:1.2585377 
10 0:0.088943604 1:0.13044905 2:0.78128598 3:0.55000819 4:0.13716397 5:0.22556908 6:-0.065994659 7:0.96542953 8:0.9520092 9:0.19027196 10:1.2585377 
10 0:0.004076572 1:0.039800213 2:0.70809987 3:0.24697575 4:0.013194758 5:0.10610317 6:-0.23015313 7:0.88350733 8:0.83760578 9:0.10206718 10:2.6518897 
10 0:0.06043051 1:0.12487451 2:0.81683391 3:0.49709204 4:0.052114859 5:0.20609083 6:-0.1955835 7:0.95197693 8:0.92301789 9:0.11377163 10:2.6518897 
10 0:0.0038347834 1:0.028291736 2:0.70743376 3:0.22575967 4:0.0067360673 5:0.18270066 6:-0.16423439 7:0.88528645 8:0.83400038 9:0.10538651 10:1.2388099 
10 0:-0.014597304 1:0.15975998 2:0.70572477 3:0.16309428 4:-0.035125738 5:0.1170657 6:-0.22740557 7:0.91796769 8:0.88112253 9:0.11464185 10:2.6518897 
10 0:0.17825478 1:0.3349692 2:0.7709378 3:0.54979775 4:0.19336163 5:0.47748166 6:-0.061919669 7:0.96180523 8:0.93594783 9:0.10699555 10:2.6518897 
10 0:0.12945476 1:0.14853605 2:0.7817266 3:0.38839383 4:0.13798848 5:0.010387858 6:-0.17596697 7:0.96798982 8:0.96442474 9:0.16433687 10:2.6518897 
10 0:0.15140546 1:0.26877492 2:0.87078771 3:0.76357942 4:0.090444875 5:0.32333104 6:-0.15420546 7:0.97892495 8:0.95625164 9:0.20911241 10:2.6518897 
10 0:0.092070992 1:0.24614006 2:0.75041211 3:0.35961146 4:0.19080853 5:0.47239422 6:-0.059196393 7:0.94663682 8:0.91606027 9:0.23724573 10:2.6518897 
10 0:0.19797859 1:0.10368658 2:0.88853284 3:0.37443248 4:0.10514763 5:0.34017427 6:-0.17864253 7:0.95671962 8:0.94662486 9:-0.074253744 10:-1.5042479 
10 0:0.055503449 1:0.20547585 2:0.72208234 3:0.47597833 4:0.037204527 5:0.070052512 6:-0.16604728 7:0.92236431 8:0.8935899 9:0.25255062 10:2.6518897 
10 0:0.031078842 1:0.10241138 2:0.82266393 3:0.50158253 4:-0.012737047 5:-0.0074447314 6:-0.17365327 7:0.90023866 8:0.86076886 9:0.15135713 10:2.6518897 
10 0:-0.053792663 1:0.080258664 2:0.60162331 3:0.030738703 4:-0.074858615 5:-0.12705818 6:-0.4890911 7:0.93368046 8:0.91175944 9:0.16039338 10:2.6518897 
10 0:-0.025768541 1:0.066931348 2:0.62674125 3:0.087281325 4:-0.011798539 5:-0.037432112 6:-0.37272663 7:0.9559621 8:0.93334953 9:0.26783402 10:2.6518897 
10 0:-0.051485206 1:-0.03426713 2:0.48549385 3:-0.25389767 4:0.028670875 5:-0.11931628 6:-0.89120345 7:0.84573898 8:0.82452694 9:0.080916393 10:2.6518897 
10 0:0.023125814 1:0.1106109 2:0.66527808 3:0.29468813 4:0.058368811 5:0.11545089 6:-0.13768033 7:0.95277845 8:0.93715124 9:0.34551905 10:2.6518897 
10 0:0.071544205 1:0.08661399 2:0.68572562 3:0.29413468 4:0.063976086 5:0.1084092 6:-0.16967531 7:0.96284203 8:0.95068368 9:0.30740633 10:2.6518897 
10 0:0.079638817 1:0.13540311 2:0.72931983 3:0.45656817 4:0.1425213 5:0.15384891 6:-0.27796353 7:0.95278463 8:0.94085741 9:0.19733261 10:2.6518897 
10 0:0.056843396 1:0.12728387 2:0.83808543 3:0.44747709 4:0.082522703 5:0.17161107 6:-0.13953387 7:0.94872187 8:0.92569882 9:0.086047967 10:3.7940727 
10 0:0.0040367149 1:0.039468317 2:0.70964609 3:0.24599581 4:0.012635488 5:0.1065289 6:-0.22989058 7:0.88211866 8:0.83418072 9:0.1020623 10:2.6330143 
10 0:0.0088193133 1:0.099459447 2:0.7132187 3:0.14126242 4:-0.0080807612 5:0.14696405 6:-0.19449872 7:0.91249763 8:0.88300375 9:0.082430529 10:3.7940727 
10 0:0.13999067 1:0.19570561 2:0.73798326 3:0.43102697 4:0.20829811 5:0.4572523 6:-0.14241457 7:0.94959223 8:0.92831496 9:0.10049005 10:3.7940727 
10 0:0.15290904 1:0.12534533 2:0.78709887 3:0.36199103 4:0.13457996 5:0.011987821 6:-0.15307671 7:0.96754852 8:0.96217295 9:0.1696753 10:3.7940727 
10 0:-0.11792608 1:0.096551077 2:0.52815981 3:-0.027286712 4:-0.079527838 5:-0.13560043 6:-0.69437312 7:0.88217817 8:0.85744672 9:0.10962045 10:3.7940727 
10 0:0.3508677 1:0.24861724 2:0.98947337 3:0.777864 4:0.21876028 5:0.39671052 6:-0.0270139 7:0.98580326 8:0.98053591 9:0.16489352 10:1.2008888 
10 0:0.073518661 1:0.1444775 2:0.71995684 3:0.31546143 4:0.069034911 5:0.084980799 6:-0.1712212 7:0.91072924 8:0.89011962 9:0.22429738 10:3.7940727 
10 0:0.04379295 1:0.095319149 2:0.8441495 3:0.5159504 4:-9.3686208e-05 5:-0.0060167853 6:-0.07035957 7:0.90112111 8:0.86464416 9:0.13313048 10:3.7940727 
10 0:0.24274789 1:0.16446487 2:0.80964102 3:0.56330834 4:0.20191627 5:0.10159893 6:-0.19932217 7:0.96762858 8:0.95749754 9:0.12387623 10:3.7940727 
10 0:0.019426461 1:0.019344903 2:0.74683425 3:0.29349715 4:0.032563087 5:0.17091428 6:-0.14795867 7:0.88060756 8:0.84684092 9:0.098704184 10:3.9649192 
10 0:0.088162238 1:0.10780987 2:0.90443456 3:0.46354266 4:0.13372705 5:0.2411894 6:-0.071484856 7:0.95606565 8:0.9418816 9:0.093412814 10:3.9649192 
10 0:0.1535231 1:0.0012267482 2:0.77272136 3:0.37660353 4:0.23021777 5:0.45786835 6:-0.047197647 7:0.947102 8:0.93365874 9:0.105317 10:3.9649192 
10 0:0.076454275 1:0.050800549 2:0.79582471 3:0.35978897 4:0.12733689 5:0.01310407 6:-0.1190141 7:0.96512234 8:0.9621493 9:0.1500299 10:3.9649192 
10 0:0.13186154 1:0.11807405 2:0.79691669 3:0.51299877 4:0.25352624 5:0.69558459 6:-0.026009856 7:0.94621565 8:0.9307234 9:0.15101842 10:3.9649192 
10 0:0.10642102 1:0.043647801 2:0.53845292 3:-0.013711992 4:-0.0068038631 5:-0.10611374 6:-0.6721242 7:0.87722459 8:0.8580041 9:0.10863873 10:3.9649192 
10 0:0.2301114 1:0.2046083 2:0.90493149 3:0.56138758 4:0.22613713 5:0.32369087 6:-0.2062351 7:0.9627798 8:0.96312944 9:0.15275387 10:2.5978116 
10 0:0.038495511 1:0.022127631 2:0.84817984 3:0.55143667 4:0.0057765865 5:-0.01111686 6:-0.26279096 7:0.8940557 8:0.86382377 9:0.12844155 10:3.9649192 
10 0:-0.023514954 1:-0.031547548 2:0.55475291 3:-0.19532964 4:0.014448912 5:-0.096579076 6:-0.69975196 7:0.86081864 8:0.83893802 9:0.07595065 10:3.9649192 
10 0:0.16611948 1:0.059775828 2:0.79903841 3:0.35990869 4:0.22188083 5:0.13863743 6:-0.24546819 7:0.9565501 8:0.95187025 9:0.04357298 10:3.9649192 
10 0:-0.028578586 1:-0.12281821 2:0.51668349 3:-0.35844827 4:-0.017954155 5:0.33591246 6:-0.6678964 7:0.83921892 8:0.82481597 9:0.33866946 10:3.4987448 
10 0:0.027705036 1:0.016199319 2:0.73338297 3:0.19875467 4:0.031433205 5:0.21895619 6:-0.17988342 7:0.87263359 8:0.84309123 9:0.09994662 10:3.4987448 
10 0:0.1227926 1:0.099779175 2:0.91759028 3:0.4364473 4:0.16580509 5:0.25000928 6:-0.10369253 7:0.94780502 8:0.94108667 9:0.03346326 10:3.4987448 
10 0:0.01923622 1:0.019183725 2:0.74779095 3:0.29233288 4:0.030825534 5:0.1716145 6:-0.14778921 7:0.87922347 8:0.84337815 9:0.098699981 10:3.9477599 
10 0:0.071922711 1:0.094894823 2:0.76981207 3:0.30812189 4:0.08994102 5:0.25500954 6:-0.12416622 7:0.91017718 8:0.90182013 9:0.11809212 10:3.4987448 
10 0:0.10508671 1:0.050800549 2:0.81372083 3:0.39559848 4:0.12326528 5:0.014736191 6:-0.048412549 7:0.96448213 8:0.9631875 9:0.15255091 10:3.4987448 
10 0:0.17021749 1:0.027667637 2:0.80305234 3:0.35767689 4:0.13657483 5:0.3727555 6:-0.28465377 7:0.95328863 8:0.94752976 9:0.15433598 10:3.4987448 
10 0:0.13389486 1:0.095822008 2:0.75180245 3:0.36555992 4:0.21646373 5:0.62543587 6:-0.15664984 7:0.92994009 8:0.91906185 9:0.15730074 10:3.4987448 
10 0:0.059390416 1:0.0074043247 2:0.55349947 3:0.051029108 4:0.060202739 5:-0.077089112 6:-0.64069125 7:0.87652913 8:0.8608226 9:0.11361851 10:3.4987448 
10 0:0.33117362 1:0.2087556 2:0.93824383 3:0.43272216 4:0.25511289 5:0.33014522 6:-0.058346453 7:0.96682222 8:0.97138962 9:0.13789982 10:3.7433721 
10 0:0.10514228 1:-0.14761914 2:0.74066531 3:0.17375557 4:0.34844173 5:0.31397095 6:-0.2838678 7:0.93104464 8:0.92689078 9:0.22901756 10:3.4987448 
10 0:0.062549033 1:-0.052671001 2:0.65162379 3:0.16220244 4:0.25014185 5:0.10810012 6:-0.27405805 7:0.91029945 8:0.92307428 9:0.20167315 10:3.4987448 
10 0:0.043263231 1:0.014468142 2:0.82133197 3:0.3101078 4:0.0019473865 5:-0.014523871 6:-0.35944046 7:0.88539919 8:0.85888677 9:0.10679142 10:3.4987448 
10 0:-0.058910826 1:-0.0065270077 2:0.48665607 3:-0.40169482 4:-0.007843519 5:-0.17963077 6:-0.99513285 7:0.851166 8:0.82599941 9:0.087290988 10:3.4987448 
10 0:-0.0063408437 1:-0.029529713 2:0.61586299 3:0.09338367 4:0.059136682 5:0.14213424 6:-0.30172457 7:0.93742112 8:0.9286951 9:0.29828131 10:3.4987448 
10 0:0.031658382 1:-0.04944259 2:0.60714183 3:-0.015903023 4:-0.002979974 5:0.57364201 6:-0.36386633 7:0.85582911 8:0.85303051 9:0.10663059 10:3.4987448 
10 0:-0.010913054 1:-0.02445072 2:0.64083294 3:0.037041616 4:0.029592105 5:0.041235565 6:-0.38095238 7:0.95322839 8:0.9456235 9:0.35517574 10:3.4987448 
10 0:0.25807351 1:0.19220635 2:0.84777092 3:0.3776081 4:0.26440488 5:0.27551243 6:-0.060605858 7:0.96267831 8:0.96083455 9:0.048325202 10:3.4987448 
10 0:-0.012922568 1:-0.10917172 2:0.53583283 3:-0.17692653 4:-0.04563917 5:0.47168056 6:-0.63303067 7:0.85176061 8:0.82948787 9:0.39560191 10:3.1992306 
10 0:0.027433678 1:0.016064158 2:0.73430171 3:0.19796607 4:0.029747368 5:0.21985663 6:-0.17967959 7:0.87126194 8:0.83964369 9:0.099942066 10:3.4824374 
10 0:0.05876996 1:0.086486631 2:0.7693102 3:0.29015683 4:0.098631223 5:0.20432986 6:-0.12527812 7:0.90383646 8:0.89900547 9:0.083129631 10:3.1992306 
10 0:0.086506574 1:0.07288829 2:0.83288282 3:0.40161157 4:0.12216924 5:0.019855685 6:-0.051502252 7:0.96551086 8:0.96493889 9:0.028469911 10:3.1992306 
10 0:0.17225764 1:-0.097597766 2:0.81113352 3:0.30323435 4:0.10050854 5:0.20453403 6:-0.24999957 7:0.95396281 8:0.94659015 9:0.12840643 10:3.1992306 
7.784953730021929 0:0.19692142 1:-0.008627973 2:0.77344301 3:0.35073579 4:0.19847229 5:0.64323135 6:-0.031776766 7:0.93507309 8:0.9230165 9:-0.042210608 10:3.1992306 
10 0:0.13215173 1:0.062841105 2:0.56812128 3:0.17166852 4:0.11922836 5:-0.062664631 6:-0.57482976 7:0.87730397 8:0.86177888 9:0.057287541 10:3.1992306 
10 0:0.16144768 1:-0.14545451 2:0.76874084 3:0.14780663 4:0.26979043 5:0.19121072 6:-0.24633162 7:0.93987174 8:0.93069012 9:-0.0029509117 10:3.1992306 
10 0:0.11888645 1:0.016397107 2:0.71678688 3:0.22029688 4:0.10959787 5:0.09007624 6:-0.17302082 7:0.88751165 8:0.88047759 9:0.1811548 10:3.1992306 
10 0:0.046618378 1:0.011347574 2:0.8416838 3:0.3111153 4:0.0026184739 5:-0.010450569 6:-0.27832132 7:0.8887514 8:0.86162811 9:0.036583585 10:3.1992306 
10 0:-0.00044248903 1:-0.07599153 2:0.6565439 3:0.017698005 4:-0.010225727 5:0.00089123035 6:-0.48510316 7:0.87441216 8:0.86191246 9:0.31447137 10:3.1992306 
10 0:-0.07459319 1:-0.097561005 2:0.54156866 3:-0.31300784 4:-0.040084482 5:-0.30542525 6:-0.68716614 7:0.93896722 8:0.92534574 9:0.10936793 10:3.1992306 
10 0:-0.029950475 1:-0.01522973 2:0.54471662 3:-0.28044275 4:-0.0087567542 5:-0.14706799 6:-0.77615426 7:0.86672423 8:0.83876244 9:0.086028263 10:3.1992306 
10 0:-0.015359334 1:-0.030252625 2:0.66430593 3:0.036034184 4:0.016538592 5:0.097530905 6:-0.35251728 7:0.95750185 8:0.94932933 9:0.31239691 10:3.1992306 
10 0:-0.076210556 1:-0.1091072 2:0.50455868 3:-0.28773749 4:-0.099008498 5:-0.026749538 6:-0.90259727 7:0.85181326 8:0.83605649 9:0.13509113 10:3.1992306 
10 0:-0.0049701056 1:-0.10980634 2:0.52191425 3:-0.17194013 4:-0.065549457 5:0.47953491 6:-0.66244831 7:0.857939 8:0.82632852 9:0.51171921 10:3.4739854 
10 0:0.13493374 1:0.0084319994 2:0.8782372 3:0.25334471 4:0.16575929 5:0.19240921 6:-0.13068152 7:0.93185004 8:0.92708806 9:0.026028634 10:3.4739854 
10 0:0.12704322 1:-0.037477417 2:0.75154501 3:0.21350064 4:0.089638091 5:0.16040494 6:-0.16271361 7:0.89574974 8:0.88980893 9:0.099161284 10:3.4739854 
10 0:-0.052170878 1:-0.14844966 2:0.46919424 3:-0.31563582 4:-0.020015919 5:0.21903305 6:-0.82547882 7:0.92328592 8:0.91821417 9:0.37539685 10:3.4739854 
10 0:0.13554666 1:0.11540568 2:0.86528714 3:0.53899943 4:0.13242194 5:0.016018634 6:-0.16302026 7:0.9688224 8:0.96858224 9:0.090487137 10:3.4739854 
10 0:0.30394391 1:0.034052736 2:0.86290501 3:0.38455566 4:0.11282827 5:0.18566229 6:-0.072254323 7:0.96657352 8:0.95783001 9:0.062744651 10:3.4739854 
10 0:0.32780513 1:0.07142867 2:0.87671114 3:0.28958477 4:0.2499278 5:0.32345106 6:-0.17436113 7:0.94454241 8:0.95844114 9:0.14327455 10:3.4542606 
10 0:0.13990213 1:-0.14588719 2:0.73006613 3:0.030205906 4:0.17264128 5:0.32524832 6:-0.34903674 7:0.93688347 8:0.92254114 9:0.056372751 10:3.4739854 
10 0:0.17789578 1:-0.019387497 2:0.72746361 3:0.17870215 4:0.10268206 5:0.082665676 6:-0.14218428 7:0.88894463 8:0.87614228 9:0.11928008 10:3.4739854 
10 0:0.075111083 1:-0.11632557 2:0.60347119 3:0.021413129 4:0.13223385 5:0.15596783 6:-0.58924697 7:0.90606511 8:0.90878131 9:-0.16225242 10:3.4739854 
10 0:0.056507094 1:0.018439745 2:0.85463452 3:0.30187965 4:0.0037356922 5:0.0013216162 6:-0.2251749 7:0.8895159 8:0.86210126 9:0.036559541 10:3.4739854 
10 0:-0.033242615 1:-0.087866269 2:0.4875461 3:-0.25048281 4:-0.078915417 5:-0.20693519 6:-0.9158572 7:0.90665311 8:0.89174838 9:0.25582017 10:3.4739854 
10 0:0.020791983 1:0.053304313 2:0.66419259 3:0.23946664 4:0.023214216 5:-0.037691624 6:-0.20924574 7:0.88894616 8:0.86689155 9:0.026940872 10:3.4739854 
10 0:0.076798449 1:0.013676002 2:0.69800034 3:0.22079633 4:0.021607783 5:0.22881456 6:-0.16307092 7:0.96173683 8:0.95323625 9:0.20092862 10:3.4739854 
10 0:-0.037046863 1:-0.06011421 2:0.50830117 3:-0.31565722 4:-0.12096668 5:0.015583673 6:-0.78851678 7:0.86640576 8:0.8381486 9:0.13121161 10:3.4739854 
10 0:0.00049714227 1:0.020945852 2:0.56038783 3:-0.13167828 4:-0.06785012 5:0.51003999 6:-0.59598539 7:0.87401713 8:0.83399816 9:0.52981977 10:3.3735218 
10 0:0.15383543 1:0.0064242505 2:0.89220204 3:0.22537471 4:0.15361429 5:0.20025984 6:-0.080965827 7:0.93071614 8:0.92442421 9:0.029602118 10:3.3735218 
10 0:0.14924358 1:0.018738703 2:0.77906881 3:0.22202972 4:0.09189478 5:0.18167335 6:-0.066345748 7:0.89856897 8:0.8917583 9:0.096040889 10:3.3735218 
10 0:-0.078085835 1:-0.031009956 2:0.46639083 3:-0.37656896 4:-0.041671513 5:0.22140248 6:-0.8050279 7:0.93028823 8:0.91928755 9:0.35239945 10:3.3735218 
10 0:0.10112726 1:0.078962337 2:0.85295345 3:0.42871528 4:0.124264 5:0.010039123 6:-0.21808486 7:0.96504102 8:0.96546587 9:0.093785064 10:3.3735218 
10 0:0.33862171 1:0.20522946 2:0.88852046 3:0.39662364 4:0.13403763 5:0.30889696 6:-0.013469829 7:0.97388105 8:0.96097556 9:0.099596341 10:3.3735218 
10 0:0.30380495 1:0.18528616 2:0.80972923 3:0.38600717 4:0.21934837 5:0.78764199 6:-0.07510968 7:0.94185719 8:0.92764051 9:-0.029397777 10:3.3735218 
10 0:0.1180695 1:0.041991374 2:0.74919317 3:0.088353511 4:0.11429741 5:0.35356188 6:-0.28531192 7:0.9444117 8:0.92466626 9:0.098805771 10:3.3735218 
10 0:0.15779776 1:-0.0099514983 2:0.73761621 3:0.17074527 4:0.095605004 5:0.10646769 6:-0.11377784 7:0.88956093 8:0.87244682 9:0.11389665 10:3.3735218 
10 0:-0.021154339 1:-0.045264153 2:0.50401901 3:-0.30809548 4:-0.083085573 5:-0.24265342 6:-0.804554 7:0.91690923 8:0.89519403 9:0.008829423 10:3.3735218 
10 0:-0.030289247 1:-0.015314573 2:0.54648105 3:-0.26376415 4:-0.057877239 5:-0.43630052 6:-0.67914502 7:0.94559394 8:0.92752451 9:0.11013391 10:3.3735218 
10 0:0.038613818 1:0.096546017 2:0.67806159 3:0.36153333 4:0.046775963 5:0.066689941 6:-0.13138686 7:0.88754868 8:0.86889208 9:0.03013424 10:3.3735218 
10 0:0.032823465 1:0.037537517 2:0.6472382 3:0.24969531 4:0.049146833 5:0.13017659 6:-0.20990076 7:0.94278795 8:0.93199504 9:0.27353517 10:3.3735218 
10 0:0.1083269 1:0.08661399 2:0.72894697 3:0.4078318 4:0.037294805 5:0.36927348 6:-0.0023407467 7:0.96569967 8:0.95649018 9:0.23807929 10:3.3735218 
10 0:-0.08070926 1:-0.051096988 2:0.48135588 3:-0.29023851 4:-0.14301544 5:0.027229329 6:-0.87751212 7:0.86594608 8:0.83249513 9:0.10923828 10:3.3735218 
10 0:-0.0019880969 1:0.010472926 2:0.55980024 3:-0.094127578 4:-0.066971102 5:0.51459995 6:-0.59707516 7:0.88148206 8:0.83397107 9:0.52884004 10:2.9524899 
10 0:-0.04069124 1:-0.070770877 2:0.45300321 3:-0.33133533 4:-0.058400722 5:0.16763593 6:-0.86303208 7:0.93292758 8:0.91692673 9:0.38587527 10:2.9524899 
10 0:0.17605844 1:0.08890121 2:0.87652506 3:0.41590137 4:0.1234884 5:0.0083639147 6:-0.1217854 7:0.96632066 8:0.96644513 9:0.079000867 10:2.9524899 
10 0:0.4007255 1:0.22408001 2:0.90126517 3:0.43469038 4:0.14612165 5:0.32514956 6:-0.10473122 7:0.97498865 8:0.95819684 9:0.18475473 10:2.9524899 
10 0:0.30816165 1:0.082197896 2:0.77072534 3:0.30439005 4:0.17561529 5:0.70106895 6:-0.14874741 7:0.93241002 8:0.91356767 9:0.00067897245 10:2.9524899 
10 0:0.25251378 1:0.083550065 2:0.79758589 3:0.20876253 4:0.11395791 5:0.26867619 6:-0.13642863 7:0.95542487 8:0.93133319 9:0.14414207 10:2.9524899 
10 0:0.18758018 1:0.058419921 2:0.77670616 3:0.21154675 4:0.098261638 5:0.11369029 6:-0.069994542 7:0.89812508 8:0.87499404 9:0.18333937 10:2.9524899 
10 0:0.083701317 1:0.0011347801 2:0.821282 3:0.2028808 4:-0.010057004 5:0.016491951 6:-0.27272678 7:0.88477952 8:0.85182758 9:0.065783659 10:2.9524899 
10 0:0.013599427 1:0.0060861143 2:0.53704812 3:-0.16902219 4:-0.071411288 5:-0.22511557 6:-0.69170723 7:0.92566664 8:0.90023282 9:0.10916123 10:2.9524899 
10 0:0.067574168 1:0.090562823 2:0.70707951 3:0.40869812 4:0.068613264 5:0.15199813 6:-0.027460622 7:0.88846741 8:0.87386385 9:0.029232053 10:2.9524899 
10 0:0.095860063 1:-0.0040037015 2:0.65838403 3:0.13204074 4:0.041495406 5:0.12538113 6:-0.17029578 7:0.94542505 8:0.93141948 9:0.1959697 10:2.9524899 
10 0:0.11519767 1:0.033982297 2:0.6836486 3:0.34999464 4:0.026539378 5:0.29477947 6:-0.24786347 7:0.96036617 8:0.94981763 9:0.2327905 10:2.9524899 
10 0:-0.041280893 1:0.023143881 2:0.54331499 3:-0.16835445 4:-0.12688488 5:0.059733543 6:-0.72440212 7:0.88326367 8:0.84812247 9:0.087226168 10:2.9524899 
10 0:0.27750404 1:-0.032695014 2:0.82603227 3:0.22242214 4:0.2230356 5:0.47097482 6:-0.15288668 7:0.94266076 8:0.93919597 9:0.064924732 10:2.9524899 
10 0:-0.018886734 1:0.046334451 2:0.61372702 3:-0.039225547 4:-0.052580241 5:0.52935988 6:-0.5033735 7:0.88886907 8:0.84577443 9:0.25799399 10:2.5392354 
10 0:0.14334985 1:0.0064242505 2:0.8383485 3:0.1067025 4:0.11093904 5:0.3467744 6:-0.10795481 7:0.92635187 8:0.90861473 9:0.28718569 10:2.5392354 
10 0:-0.038095233 1:-0.0082215127 2:0.41234162 3:-0.35093257 4:-0.056193339 5:0.078980143 6:-0.70781568 7:0.88544104 8:0.83850682 9:0.31095413 10:2.5392354 
10 0:0.37488656 1:0.13681964 2:0.91262779 3:0.39600189 4:0.15004392 5:0.41851564 6:-0.059252124 7:0.97163382 8:0.9554502 9:0.11555783 10:2.5392354 
10 0:0.23322672 1:-0.080835544 2:0.74972362 3:0.24608073 4:0.11954646 5:0.51760298 6:-0.18851245 7:0.92524503 8:0.90451092 9:-0.0015037847 10:2.5392354 
10 0:0.10276741 1:-0.051441916 2:0.5489145 3:0.10178649 4:0.19155373 5:0.03173833 6:-0.28235939 7:0.86472208 8:0.8404839 9:0.23039223 10:2.5392354 
10 0:0.16374633 1:0.18701324 2:0.81829917 3:0.19430114 4:0.12302195 5:0.33425591 6:-0.043173563 7:0.9562919 8:0.93360526 9:0.14838727 10:2.5392354 
10 0:0.14911992 1:0.050170073 2:0.77893331 3:0.17680235 4:0.094466793 5:0.15461596 6:-0.063914322 7:0.89708629 8:0.86980783 9:0.17264222 10:2.5392354 
10 0:-0.023030747 1:-0.015227154 2:0.58512149 3:-0.12366715 4:-0.022706775 5:-0.0025751102 6:-0.65850332 7:0.91489261 8:0.90158658 9:-0.22520574 10:2.5392354 
10 0:0.064528019 1:-0.0045047022 2:0.6647667 3:0.17524742 4:0.035657352 5:0.12527396 6:-0.14851497 7:0.94439648 8:0.93078988 9:0.14079605 10:2.5392354 
10 0:0.10953882 1:0.057604588 2:0.73816107 3:0.41956587 4:0.044481274 5:0.33554264 6:-0.039369473 7:0.96570852 8:0.95686901 9:0.036520462 10:2.5392354 
10 0:-0.096851122 1:0.0084159293 2:0.53085268 3:-0.17087941 4:-0.11629015 5:0.088747864 6:-0.76172271 7:0.88055136 8:0.84784618 9:0.078699872 10:2.5392354 
10 0:0.19704421 1:-0.044253535 2:0.81911891 3:0.17145476 4:0.17725114 5:0.4287616 6:-0.16536633 7:0.94165514 8:0.93403645 9:0.090533905 10:2.5392354 
10 0:-0.044731497 1:0.039669933 2:0.63730312 3:0.015374624 4:-0.03638903 5:0.5668605 6:-0.45979111 7:0.88989681 8:0.85310904 9:-0.0021188718 10:2.0593097 
10 0:0.088344847 1:0.011891784 2:0.75226012 3:0.16250734 4:0.08480661 5:0.24674202 6:-0.16915314 7:0.89360566 8:0.87483973 9:0.0891981 10:2.0593097 
10 0:-0.085815123 1:0.047589427 2:0.53852998 3:-0.11655256 4:0.017197808 5:0.3929178 6:-0.61794413 7:0.94337023 8:0.93139347 9:-0.011234224 10:2.0593097 
10 0:-0.081405805 1:-0.0088607472 2:0.40685788 3:-0.24359306 4:-0.051837239 5:0.10237234 6:-0.72468851 7:0.88581778 8:0.84155061 9:0.47639579 10:2.0593097 
10 0:0.13920215 1:0.094423297 2:0.88525291 3:0.39071395 4:0.12885816 5:0.012885546 6:-0.07558694 7:0.96476647 8:0.9654803 9:0.07262126 10:2.0593097 
10 0:0.21464193 1:0.037397672 2:0.87790091 3:0.36754234 4:0.12284971 5:0.36431038 6:-0.10830483 7:0.96075747 8:0.94700641 9:0.10567301 10:2.0593097 
10 0:0.27388875 1:0.17983607 2:0.83300177 3:0.44976878 4:0.17243404 5:0.66731029 6:-0.028806934 7:0.95329285 8:0.93464786 9:0.069755798 10:2.0593097 
10 0:0.0076182438 1:-0.073070917 2:0.51810425 3:0.0042717209 4:0.13702124 5:-0.012738911 6:-0.43509134 7:0.8587668 8:0.83182722 9:0.16419687 10:2.0593097 
10 0:0.33195097 1:-0.041474701 2:0.8531326 3:0.15590873 4:0.071722263 5:0.25829571 6:-0.18722841 7:0.94099897 8:0.93647394 9:-0.10013324 10:2.9185018 
10 0:0.013214761 1:0.15411238 2:0.82065774 3:0.21015545 4:0.11719136 5:0.37601694 6:-0.038622706 7:0.9539403 8:0.93393538 9:0.16352086 10:2.0593097 
10 0:0.10219029 1:0.063679699 2:0.80251692 3:0.2093426 4:0.093681711 5:0.19765266 6:-0.042789086 7:0.89871541 8:0.87176944 9:0.17962002 10:2.0593097 
10 0:-0.13582834 1:-0.067898156 2:0.56794842 3:-0.24073321 4:-0.06656675 5:-0.0051486016 6:-0.73457154 7:0.91677068 8:0.90050825 9:-0.14235132 10:2.0593097 
10 0:0.012537506 1:-0.015602922 2:0.74039943 3:0.15694621 4:-0.025096291 5:0.021340881 6:-0.32587431 7:0.87928892 8:0.84386547 9:0.025390577 10:2.0593097 
10 0:-0.1781003 1:-0.23551217 2:0.48302851 3:-0.79081909 4:-0.18627356 5:0.21719465 6:-0.63350516 7:0.84675697 8:0.82375183 9:0.26430867 10:2.0593097 
10 0:-0.051375195 1:0.00608581 2:0.52844919 3:-0.09073257 4:-0.043614541 5:-0.12224524 6:-0.77111882 7:0.9210689 8:0.89777689 9:0.10367559 10:2.0593097 
10 0:-0.059674516 1:-0.012478839 2:0.53043424 3:-0.30649652 4:-0.058425846 5:-0.19998563 6:-0.73796911 7:0.9466995 8:0.92579538 9:0.018615623 10:2.0593097 
10 0:0.057425751 1:0.032635419 2:0.70618297 3:0.34219539 4:0.098531605 5:0.22552029 6:-0.17187459 7:0.87105007 8:0.87356345 9:-0.0035720854 10:2.0593097 
10 0:0.010444089 1:-0.0080078034 2:0.62912231 3:0.051094272 4:0.017996897 5:0.12514273 6:-0.24158316 7:0.94055656 8:0.92586049 9:0.14732896 10:2.0593097 
10 0:-0.11226129 1:-0.11427544 2:0.49538321 3:-0.16983909 4:-0.081305431 5:0.24772586 6:-0.72513809 7:0.83744001 8:0.80335653 9:0.085287427 10:2.0593097 
10 0:0.075586525 1:0.037712549 2:0.74903505 3:0.46883684 4:0.056558253 5:0.42145759 6:-0.026365096 7:0.96435458 8:0.9575231 9:0.026624719 10:2.0593097 
10 0:-0.17306168 1:0.048091338 2:0.54636055 3:-0.11284569 4:-0.098124153 5:0.099978284 6:-0.72440212 7:0.88274002 8:0.85715485 9:0.067963218 10:2.0593097 
10 0:0.13026842 1:0.0052841151 2:0.82980545 3:0.17385563 4:0.14141972 5:0.39332555 6:-0.13260515 7:0.94496504 8:0.93369168 9:0.053270675 10:2.0593097 
10 0:-0.023111338 1:0.07267535 2:0.69331297 3:0.12085299 4:-0.011571192 5:0.58146656 6:-0.34756714 7:0.89570708 8:0.8673544 9:0.080463248 10:2.0698717 
10 0:-0.019363744 1:-0.020068319 2:0.52164527 3:-0.16980064 4:-0.034420706 5:-0.2272456 6:-0.68813036 7:0.85543682 8:0.80490266 9:-0.066153655 10:2.0698717 
10 0:0.080987791 1:-0.0022083913 2:0.84754818 3:0.1852793 4:0.073339769 5:0.317688 6:-0.12584575 7:0.9295247 8:0.90641856 9:0.35812849 10:2.0698717 
10 0:-0.085360383 1:0.055879861 2:0.5295207 3:-0.099816694 4:0.031155695 5:0.353364 6:-0.65469426 7:0.94032747 8:0.93152084 9:-0.011498506 10:2.0698717 
10 0:0.0079330845 1:-0.065030479 2:0.69187588 3:0.074956233 4:0.038243311 5:-0.12148997 6:-0.325757 7:0.93144821 8:0.90030013 9:0.051136532 10:2.0698717 
10 0:-0.046938769 1:-0.0014616242 2:0.45340297 3:-0.14623972 4:-0.040148263 5:0.12323013 6:-0.64476006 7:0.89163599 8:0.84928514 9:0.42165314 10:2.0698717 
10 0:0.11879405 1:0.044726557 2:0.87106795 3:0.33774581 4:0.1069047 5:0.004187111 6:-0.13301606 7:0.96198468 8:0.96197982 9:0.047660411 10:2.0698717 
10 0:0.4227107 1:0.29826675 2:0.96813903 3:0.67619017 4:0.20972891 5:0.42955467 6:-0.080444959 7:0.99109259 8:0.98023088 9:0.1096986 10:2.0698717 
10 0:0.29247722 1:0.22161622 2:0.83000997 3:0.441002 4:0.18511035 5:0.71220087 6:-0.054778684 7:0.94773311 8:0.92722392 9:0.095739361 10:2.0698717 
10 0:0.081856326 1:0.014419727 2:0.6212486 3:0.12170272 4:0.19059132 5:0.15394727 6:-0.08632761 7:0.88395076 8:0.85623869 9:-0.078865837 10:2.0698717 
10 0:0.27442313 1:-0.022811186 2:0.86369079 3:0.14636226 4:0.018246383 5:0.25921252 6:-0.15094394 7:0.94289215 8:0.93512314 9:-0.086385454 10:2.5075065 
10 0:0.073449384 1:0.035939126 2:0.81320939 3:0.24533831 4:0.090361831 5:0.22213138 6:-0.073305879 7:0.89705564 8:0.87163673 9:0.1429114 10:2.0698717 
10 0:-0.076419745 1:0.023464845 2:0.61824705 3:-0.11049286 4:-0.059869586 5:0.038365811 6:-0.52112529 7:0.92873569 8:0.91500612 9:0.067678131 10:2.0698717 
10 0:0.017658483 1:-0.0036880851 2:0.75222501 3:0.20264676 4:-0.034823012 5:0.0099066434 6:-0.29587515 7:0.88238285 8:0.84516174 9:0.033057257 10:2.0698717 
10 0:-0.094007454 1:-0.069690034 2:0.58216983 3:-0.2563018 4:-0.19384501 5:0.33818642 6:-0.40284979 7:0.87988624 8:0.85434439 9:0.26711269 10:2.0698717 
10 0:-0.073133826 1:-0.028908396 2:0.51170715 3:-0.21706919 4:-0.050156368 5:-0.24770255 6:-0.85052874 7:0.91699556 8:0.89634025 9:0.065617769 10:2.0698717 
10 0:-0.036166509 1:-0.004537832 2:0.55917178 3:-0.16956317 4:-0.053554116 5:-0.15257341 6:-0.6604287 7:0.95154264 8:0.93091361 9:0.083690919 10:2.0698717 
10 0:0.13019809 1:0.034539145 2:0.73532881 3:0.3051704 4:0.10417723 5:0.23579848 6:-0.041666305 7:0.87463217 8:0.87609807 9:-0.018323608 10:2.0698717 
10 0:0.044759311 1:0.042041819 2:0.69948994 3:0.31731239 4:0.031771935 5:0.13860532 6:-0.047348494 7:0.95132405 8:0.93653858 9:0.11128953 10:2.0698717 
10 0:-0.1117589 1:-0.11888026 2:0.49004012 3:-0.32482659 4:-0.1124835 5:0.30446178 6:-0.74334269 7:0.84883513 8:0.80628132 9:0.061119308 10:2.0698717 
10 0:0.10266744 1:0.073766997 2:0.75409525 3:0.54985509 4:0.060785931 5:0.37435151 6:-0.10977698 7:0.96283163 8:0.95670384 9:0.20493585 10:2.0698717 
10 0:-0.16750447 1:0.020138441 2:0.57316479 3:-0.071860657 4:-0.071873519 5:0.11520516 6:-0.6602867 7:0.88645129 8:0.86894373 9:0.037400706 10:2.0698717 
10 0:0.21072784 1:0.054821765 2:0.86440948 3:0.23059158 4:0.13059467 5:0.37671635 6:-0.023401185 7:0.9525933 8:0.93728588 9:0.096721558 10:2.0698717 
10 0:-0.024602342 1:0.039987356 2:0.68057339 3:0.097397533 4:0.0016379631 5:0.54128658 6:-0.36608945 7:0.88788805 8:0.86647919 9:0.12438299 10:2.1739134 
10 0:-0.052462369 1:-0.034349908 2:0.47891832 3:-0.29801249 4:-0.048639902 5:-0.40264501 6:-0.82726883 7:0.85564568 8:0.80086737 9:-0.10285848 10:2.1739134 
10 0:0.064845423 1:0.013049766 2:0.82770444 3:0.14154765 4:0.046882781 5:0.29742251 6:-0.1468199 7:0.92735763 8:0.90188486 9:0.25313651 10:2.1739134 
10 0:-0.019174108 1:-0.019900944 2:0.52181282 3:-0.16912716 4:-0.032291376 5:-0.22819492 6:-0.68734636 7:0.85409225 8:0.80161132 9:-0.066149154 10:2.0590005 
10 0:-0.12786991 1:-0.019956827 2:0.54763279 3:-0.13110526 4:0.052713147 5:0.4171251 6:-0.60376772 7:0.94112111 8:0.93712356 9:-0.14309702 10:2.1739134 
10 0:0.03079776 1:-0.025153615 2:0.68948605 3:-0.07679828 4:0.0043705779 5:-0.096779031 6:-0.32900451 7:0.93398732 8:0.89945386 9:0.055104082 10:2.1739134 
10 0:-0.018707412 1:0.011601388 2:0.48141796 3:-0.077341335 4:-0.026410369 5:0.14758975 6:-0.59502664 7:0.89449908 8:0.85357106 9:0.42302473 10:2.1739134 
10 0:0.11818473 1:-0.018773936 2:0.87577874 3:0.25709987 4:0.084598373 5:0.0031132667 6:-0.1163891 7:0.96073494 8:0.96039563 9:0.10881076 10:2.1739134 
10 0:0.36038068 1:0.3247184 2:0.98112053 3:0.62411775 4:0.26679468 5:0.69529851 6:-0.017349065 7:0.98794776 8:0.98130664 9:0.081979698 10:2.1739134 
10 0:0.2887017 1:0.40236146 2:0.87016924 3:0.51441366 4:0.23794615 5:0.86989166 6:-0.017982071 7:0.96067599 8:0.94297445 9:0.15460539 10:2.1739134 
10 0:0.062577636 1:0.046180732 2:0.58427826 3:0.24059654 4:0.18460244 5:0.14475992 6:-0.24240908 7:0.87305727 8:0.84511879 9:-0.16564407 10:2.1739134 
10 0:0.037833765 1:-0.028801827 2:0.85379167 3:0.17434317 4:-0.03446604 5:0.18148309 6:-0.16979276 7:0.94268942 8:0.93311288 9:-0.018195819 10:2.0297063 
10 0:0.051996476 1:0.093505993 2:0.8575435 3:0.34476843 4:0.14346488 5:0.67608495 6:-0.015614144 7:0.95203817 8:0.94077012 9:-0.11579219 10:2.1739134 
10 0:0.084383338 1:0.0483139 2:0.82812799 3:0.31550858 4:0.086779431 5:0.20926021 6:-0.057687814 7:0.89619352 8:0.87210083 9:0.16179566 10:2.1739134 
10 0:-0.10651639 1:0.01847241 2:0.60497823 3:-0.16751568 4:-0.063008378 5:0.10587645 6:-0.57448686 7:0.92732807 8:0.91456806 9:0.12707792 10:2.1739134 
10 0:0.0063570717 1:-0.02695027 2:0.75468564 3:0.16971387 4:-0.041936918 5:0.0006607688 6:-0.28917377 7:0.88328311 8:0.84528276 9:0.025953697 10:2.1739134 
10 0:-0.045675866 1:-0.028419847 2:0.62429652 3:-0.072030555 4:-0.16387277 5:0.3947893 6:-0.2876447 7:0.89715058 8:0.86966435 9:0.27814128 10:2.1739134 
10 0:-0.082804422 1:-0.030810069 2:0.57498702 3:-0.12171494 4:-0.030962656 5:-0.20864183 6:-0.61647598 7:0.92680821 8:0.9105812 9:0.031491789 10:2.1739134 
10 0:-0.057414299 1:0.00056693121 2:0.59294 3:-0.11784988 4:-0.038764739 5:0.017149755 6:-0.56684603 7:0.95530802 8:0.93753047 9:0.080833564 10:2.1739134 
10 0:0.097277267 1:-0.0048952965 2:0.72801602 3:0.26925929 4:0.10020988 5:0.19089199 6:-0.060763521 7:0.86876667 8:0.86980035 9:-0.0096056512 10:2.1739134 
10 0:-0.13165835 1:-0.083252495 2:0.46994278 3:-0.32147652 4:-0.13648252 5:0.29431711 6:-0.81772263 7:0.85193536 8:0.80449773 9:0.075500097 10:2.1739134 
10 0:0.16329803 1:0.10733512 2:0.82837299 3:0.69568602 4:0.1032223 5:0.48352338 6:-0.019974541 7:0.9727041 8:0.96805485 9:0.035452565 10:2.1739134 
10 0:-0.094204734 1:-0.0093176123 2:0.52390807 3:-0.11379149 4:-0.071403892 5:0.099886564 6:-0.7913875 7:0.87209872 8:0.85971591 9:0.059064401 10:2.1739134 
10 0:0.14285714 1:0.0990753 2:0.89152719 3:0.26532915 4:0.13184925 5:0.4273714 6:-0.015096489 7:0.95625249 8:0.94102784 9:0.09268344 10:2.1739134 
10 0:0.0017395631 1:0.052998968 2:0.7226694 3:0.12653633 4:0.019730028 5:0.53562662 6:-0.27783578 7:0.89068657 8:0.87667393 9:0.21093677 10:2.4244193 
10 0:-0.049985126 1:-0.02072435 2:0.46895636 3:-0.36068439 4:-0.057376635 5:-0.29639524 6:-0.85242565 7:0.85854239 8:0.80252376 9:-0.094175264 10:2.4244193 
10 0:0.036837715 1:0.013049766 2:0.8601536 3:0.19804486 4:0.0378325 5:0.34011145 6:-0.07685655 7:0.93394636 8:0.90773608 9:0.24964415 10:2.4244193 
10 0:-0.051948539 1:-0.034063521 2:0.47903874 3:-0.29683023 4:-0.045678055 5:-0.40431797 6:-0.82632548 7:0.85430082 8:0.79759258 9:-0.10285274 10:2.1637114 
10 0:0.01315298 1:0.015135243 2:0.74850016 3:0.1593 4:0.034198229 5:0.12497207 6:-0.20291888 7:0.89329558 8:0.87022219 9:0.031958552 10:2.4244193 
10 0:-0.031825605 1:0.062020373 2:0.61475239 3:0.049162187 4:0.10279746 5:0.54146865 6:-0.40583749 7:0.94671943 8:0.94798977 9:-0.061385733 10:2.4244193 
10 0:-0.012132618 1:-0.0055217168 2:0.68948605 3:-0.13728748 4:-0.021116945 5:0.02289973 6:-0.58015308 7:0.93598947 8:0.89968243 9:0.058285616 10:2.4244193 
10 0:-0.017687038 1:0.018635188 2:0.510084 3:-0.035684419 4:-0.011929025 5:0.18079682 6:-0.54351667 7:0.89687032 8:0.85793162 9:0.53284393 10:2.4244193 
10 0:0.14163901 1:0.055218108 2:0.9083855 3:0.33129095 4:0.081613901 5:0.0066893451 6:-0.084032365 7:0.96465847 8:0.9638478 9:0.10112072 10:2.4244193 
10 0:0.1281871 1:0.19475825 2:0.64320667 3:0.37931465 4:0.23338262 5:0.22824936 6:-0.076690612 7:0.88848663 8:0.85921308 9:-0.18335875 10:2.4244193 
10 0:0.1655868 1:0.056682158 2:0.88412789 3:0.22116877 4:-0.049253916 5:0.1507149 6:-0.078771134 7:0.95089859 8:0.93909036 9:-0.0099512586 10:2.0422662 
10 0:0.09623685 1:0.09870123 2:0.86235996 3:0.42863313 4:0.13186081 5:0.70787485 6:-0.078087931 7:0.94995798 8:0.94032091 9:-0.4994521 10:2.4244193 
10 0:0.048214147 1:0.017685852 2:0.8116629 3:0.29532367 4:0.075569869 5:0.13284728 6:-0.14860343 7:0.89202962 8:0.86839694 9:0.24662105 10:2.4244193 
10 0:-0.097618302 1:0.055167381 2:0.62694761 3:-0.10635903 4:-0.049679239 5:0.16544782 6:-0.51812188 7:0.93103262 8:0.92244994 9:0.13404236 10:2.4244193 
10 0:0.015716174 1:0.027234241 2:0.78671033 3:0.48826873 4:-0.03982791 5:-0.0046068137 6:-0.41768153 7:0.88818192 8:0.85020387 9:0.038314098 10:2.4244193 
10 0:-0.047446079 1:0.16421611 2:0.61608694 3:-0.06657476 4:-0.14580248 5:0.39500985 6:-0.3070497 7:0.89581618 8:0.86891475 9:0.27856661 10:2.4244193 
10 0:-0.04079801 1:0.020159712 2:0.56457028 3:-0.074635994 4:-0.020116332 5:-0.21004061 6:-0.66036222 7:0.92430622 8:0.90981586 9:0.021190936 10:2.4244193 
10 0:0.20088925 1:0.12266848 2:0.84739017 3:0.64939222 4:0.1349574 5:0.62740428 6:-0.0060527979 7:0.97093035 8:0.96903074 9:-0.0074315707 10:2.4244193 
10 0:-0.0039693569 1:0.035467384 2:0.59718435 3:-0.036842873 4:-0.039741148 5:0.12485094 6:-0.61148343 7:0.88728065 8:0.8769961 9:0.045669059 10:2.4244193 
10 0:0.14258322 1:0.074636561 2:0.87491253 3:0.29333627 4:0.11396361 5:0.40987549 6:-0.079137134 7:0.95142864 8:0.9361732 9:0.08230161 10:2.4244193 
10 0:0.094681882 1:0.027610115 2:0.73413078 3:0.18723476 4:0.032281 5:0.48639279 6:-0.25277647 7:0.88764925 8:0.87461338 9:0.41999595 10:2.4717329 
10 0:0.012856869 1:0.050767904 2:0.69664307 3:0.20979943 4:-0.026842527 5:-0.28606039 6:-0.1403991 7:0.90153068 8:0.84567233 9:0.077478326 10:2.4717329 
10 0:0.029801154 1:0.025295998 2:0.86716291 3:0.2432177 4:0.028574371 5:0.37037111 6:-0.065288996 7:0.93301699 8:0.90815279 9:0.18554728 10:2.4717329 
10 0:-0.049495598 1:-0.020551531 2:0.4690665 3:-0.35925378 4:-0.053905559 5:-0.29762674 6:-0.85145477 7:0.85719295 8:0.79924218 9:-0.094169449 10:2.4148556 
10 0:0.013152744 1:-0.028468781 2:0.70763942 3:0.060326157 4:-0.00045371196 5:0.068538188 6:-0.35245523 7:0.88890754 8:0.86296841 9:0.07439771 10:2.4717329 
10 0:0.094112243 1:0.12127713 2:0.66549634 3:0.23360122 4:0.16245272 5:0.71883033 6:-0.23993241 7:0.95212552 8:0.95420162 9:0.067872325 10:2.4717329 
10 0:-0.054129538 1:0.022085886 2:0.7147136 3:0.2243977 4:-0.029930657 5:-0.031116875 6:-0.63913788 7:0.93961971 8:0.90416142 9:0.013442041 10:2.4717329 
10 0:-0.0095237629 1:-0.0015529186 2:0.46121357 3:-0.028440551 4:-0.0089756127 5:0.15091847 6:-0.58728422 7:0.88809245 8:0.85066983 9:-0.12966314 10:2.4717329 
10 0:0.48686254 1:0.51500369 2:0.82357507 3:0.92333752 4:0.53433996 5:0.17422496 6:-0.11220316 7:0.94805519 8:0.92826053 9:0.22206705 10:2.4717329 
10 0:0.12179344 1:0.073041757 2:0.90475791 3:0.27404481 4:-0.047777229 5:0.16884588 6:-0.023664945 7:0.95528119 8:0.94332254 9:0.068017129 10:2.1481838 
10 0:0.17609844 1:-0.023809647 2:0.83301511 3:0.29966923 4:0.094694536 5:0.67279912 6:-0.14795736 7:0.94533623 8:0.93451725 9:-0.43848256 10:2.4717329 
10 0:0.051511769 1:0.012220252 2:0.81753206 3:0.24769873 4:0.064243817 5:0.093439757 6:-0.17950092 7:0.89097197 8:0.86773425 9:0.13233954 10:2.4717329 
10 0:-0.001832164 1:0.018472061 2:0.63837496 3:-0.037888442 4:-0.033469688 5:0.20128995 6:-0.46825697 7:0.9311491 8:0.92525747 9:0.14152646 10:2.4717329 
10 0:0.016599027 1:0.012766099 2:0.76124249 3:0.35764982 4:-0.042691448 5:-0.013126156 6:-0.49695046 7:0.88683413 8:0.84715197 9:0.052054538 10:2.4717329 
10 0:-0.035584836 1:0.042135219 2:0.61072209 3:-0.040582212 4:-0.1339331 5:0.35550765 6:-0.29032252 7:0.89652586 8:0.86865377 9:0.27805851 10:2.4717329 
10 0:0.019945726 1:0.078737135 2:0.62680077 3:0.042760922 4:0.0092256586 5:-0.030319 6:-0.41795024 7:0.9360985 8:0.92102755 9:0.012403407 10:2.4717329 
10 0:0.16262379 1:0.029099818 2:0.77469563 3:0.25099367 4:0.10069427 5:0.32615927 6:-0 7:0.876492 8:0.8701178 9:-0.017008174 10:2.4717329 
10 0:0.23686333 1:0.11313761 2:0.840007 3:0.50962869 4:0.14181251 5:0.66059952 6:-0.051318389 7:0.96620122 8:0.96455662 9:-0.028319514 10:2.4717329 
10 0:0.054247233 1:0.044484365 2:0.63118309 3:0.089397238 4:-0.0033162674 5:0.14972316 6:-0.51866034 7:0.89147013 8:0.88392974 9:0.11025445 10:2.4717329 
10 0:0.10536372 1:0.065059513 2:0.90137228 3:0.34313264 4:0.10987478 5:0.44509973 6:-0.0039808943 7:0.95343544 8:0.94028782 9:-0.017211996 10:2.4717329 
10 0:0.083250468 1:0.028562162 2:0.72198118 3:0.21556713 4:0.035773954 5:0.36864324 6:-0.1417393 7:0.8813239 8:0.86852119 9:0.40106334 10:2.2406169 
10 0:0.01273106 1:0.050344644 2:0.69606043 3:0.20896734 4:-0.025181584 5:-0.28724584 6:-0.14023908 7:0.90011368 8:0.84221431 9:0.077474702 10:2.4627767 
10 0:0.054056008 1:0.016096048 2:0.77349428 3:0.26539925 4:0.0059653264 5:0.051405688 6:-0.15950015 7:0.90361276 8:0.87787174 9:0.08217554 10:2.2406169 
10 0:0.090588739 1:0.12235184 2:0.68165398 3:0.35797081 4:0.2056703 5:0.73552209 6:-0.18533039 7:0.95044664 8:0.95480813 9:0.31110008 10:2.2406169 
10 0:0.026417253 1:0.019457431 2:0.58590593 3:0.25144024 4:0.011465773 5:0.17871496 6:-0.23367628 7:0.90128752 8:0.86621442 9:0.3926729 10:2.2406169 
10 0:0.1276268 1:0.090004965 2:0.92602533 3:0.38267204 4:0.071455148 5:0.0077121998 6:-0.23681097 7:0.96484011 8:0.96201587 9:0.074391493 10:2.2406169 
10 0:0.48753394 1:0.072970748 2:0.97307621 3:0.39193935 4:0.27546877 5:0.76778551 6:-0.089452883 7:0.96275353 8:0.96419969 9:0.088648447 10:2.2406169 
10 0:0.30903275 1:0.023161213 2:0.84583386 3:0.3400338 4:0.22316556 5:0.85837842 6:-0.10840428 7:0.9324722 8:0.92290878 9:0.040223177 10:2.2406169 
10 0:0.091474385 1:0.13456207 2:0.93575266 3:0.54602275 4:-0.02296951 5:0.22325566 6:-0 7:0.95995384 8:0.95185594 9:0.11141939 10:2.4004495 
10 0:0.26572814 1:0.17662342 2:0.9195352 3:0.40055462 4:0.15175076 5:0.80521652 6:-0.10357533 7:0.9601026 8:0.95042011 9:-0.21171053 10:2.2406169 
10 0:0.09705286 1:0.035217176 2:0.85870055 3:0.30026315 4:0.064262267 5:0.14517359 6:-0.054632039 7:0.89750016 8:0.87346645 9:0.087490701 10:2.2406169 
10 0:0.02101363 1:0.034893702 2:0.80125511 3:0.73685136 4:-0.035707442 5:-0.017423444 6:-0.31666614 7:0.89153479 8:0.85326415 9:0.050362927 10:2.2406169 
10 0:0.049482114 1:0.056839323 2:0.66583806 3:0.12028911 4:-0.086470834 5:0.3318115 6:-0.1217983 7:0.90287482 8:0.88436074 9:0.25950143 10:2.2406169 
10 0:0.10305241 1:0.10992765 2:0.71289343 3:0.50152251 4:0.062407833 5:0.17633241 6:-0.063435903 7:0.94854313 8:0.93730365 9:0.16506052 10:2.2406169 
10 0:0.17202965 1:0.066902359 2:0.81925652 3:0.30816815 4:0.11269387 5:0.40756426 6:-0.011306032 7:0.88429608 8:0.87682773 9:0.060341129 10:2.2406169 
10 0:-0.10311553 1:0.062651463 2:0.55465773 3:-0.078022466 4:-0.069307818 5:0.3554847 6:-0.58034897 7:0.87805542 8:0.83788197 9:0.08636146 10:2.2406169 
10 0:0.25222271 1:0.060920045 2:0.86686442 3:0.46775516 4:0.15392136 5:0.71752017 6:-0.018616916 7:0.96715667 8:0.96630458 9:-0.025113613 10:2.2406169 
10 0:0.10029111 1:0.11181246 2:0.66042321 3:0.36251788 4:0.032738824 5:0.14199632 6:-0.24648784 7:0.89381016 8:0.88830166 9:0.041884763 10:2.2406169 
10 0:0.21436663 1:0.18406489 2:0.78611563 3:0.59874338 4:0.29615193 5:0.86842605 6:-0.069533608 7:0.96203766 8:0.97038593 9:0.15159885 10:2.3608411 
10 0:0.025963636 1:0.01224076 2:0.57751001 3:0.295375 4:0.023477283 5:0.17833548 6:-0.16602411 7:0.89691741 8:0.8635988 9:0.26802014 10:2.3608411 
10 0:0.091684704 1:0.024847983 2:0.90859738 3:0.31083727 4:0.051195099 5:0.0040745965 6:-0.2593049 7:0.96182456 8:0.95913022 9:0.029102784 10:2.3608411 
10 0:0.40049864 1:-0.01641863 2:0.97377152 3:0.3292445 4:0.23054809 5:0.55649325 6:-0.089539997 7:0.9595114 8:0.9571575 9:0.037389986 10:2.3608411 
10 0:0.20592537 1:-0.067665292 2:0.82523333 3:0.2513712 4:0.1622135 5:0.75107947 6:-0.16239293 7:0.92483621 8:0.9151214 9:0.12076291 10:2.3608411 
10 0:0.16636417 1:0.072119891 2:0.91174405 3:0.51533508 4:-0.029403729 5:0.22022566 6:-0.089171562 7:0.95280235 8:0.94615629 9:0.077981746 10:2.4494126 
10 0:0.38322295 1:0.2865798 2:0.96032519 3:0.58653859 4:0.22821716 5:0.9181007 6:-0.0012817088 7:0.96637477 8:0.95663339 9:-0.20237209 10:2.3608411 
10 0:0.01642239 1:0.019574298 2:0.80677485 3:0.58189172 4:-0.031119399 5:-0.020910649 6:-0.28333425 7:0.89008137 8:0.85348902 9:0.024162907 10:2.3608411 
10 0:0.044879221 1:0.11429632 2:0.69852448 3:0.32555157 4:-0.031610392 5:0.3108732 6:-0.062796571 7:0.90641436 8:0.89421485 9:0.1754039 10:2.3608411 
10 0:0.25949865 1:0.073767038 2:0.89291677 3:0.45374573 4:0.16961689 5:0.78327883 6:-0.024533534 7:0.96740771 8:0.9683018 9:-0.012483434 10:2.3608411 
10 0:0.016839465 1:0.015526468 2:0.7190734 3:0.21456708 4:0.028729372 5:-0.026015641 6:-0.12323413 7:0.88130287 8:0.8516113 9:0.079521038 10:1.9927114 
10 0:0.070294911 1:0.058828921 2:0.69992146 3:0.74071319 4:0.053356876 5:0.11404915 6:-0.40360027 7:0.91298106 8:0.88219455 9:0.089911015 10:1.9927114 
10 0:0.31391676 1:-0.034357053 2:0.9201979 3:0.23252213 4:0.15782306 5:0.43374248 6:-0.15303196 7:0.95242926 8:0.94515112 9:0.22754284 10:1.9927114 
10 0:0.20389159 1:-0.064032868 2:0.81202771 3:0.22218738 4:0.096651825 5:0.59544173 6:-0.18447361 7:0.92323334 8:0.90865383 9:0.14584032 10:1.9927114 
10 0:0.34530263 1:0.29696966 2:0.94188846 3:0.45302075 4:0.24512709 5:0.91907895 6:-0.051947261 7:0.95862045 8:0.94926137 9:-0.15423329 10:1.9927114 
10 0:-0.017273067 1:-0.013978977 2:0.61052074 3:0.063063569 4:-0.01131475 5:0.13558158 6:-0.53350696 7:0.9195768 8:0.92129848 9:0.036527687 10:1.9927114 
10 0:0.0180116 1:0.024680709 2:0.79797867 3:0.37082905 4:-0.030535993 5:-0.019168619 6:-0.30555671 7:0.88708242 8:0.85191918 9:0.028458741 10:1.9927114 
10 0:-0.086030281 1:-0.063742253 2:0.52463964 3:-0.12318312 4:-0.06356833 5:0.22965044 6:-0.68319585 7:0.85890302 8:0.83556741 9:0.072352548 10:1.9927114 
10 0:0.25828608 1:0.1085783 2:0.91129694 3:0.43165866 4:0.18144809 5:0.80088574 6:-0.050156364 7:0.96802634 8:0.96884909 9:0.040200917 10:1.9927114 
10 0:0.047711611 1:-0.00089152862 2:0.73120528 3:0.19085943 4:0.033139206 5:0.023140307 6:-0.07632579 7:0.87279005 8:0.85139997 9:0.080707377 10:1.9994919 
10 0:0.016674465 1:0.015396913 2:0.71834598 3:0.21371595 4:0.027091221 5:-0.026124955 6:-0.12309414 7:0.87991762 8:0.84812893 9:0.079517261 10:1.9853942 
10 0:-0.094123074 1:-0.1574773 2:0.55898978 3:-0.28908646 4:-0.062078289 5:-0.14717367 6:-0.92415622 7:0.85549822 8:0.83136283 9:0.20145361 10:1.9994919 
10 0:0.19277124 1:0.067239852 2:0.70383715 3:0.37341484 4:0.34555142 5:0.59147578 6:-0.36682667 7:0.93805976 8:0.9504686 9:0.14674954 10:1.9994919 
10 0:0.1138321 1:0.068603215 2:0.78592084 3:0.54073549 4:0.093582018 5:0.11908577 6:-0.17537769 7:0.92543307 8:0.89907871 9:0.056172445 10:1.9994919 
10 0:0.31861744 1:0.097184315 2:0.85423733 3:0.27970274 4:0.092959275 5:0.60049351 6:-0.028109214 7:0.9406353 8:0.92015751 9:0.00706411 10:1.9994919 
10 0:0.47971094 1:-0.064010191 2:0.81397866 3:0.1977096 4:0.81966181 5:0.21543882 6:-0.09285223 7:0.86973264 8:0.89230404 9:0.24997524 10:1.9994919 
10 0:0.33381188 1:0.18614727 2:0.96995741 3:0.43189612 4:0.27334553 5:0.91644235 6:-0.038231015 7:0.95997841 8:0.9526084 9:-0.16452877 10:1.9994919 
10 0:0.10184332 1:0.0045642814 2:0.70500719 3:0.30745478 4:0.12274574 5:0.23615512 6:-0.17681445 7:0.92671161 8:0.92579621 9:0.24513796 10:1.9994919 
10 0:0.10594059 1:0.017949312 2:0.81853286 3:0.2777702 4:0.11285003 5:0.39480042 6:-0.081678211 7:0.86964327 8:0.86622402 9:0.068433719 10:1.9994919 
10 0:0.3197252 1:0.10319123 2:0.9295138 3:0.40732735 4:0.19067602 5:0.83988169 6:-0.016512276 7:0.96873869 8:0.96866571 9:0.11726577 10:1.9994919 
10 0:0.04995036 1:-0.043795543 2:0.65354511 3:0.12564896 4:0.035968271 5:0.13076909 6:-0.32411601 7:0.86582301 8:0.84705603 9:0.53763462 10:1.3722604 
10 0:0.04531276 1:0.00026914059 2:0.73184885 3:0.193669 4:0.033349933 5:-0.059119936 6:-0.10894268 7:0.87010573 8:0.84821719 9:0.062070871 10:1.3722604 
10 0:-0.023454701 1:-0.09235103 2:0.60328048 3:-0.24811022 4:-0.091096736 5:0.0068335429 6:-0.59553115 7:0.91040409 8:0.8827304 9:0.21174198 10:1.3722604 
10 0:0.047244398 1:-0.00088410686 2:0.73043869 3:0.19010264 4:0.031236032 5:0.023233758 6:-0.076238327 7:0.87141824 8:0.84791851 9:0.080703556 10:1.992662 
10 0:0.15855883 1:-0.0078289666 2:0.73764568 3:0.28945869 4:0.33500661 5:0.55830206 6:-0.27432275 7:0.94125121 8:0.95434713 9:0.15198794 10:1.3722604 
10 0:0.13684813 1:0.081118159 2:0.80662142 3:0.45006676 4:0.12146402 5:0.12990664 6:-0.10801393 7:0.91810382 8:0.89842086 9:0.042597429 10:1.3722604 
10 0:0.007919433 1:-0.048040307 2:0.76653141 3:0.12176294 4:-0.021680145 5:0.00045779516 6:-0.50426048 7:0.95399595 8:0.94945542 9:-0.030511633 10:1.3722604 
10 0:0.33575357 1:0.12216106 2:0.85489738 3:0.2833677 4:0.073281009 5:0.63920437 6:-0.026178469 7:0.93889934 8:0.91311092 9:0.011716143 10:1.3722604 
10 0:0.53956775 1:-0.046960311 2:0.80398268 3:0.15996782 4:0.72353372 5:0.18757081 6:-0.1075726 7:0.86578075 8:0.87883098 9:0.18933462 10:1.3722604 
10 0:0.097724838 1:0.060298708 2:0.71607938 3:0.28852498 4:0.091710328 5:0.18726812 6:-0.13538911 7:0.89271397 8:0.89741065 9:0.1437548 10:1.3722604 
10 0:0.06104555 1:-0.016356023 2:0.69332858 3:0.25338102 4:0.11273914 5:0.099310318 6:-0.20741693 7:0.92111747 8:0.9219175 9:0.24379866 10:1.3722604 
10 0:0.069059441 1:-0.01522973 2:0.80587615 3:0.23283736 4:0.094479439 5:0.32074709 6:-0.11111096 7:0.86372164 8:0.86117932 9:0.071785159 10:1.3722604 
10 0:0.2485856 1:0.046415656 2:0.89613353 3:0.35356056 4:0.17219901 5:0.80931145 6:-0.063964891 7:0.9624415 8:0.96222861 9:0.1468583 10:1.3722604 
10 0:0.035303605 1:-0.10568022 2:0.73709585 3:-0.028132575 4:-0.063959099 5:0.022019221 6:-0.71037544 7:0.93434005 8:0.91875855 9:0.12771355 10:1.3722604 
0.004934167261191825 0:0.035536788 1:-0.052364122 2:0.63978732 3:0.049287345 4:0.015237612 5:0.06210656 6:-0.36765196 7:0.8643799 8:0.84310288 9:0.18635344 10:0.506947 
10 0:0.063500597 1:0.0083435668 2:0.74024745 3:0.16312389 4:0.032338352 5:-0.029001709 6:-0.080482742 7:0.87191 8:0.84564503 9:0.12245901 10:0.506947 
10 0:0.044868881 1:0.0002669394 2:0.73108007 3:0.19290087 4:0.031430129 5:-0.059367112 6:-0.10881815 7:0.86873812 8:0.84474873 9:0.062068157 10:1.3658895 
10 0:0.23153007 1:0.0027636315 2:0.78938631 3:0.33528671 4:0.35565801 5:0.73817927 6:-0.11961739 7:0.94744623 8:0.96155716 9:0.13747038 10:0.506947 
10 0:0.15034006 1:0.055631652 2:0.82378131 3:0.35640549 4:0.13891771 5:0.14085389 6:-0.049941925 7:0.91228664 8:0.89613519 9:0.044733959 10:0.506947 
10 0:0.31822293 1:0.043174137 2:0.89058353 3:0.21563961 4:0.021525493 5:0.42252704 6:-0.1099106 7:0.95623575 8:0.93311993 9:0.22968539 10:0.506947 
10 0:0.19663094 1:0.16848348 2:0.86458756 3:0.28811563 4:0.056907389 5:0.7043641 6:-0.010869483 7:0.93968541 8:0.91324069 9:0.03152078 10:0.506947 
10 0:0.58986315 1:-0.034586784 2:0.80865134 3:0.14010274 4:0.62602757 5:0.17443617 6:-0.093366807 7:0.86986246 8:0.86893917 9:-0.006003995 10:0.506947 
10 0:0.27664468 1:0.0506499 2:0.93336298 3:0.26881353 4:0.21803801 5:0.85351896 6:-0.089374853 7:0.94572934 8:0.9402625 9:0.35813647 10:0.506947 
10 0:0.061195954 1:-0.1005982 2:0.72076753 3:0.03525313 4:0.048744067 5:0.31175325 6:-0.50956609 7:0.8694228 8:0.85524369 9:0.10594209 10:0.506947 
10 0:0.016487932 1:-0.035696269 2:0.55585923 3:-0.077794188 4:-0.049314459 5:0.019675596 6:-0.62130638 7:0.91205068 8:0.90831711 9:-0.3230828 10:0.506947 
10 0:0.23076924 1:-0.057827659 2:0.69814682 3:0.17986116 4:0.076795792 5:0.16278727 6:-0.1629565 7:0.88454214 8:0.88575225 9:0.16986286 10:0.506947 
10 0:0.13538847 1:0.0079878253 2:0.73559651 3:0.22543746 4:0.11641254 5:0.16880383 6:-0.052703748 7:0.92853887 8:0.92646846 9:0.22375712 10:0.506947 
10 0:0.089108899 1:-0.010878464 2:0.80498229 3:0.16971605 4:0.07533577 5:0.32918763 6:-0.13824896 7:0.86244764 8:0.85684156 9:0.11221705 10:0.506947 
10 0:-0.24916079 1:-0.1226224 2:0.36319546 3:-0.45735825 4:-0.30498391 5:-0.58916489 6:-0.98469367 7:0.91770668 8:0.8764857 9:-0.14714591 10:0.506947 
10 0:0.24130901 1:0.020306295 2:0.89913499 3:0.30927595 4:0.14780489 5:0.83975906 6:-0.056648016 7:0.96037111 8:0.95913449 9:0.17536121 10:0.506947 
10 0:0.019157002 1:-0.064398846 2:0.72858079 3:-0.11075199 4:-0.10621268 5:-0.036863018 6:-0.68640662 7:0.93753022 8:0.91740414 9:0.038693447 10:0.506947 
10 0:0.06287858 1:0.0082739804 2:0.73945102 3:0.16247682 4:0.030474423 5:-0.029127356 6:-0.080391241 7:0.87053952 8:0.84218704 9:0.12245405 10:0.5010078 
10 0:-0.1059265 1:-0.20674861 2:0.4726535 3:-0.68638718 4:-0.14259441 5:0.13086409 6:-0.79871006 7:0.91314259 8:0.88099878 9:0.21138488 10:0.74340841 
10 0:0.15396826 1:0.030876084 2:0.84380784 3:0.30949231 4:0.14991448 5:0.14425212 6:-0.058382224 7:0.90620426 8:0.89495069 9:0.037962892 10:0.74340841 
10 0:0.11083408 1:-0.034052766 2:0.8978109 3:0.17530026 4:-0.024686615 5:0.44843551 6:-0.093211006 7:0.9583237 8:0.93359302 9:0.30806832 10:0.74340841 
10 0:-0.062451058 1:-0.25046058 2:0.65099846 3:-0.27362983 4:-0.2733121 5:0.0094167412 6:-0.91999931 7:0.92005167 8:0.90913495 9:0.14487113 10:1.3567233 
10 0:0.05439266 1:-0.075951245 2:0.72121502 3:0.090988681 4:0.016373384 5:0.15512647 6:-0.53200819 7:0.87786817 8:0.85340954 9:0.28764856 10:0.74340841 
10 0:-0.0070663164 1:-0.035197293 2:0.59076012 3:-0.016466134 4:-0.058021333 5:-0.06900186 6:-0.46637537 7:0.92132116 8:0.91506946 9:-0.27512203 10:0.74340841 
10 0:0.09504942 1:0.022572783 2:0.84299254 3:0.21624614 4:0.070117286 5:0.43035906 6:-0.0066779666 7:0.8729468 8:0.86373183 9:0.11197794 10:0.74340841 
10 0:0.29951506 1:0.053045948 2:0.93843316 3:0.38854199 4:0.15176845 5:0.88924689 6:-0.036705846 7:0.96664268 8:0.96421639 9:0.15997555 10:0.74340841 
1.323794432427768 0:0.04974853 1:-0.0201382 2:0.61501757 3:0.11020968 4:0.040159968 5:0.080595852 6:-0.41632624 7:0.87376507 8:0.86375154 9:0.091004492 10:0.74340841 
10 0:0.015656018 1:-0.0038083771 2:0.63239415 3:0.0034569429 4:-0.0049925844 5:-0.0065885282 6:-0.39122016 7:0.87127258 8:0.84174957 9:0.15087861 10:-0.41900861 
10 0:0.085467016 1:0.0087304577 2:0.6941807 3:0.16880285 4:0.036969441 5:0.12371705 6:-0.21706993 7:0.86878358 8:0.83591992 9:0.035379664 10:-0.41900861 
10 0:-0.092298235 1:-0.1535135 2:0.55746883 3:-0.39085623 4:-0.17954602 5:-0.6856135 6:-0.93818713 7:0.87904103 8:0.83639989 9:0.16977348 10:-0.41900861 
10 0:0.19834023 1:0.033773127 2:0.72045921 3:0.25309635 4:0.33180031 5:0.8474295 6:-0.26984054 7:0.93704767 8:0.94320592 9:0.18152894 10:-0.41900861 
10 0:-0.13999067 1:-0.22331327 2:0.43545796 3:-0.6392608 4:-0.2121221 5:0.087701915 6:-0.89677484 7:0.91468122 8:0.87683369 9:0.14562356 10:-0.41900861 
10 0:0.12981854 1:0.005937645 2:0.77561462 3:0.22826802 4:0.13932116 5:0.11683565 6:-0.14247473 7:0.89054126 8:0.87929582 9:0.060820964 10:-0.41900861 
10 0:0.012466071 1:-0.088780683 2:0.81568875 3:0.03299826 4:-0.09612846 5:0.46374571 6:-0.22961726 7:0.94887887 8:0.92388007 9:0.28132773 10:-0.41900861 
10 0:0.089166607 1:0.016803358 2:0.78701719 3:0.27121785 4:0.013266001 5:0.68403142 6:-0.18848103 7:0.92635595 8:0.90370036 9:0.079106919 10:-0.41900861 
10 0:-0.026950175 1:-0.16728122 2:0.67267096 3:-0.22481919 4:-0.32504692 5:-0.040136267 6:-0.839231 7:0.93010086 8:0.91401986 9:0.18250616 10:0.49250996 
10 0:0.19850619 1:-0.061039118 2:0.85447055 3:0.16218532 4:0.11850045 5:0.58337433 6:-0.25565846 7:0.94016895 8:0.93030166 9:0.12797401 10:-0.41900861 
8.534631253031391 0:0.022805395 1:-0.081468773 2:0.67569628 3:-0.017677693 4:-0.019265222 5:-0.0096527827 6:-0.6236483 7:0.87632457 8:0.84479837 9:0.23146312 10:-0.41900861 
10 0:0.039256732 1:-0.0024964046 2:0.63439845 3:0.31646041 4:-0.039157223 5:-0.18659015 6:-0.57256682 7:0.92894705 8:0.92278043 9:-0.030746605 10:-0.41900861 
10 0:-0.007769768 1:-0.07120573 2:0.58655309 3:-0.34396254 4:-0.068779578 5:-0.040526358 6:-0.95132704 7:0.86937762 8:0.8325056 9:0.071399831 10:-0.41900861 
10 0:0.13428352 1:0.022612346 2:0.71034116 3:0.20112993 4:0.08108876 5:0.11410624 6:-0.098018948 7:0.88924225 8:0.88391271 9:0.19056137 10:-0.41900861 
10 0:0.11242047 1:0.033853126 2:0.71391489 3:0.20182665 4:0.10987792 5:0.13436282 6:-0.2105235 7:0.92550717 8:0.9168573 9:0.18508888 10:-0.41900861 
10 0:-0.14059682 1:-0.11117405 2:0.37716133 3:-0.53968438 4:-0.14656334 5:-0.91143761 6:-0.99340682 7:0.93498237 8:0.90295975 9:0.18061467 10:-0.41900861 
10 0:0.18465347 1:0.1221104 2:0.93545238 3:0.4452527 4:0.10795701 5:0.59382413 6:-0.10805481 7:0.90368727 8:0.89492127 9:0.026737308 10:-0.41900861 
10 0:-0.27116765 1:-0.075575634 2:0.36872256 3:-0.30642741 4:-0.3148063 5:-0.53372418 6:-0.96748826 7:0.93216899 8:0.88907273 9:-0.044542973 10:-0.41900861 
10 0:0.24777699 1:0.10650607 2:0.95746588 3:0.41789565 4:0.15845606 5:0.93187252 6:-0.053571907 7:0.96846924 8:0.96585856 9:0.16302095 10:-0.41900861 
10 0:0.098574841 1:0.016905814 2:0.72080021 3:0.17219453 4:0.0337541 5:0.077128457 6:-0.13409415 7:0.87370095 8:0.836311 9:0.034368763 10:-0.28777882 
10 0:0.084629852 1:0.008657628 2:0.6932517 3:0.16813336 4:0.034825124 5:0.12421774 6:-0.21682338 7:0.86741803 8:0.83250173 9:0.03537776 10:-0.42416164 
10 0:0.17503963 1:-0.014277292 2:0.73817883 3:0.227801 4:0.28798142 5:0.68547009 6:-0.2383777 7:0.93795916 8:0.94363436 9:0.15977379 10:-0.28777882 
10 0:-0.079327905 1:-0.13374237 2:0.53216106 3:-0.37694475 4:-0.21410698 5:0.20349373 6:-0.72903252 7:0.93196528 8:0.88988043 9:0.12575673 10:-0.28777882 
10 0:0.14172334 1:0.011692692 2:0.80576617 3:0.21602573 4:0.13450134 5:0.11343711 6:-0.061936125 7:0.89590168 8:0.88120033 9:0.22013018 10:-0.28777882 
10 0:0.13069994 1:0.11762014 2:0.83032822 3:0.44175371 4:0.01938225 5:0.70097372 6:-0.023346526 7:0.94049459 8:0.91882627 9:0.13989158 10:-0.28777882 
10 0:0.4284825 1:-0.0075021423 2:0.76462777 3:0.09365324 4:0.33257837 5:0.11061506 6:-0.12138624 7:0.86848204 8:0.83915201 9:0.13371442 10:-0.28777882 
10 0:0.070464039 1:0.031453222 2:0.73952334 3:0.076519817 4:-0.02273864 5:-0.058634893 6:-0.47700525 7:0.89443006 8:0.85754478 9:0.1893754 10:-0.28777882 
5.525863442368178 0:0.063334142 1:0.099850192 2:0.68655902 3:0.34480739 4:0.0034711405 5:-0.1912139 6:-0.41423638 7:0.93834407 8:0.93266147 9:-0.059327076 10:-0.28777882 
10 0:-0.010065477 1:-0.018156227 2:0.61677092 3:-0.36839624 4:-0.074800187 5:-0.027875447 6:-0.73921681 7:0.88027305 8:0.83750984 9:0.13090386 10:-0.28777882 
10 0:0.13236644 1:0.016356023 2:0.73472959 3:0.20961056 4:0.10143049 5:0.074431595 6:-0.14086427 7:0.92767579 8:0.91693323 9:0.19326759 10:-0.28777882 
10 0:-0.15687169 1:-0.0090756639 2:0.43059737 3:-0.36729633 4:-0.14057061 5:-0.94535641 6:-0.88351681 7:0.94771037 8:0.91472941 9:0.19002956 10:-0.28777882 
10 0:0.21534649 1:0.17051939 2:0.96639105 3:0.52379398 4:0.14692945 5:0.72245463 6:-0.0069444486 7:0.90925214 8:0.90445289 9:0.014262393 10:-0.28777882 
9.995387478771258 0:-0.310332 1:0.0070069531 2:0.38798814 3:-0.24190022 4:-0.28975536 5:-0.47528163 6:-0.93694587 7:0.94159555 8:0.90052867 9:0.1369702 10:-0.28777882 
10 0:-0.01477813 1:0.033685767 2:0.75351439 3:-0.095180924 4:-0.12267585 5:-0.02084247 6:-0.54912479 7:0.94634633 8:0.92335577 9:-0.32353474 10:-0.28777882 
10 0:0.0059643404 1:0.00063484588 2:0.66954373 3:0.074018618 4:-0.0075587487 5:-0.017994314 6:-0.457546 7:0.88048744 8:0.84868159 9:0.11797292 10:-0.29325798 
10 0:0.044952052 1:-0.0091342712 2:0.73779871 3:0.17301337 4:0.032482727 5:0.14680676 6:-0.079395077 7:0.87500273 8:0.8379729 9:0.03356486 10:-0.29325798 
10 0:0.097609354 1:0.016764924 2:0.71979866 3:0.1715116 4:0.031796731 5:0.077437126 6:-0.13394184 7:0.8723277 8:0.83289124 9:0.034366886 10:-0.29257519 
9.995543990389992 0:0.1417367 1:-0.090267173 2:0.74063753 3:0.19073205 4:0.24584161 5:0.62232854 6:-0.2309583 7:0.93643813 8:0.94101344 9:0.18234958 10:-0.29325798 
10 0:0.19761894 1:0.033616452 2:0.86096306 3:0.34053081 4:0.1451041 5:0.022772698 6:-0.2566482 7:0.9096445 8:0.89126263 9:0.12605506 10:-0.29325798 
10 0:-0.097776144 1:-0.16951915 2:0.57114352 3:-0.51151283 4:-0.1773077 5:-0.012119012 6:-0.97169643 7:0.94806728 8:0.93657046 9:0.19847464 10:-0.29325798 
10 0:0.16148695 1:0.055404213 2:0.83927687 3:0.43890267 4:0.020886212 5:0.77846576 6:-0.0017364577 7:0.93966127 8:0.91943836 9:0.1760554 10:-0.29325798 
9.678362319707189 0:0.037468956 1:-0.11486727 2:0.75130091 3:0.074576696 4:0.2211263 5:0.079555114 6:-0.13879882 7:0.8661998 8:0.83592124 9:0.13778978 10:-0.29325798 
10 0:-0.13526816 1:0.0082949263 2:0.64874663 3:-0.23078603 4:-0.34971005 5:-0.0090648862 6:-0.87087072 7:0.94028693 8:0.91351893 9:0.16183226 10:-0.43146355 
10 0:0.075809518 1:0.044034137 2:0.75170354 3:0.12299943 4:-0.022795472 5:-0.12879086 6:-0.45958509 7:0.89796081 8:0.85797133 9:0.19988035 10:-0.29325798 
10 0:-0.15868005 1:0.0039705037 2:0.46347763 3:-0.28325748 4:-0.11994109 5:-0.69144623 6:-0.8131872 7:0.95572912 8:0.92412765 9:0.21316869 10:-0.29325798 
10 0:-0.315927 1:0.019018858 2:0.42473729 3:-0.19928037 4:-0.24309477 5:-0.33181313 6:-0.87881815 7:0.94930844 8:0.91527862 9:0.13725168 10:-0.29325798 
7.228195863461083 0:-0.049261155 1:-0.027410866 2:0.74484842 3:-0.17567561 4:-0.1300871 5:0.011339199 6:-0.5693144 7:0.94466458 8:0.92352167 9:-0.21082728 10:-0.29325798 
10 0:-0.0039760447 1:0.0034909541 2:0.62564336 3:-0.15143489 4:-0.017335244 5:-0.014465225 6:-0.62573423 7:0.87321854 8:0.84228214 9:0.30035148 10:-0.61065483 
10 0:0.030950634 1:0.025114812 2:0.75221448 3:0.21971837 4:0.031853573 5:0.21944178 6:-0.058416862 7:0.87512092 8:0.83990197 9:0.032134116 10:-0.61065483 
10 0:0.044511815 1:-0.0090580371 2:0.73675045 3:0.17232732 4:0.03059773 5:0.14740574 6:-0.079304546 7:0.87362747 8:0.83454639 9:0.033563037 10:-0.29772044 
