svm_type c_svc
kernel_type rbf
gamma 0.0769231
nr_class 2
total_sv 107
rho 1.14461
label 1 -1
nr_sv 52 55
SV
100 1:0.166667 2:1 3:-0.333333 4:-0.433962 5:-0.383562 6:-1 7:-1 8:0.0687023 9:-1 10:-0.903226 11:-1 12:-1 13:1 
4.033264406900288 1:0.333333 2:1 3:-1 4:-0.245283 5:-0.506849 6:-1 7:-1 8:0.129771 9:-1 10:-0.16129 12:0.333333 13:-1 
18.93875136242497 1:0.166667 2:1 3:0.333333 4:-0.358491 5:-0.52968 6:-1 7:1 8:0.206107 9:-1 10:-0.870968 12:-0.333333 13:1 
72.77878638199694 1:0.25 2:1 3:-1 4:0.245283 5:-0.328767 6:-1 7:1 8:-0.175573 9:-1 10:-1 11:-1 12:-1 13:-1 
71.98389843322956 1:-0.541667 2:1 3:1 4:0.0943396 5:-0.557078 6:-1 7:-1 8:0.679389 9:-1 10:-1 11:-1 12:-1 13:1 
15.7066120168419 1:0.25 2:1 3:0.333333 4:-0.396226 5:-0.579909 6:1 7:-1 8:-0.0381679 9:-1 10:-0.290323 12:-0.333333 13:0.5 
61.87179158407253 1:-0.375 2:1 3:1 4:-0.698113 5:-0.675799 6:-1 7:1 8:0.618321 9:-1 10:-1 11:-1 12:-0.333333 13:-1 
11.60142066315971 1:0.541667 2:1 3:-0.333333 4:0.245283 5:-0.452055 6:-1 7:-1 8:-0.251908 9:1 10:-1 12:1 13:0.5 
22.87132122832186 1:0.25 2:-1 3:1 4:0.509434 5:-0.438356 6:-1 7:-1 8:0.0992366 9:1 10:-1 12:-1 13:-1 
17.94423416756931 1:0.375 2:1 3:-0.333333 4:-0.509434 5:-0.292237 6:-1 7:1 8:-0.51145 9:-1 10:-0.548387 12:-0.333333 13:1 
55.52089985504811 1:0.208333 2:-1 3:-0.333333 4:-0.207547 5:-0.118721 6:1 7:1 8:0.236641 9:-1 10:-1 11:-1 12:0.333333 13:-1 
100 1:-0.25 2:1 3:0.333333 4:-0.735849 5:-0.465753 6:-1 7:-1 8:0.236641 9:-1 10:-1 11:-1 12:-1 13:-1 
13.12701393282463 1:0.208333 2:1 3:1 4:-0.0188679 5:-0.579909 6:-1 7:-1 8:-0.480916 9:-1 10:-0.354839 12:-0.333333 13:1 
18.87262116442156 1:-0.75 2:1 3:1 4:-0.509434 5:-0.671233 6:-1 7:-1 8:-0.0992366 9:1 10:-0.483871 12:-1 13:1 
93.04829240445736 1:0.208333 2:1 3:1 4:0.0566038 5:-0.342466 6:-1 7:1 8:-0.389313 9:1 10:-0.741935 11:-1 12:-1 13:1 
100 1:0.333333 2:-1 3:1 4:-0.320755 5:-0.0684932 6:-1 7:1 8:0.496183 9:-1 10:-1 11:-1 12:-1 13:-1 
29.65456983012763 1:0.0416667 2:1 3:1 4:-0.698113 5:-0.634703 6:-1 7:1 8:-0.435115 9:1 10:-1 12:-0.333333 13:-1 
100 1:0.208333 2:1 3:1 4:-0.886792 5:-0.506849 6:-1 7:-1 8:0.29771 9:-1 10:-0.967742 11:-1 12:-0.333333 13:1 
9.301737097493143 1:0.583333 2:1 3:1 4:-0.509434 5:-0.493151 6:-1 7:-1 8:-1 9:-1 10:-0.677419 12:-1 13:-1 
70.44902308518883 1:-0.208333 2:1 3:1 4:-0.433962 5:-0.324201 6:-1 7:1 8:0.450382 9:-1 10:-0.83871 12:-1 13:1 
58.37551630485691 1:0.25 2:1 3:1 4:-0.132075 5:-0.767123 6:-1 7:-1 8:0.389313 9:1 10:-1 11:-1 12:-0.333333 13:1 
100 1:0.291667 2:-1 3:1 4:0.207547 5:-0.182648 6:-1 7:1 8:0.374046 9:-1 10:-1 11:-1 12:-1 13:-1 
21.18523107083453 1:-0.291667 2:1 3:1 4:-0.509434 5:-0.438356 6:-1 7:1 8:0.114504 9:-1 10:-0.741935 11:-1 12:-1 13:1 
1.43885293641994 1:0.125 2:1 3:1 4:-0.320755 5:-0.283105 6:1 7:1 8:-0.51145 9:1 10:-0.483871 11:1 12:-1 13:1 
49.60304801179552 1:-0.166667 2:1 3:0.333333 4:-0.509434 5:-0.716895 6:-1 7:-1 8:0.0381679 9:-1 10:-0.354839 12:1 13:1 
0.8453316660034165 1:0.375 2:1 3:1 4:-0.509434 5:-0.356164 6:-1 7:-1 8:-0.572519 9:1 10:-0.419355 12:0.333333 13:1 
1.533790293699756 1:0.291667 2:1 3:1 4:-0.566038 5:-0.525114 6:1 7:-1 8:0.358779 9:1 10:-0.548387 11:-1 12:0.333333 13:1 
9.090557473167276 1:0.541667 2:1 3:1 4:-0.660377 5:-0.607306 6:-1 7:1 8:-0.0687023 9:1 10:-0.967742 11:-1 12:-0.333333 13:-1 
6.493239169602402 1:0.125 2:1 3:1 4:-0.415094 5:-0.438356 6:1 7:1 8:0.114504 9:1 10:-0.612903 12:-0.333333 13:-1 
8.813377141779601 1:-0.125 2:1 3:0.333333 4:-0.132075 5:-0.511416 6:-1 7:-1 8:0.40458 9:-1 10:-0.806452 12:-0.333333 13:1 
56.84589524602021 1:-0.0416667 2:1 3:1 4:-0.660377 5:-0.525114 6:-1 7:-1 8:0.358779 9:-1 10:-1 11:-1 12:-0.333333 13:-1 
8.331805946922776 1:-0.541667 2:1 3:1 4:-0.698113 5:-0.812785 6:-1 7:1 8:-0.343511 9:1 10:-0.354839 12:-1 13:1 
1.064306068076205 1:0.208333 2:1 3:0.333333 4:-0.283019 5:-0.552511 6:-1 7:1 8:0.557252 9:-1 10:0.0322581 11:-1 12:0.333333 13:1 
16.13359683853637 1:0.375 2:-1 3:1 4:0.0566038 5:-0.461187 6:-1 7:-1 8:0.267176 9:1 10:-0.548387 12:-1 13:-1 
33.52727059849093 1:0.5 2:1 3:-1 4:-0.169811 5:-0.287671 6:1 7:1 8:0.572519 9:-1 10:-0.548387 12:-0.333333 13:-1 
7.288519646940447 1:0.666667 2:1 3:0.333333 4:-0.132075 5:-0.415525 6:-1 7:1 8:0.145038 9:-1 10:-0.354839 12:1 13:1 
1.528132964079471 1:0.375 2:-1 3:1 4:-0.169811 5:-0.232877 6:1 7:-1 8:-0.465649 9:-1 10:-0.387097 12:1 13:-1 
69.81484792266504 1:-0.291667 2:1 3:0.333333 4:0.0566038 5:-0.520548 6:-1 7:-1 8:0.160305 9:-1 10:0.16129 12:-1 13:-1 
37.72378807342781 1:0.583333 2:1 3:1 4:-0.415094 5:-0.415525 6:1 7:-1 8:0.40458 9:-1 10:-0.935484 12:0.333333 13:1 
19.92064810411098 1:-0.5 2:1 3:1 4:-0.698113 5:-0.789954 6:-1 7:1 8:0.328244 9:-1 10:-1 11:-1 12:-1 13:1 
3.056508570872842 1:0.708333 2:1 3:1 4:-0.0377358 5:-0.780822 6:-1 7:-1 8:-0.175573 9:1 10:-0.16129 11:1 12:-1 13:1 
5.510012674598046 1:-0.75 2:1 3:1 4:-0.396226 5:-0.287671 6:-1 7:1 8:0.29771 9:1 10:-1 11:-1 12:-1 13:1 
48.75687587853839 1:0.458333 2:1 3:0.333333 4:-0.415094 5:-0.164384 6:-1 7:-1 8:-0.0839695 9:1 10:-0.419355 12:-1 13:1 
65.42237843787946 1:0.25 2:1 3:-1 4:0.433962 5:-0.260274 6:-1 7:1 8:0.343511 9:-1 10:-0.935484 12:-1 13:1 
24.52704097050216 1:0.375 2:-1 3:0.333333 4:-0.320755 5:-0.374429 6:-1 7:-1 8:-0.603053 9:-1 10:-0.612903 12:-0.333333 13:1 
31.30101971273182 1:-0.583333 2:1 3:1 4:-0.54717 5:-0.575342 6:-1 7:-1 8:0.0534351 9:-1 10:-0.612903 12:-1 13:1 
15.4094795978469 1:0.375 2:-1 3:1 4:-0.132075 5:-0.351598 6:-1 7:1 8:0.358779 9:-1 10:0.16129 11:1 12:0.333333 13:-1 
76.46029141741663 1:0.291667 2:1 3:0.333333 4:-0.132075 5:-0.730594 6:-1 7:1 8:0.282443 9:-1 10:-0.0322581 12:-1 13:-1 
0.6491352254919714 1:-0.375 2:1 3:1 4:-0.660377 5:-0.251142 6:-1 7:1 8:0.251908 9:-1 10:-1 11:-1 12:-0.333333 13:-1 
100 1:0.458333 2:1 3:0.333333 4:-0.132075 5:-0.0456621 6:-1 7:-1 8:0.328244 9:-1 10:-1 11:-1 12:-1 13:-1 
69.39103396195159 1:0.208333 2:1 3:-0.333333 4:-0.509434 5:-0.278539 6:-1 7:1 8:0.358779 9:-1 10:-0.419355 12:-1 13:-1 
60.76462703523501 1:-0.208333 2:1 3:-0.333333 4:-0.698113 5:-0.52968 6:-1 7:-1 8:0.480916 9:-1 10:-0.677419 11:1 12:-1 13:1 
-4.122582026735103 1:0.583333 2:-1 3:0.333333 4:-0.603774 5:1 6:-1 7:1 8:0.358779 9:-1 10:-0.483871 12:-1 13:1 
-72.7385179283241 1:0.458333 2:1 3:1 4:-0.358491 5:-0.374429 6:-1 7:-1 8:-0.480916 9:1 10:-0.935484 12:-0.333333 13:1 
-90.09172791833376 1:0.25 2:1 3:1 4:-0.226415 5:-0.506849 6:-1 7:-1 8:0.374046 9:-1 10:-0.83871 12:-1 13:1 
-100 2:1 3:1 4:-0.0943396 5:-0.543379 6:-1 7:1 8:-0.389313 9:1 10:-1 11:-1 12:-1 13:1 
-98.63378785164085 1:0.166667 2:-1 3:1 4:-0.358491 5:-0.191781 6:-1 7:1 8:0.343511 9:-1 10:-1 11:-1 12:-0.333333 13:-1 
-5.63218122358836 1:0.75 2:-1 3:1 4:-0.660377 5:-0.894977 6:-1 7:-1 8:-0.175573 9:-1 10:-0.483871 12:-1 13:-1 
-15.11407706654698 1:0.458333 2:1 3:-1 4:-0.698113 5:-0.611872 6:-1 7:1 8:0.114504 9:1 10:-0.419355 12:-1 13:-1 
-6.374678414148701 1:-0.541667 2:1 3:-1 4:-0.132075 5:-0.666667 6:-1 7:-1 8:0.633588 9:1 10:-0.548387 11:-1 12:-1 13:1 
-25.7568077379049 1:-0.25 2:1 3:1 4:-0.660377 5:-0.643836 6:-1 7:-1 8:0.0992366 9:-1 10:-0.967742 11:-1 12:-1 13:-1 
-2.054646488441686 1:0.0416667 2:-1 3:-0.333333 4:-0.283019 5:-0.260274 6:1 7:1 8:0.343511 9:1 10:-1 11:-1 12:-0.333333 13:-1 
-3.181102895771871 1:-0.291667 2:-1 3:1 4:-0.169811 5:-0.465753 6:-1 7:1 8:0.236641 9:1 10:-1 12:-1 13:-1 
-4.447564327465766 1:0.75 2:-1 3:0.333333 4:-0.698113 5:-0.365297 6:1 7:1 8:-0.0992366 9:-1 10:-1 11:-1 12:-0.333333 13:-1 
-7.00723004312969 1:0.541667 2:1 3:1 4:0.245283 5:-0.534247 6:-1 7:1 8:0.0229008 9:-1 10:-0.258065 11:-1 12:-1 13:0.5 
-30.48899674352752 1:0.5 2:-1 3:0.333333 4:-0.132075 5:0.328767 6:1 7:1 8:0.312977 9:-1 10:-0.741935 11:-1 12:-0.333333 13:-1 
-97.58330876882877 1:0.708333 2:1 3:-0.333333 4:0.169811 5:-0.456621 6:-1 7:1 8:0.0992366 9:-1 10:-1 11:-1 12:-1 13:-1 
-32.25806901065678 1:-0.333333 2:1 3:1 4:-0.811321 5:-0.625571 6:-1 7:1 8:0.175573 9:1 10:-0.0322581 12:-1 13:-1 
-44.72913282355702 1:-0.5 2:1 3:0.333333 4:-0.320755 5:-0.598174 6:-1 7:1 8:0.480916 9:-1 10:-0.354839 12:-1 13:-1 
-18.07654521677131 1:0.166667 2:1 3:1 4:-0.698113 5:-0.657534 6:-1 7:-1 8:-0.160305 9:1 10:-0.516129 12:-1 13:0.5 
-19.39222134037104 1:-0.458333 2:1 3:-1 4:0.0188679 5:-0.461187 6:-1 7:1 8:0.633588 9:-1 10:-0.741935 11:-1 12:0.333333 13:-1 
-35.75725154832532 1:0.25 2:1 3:-1 4:0.584906 5:-0.342466 6:-1 7:1 8:0.129771 9:-1 10:0.354839 11:1 12:-1 13:1 
-36.35279783142839 1:0.541667 2:1 3:1 4:-0.509434 5:-0.196347 6:-1 7:1 8:0.221374 9:-1 10:-0.870968 12:-1 13:-1 
-10.61207163594864 1:0.458333 2:-1 3:0.333333 4:-0.132075 5:-0.146119 6:-1 7:-1 8:-0.0534351 9:-1 10:-0.935484 11:-1 12:-1 13:1 
-13.52946620994384 1:0.541667 2:-1 3:-1 4:0.0566038 5:-0.543379 6:-1 7:-1 8:-0.343511 9:-1 10:-0.16129 11:1 12:-1 13:-1 
-32.77336474559247 1:0.5 2:-1 3:0.333333 4:0.245283 5:0.0684932 6:-1 7:1 8:0.221374 9:-1 10:-0.741935 11:-1 12:-1 13:-1 
-30.79893678502048 1:0.0416667 2:1 3:0.333333 4:-0.415094 5:-0.328767 6:-1 7:1 8:0.236641 9:-1 10:-0.83871 11:1 12:-0.333333 13:-1 
-57.9098704231078 1:0.0416667 2:1 3:0.333333 4:0.0566038 5:-0.515982 6:-1 7:1 8:0.435115 9:-1 10:-0.483871 11:-1 12:-1 13:1 
-30.64394113585744 1:0.166667 2:1 3:1 4:-0.283019 5:-0.630137 6:-1 7:-1 8:0.480916 9:1 10:-1 11:-1 12:-1 13:1 
-0.3908591546147628 1:-0.0833333 2:1 3:-1 4:-0.415094 5:-0.60274 6:-1 7:1 8:-0.175573 9:1 10:-0.548387 11:-1 12:-0.333333 13:-1 
-7.935014755117932 1:0.458333 2:-1 3:1 4:-0.320755 5:-0.191781 6:-1 7:-1 8:-0.221374 9:-1 10:-0.354839 12:0.333333 13:-1 
-20.34462540355214 1:0.125 2:1 3:-1 4:-0.509434 5:-0.694064 6:-1 7:1 8:0.389313 9:-1 10:-0.387097 12:-1 13:1 
-38.12921702950948 1:0.0833333 2:1 3:-0.333333 4:-0.320755 5:-0.378995 6:-1 7:-1 8:0.282443 9:-1 10:-1 11:-1 12:-1 13:-1 
-100 1:-0.416667 2:1 3:1 4:-0.698113 5:-0.611872 6:-1 7:-1 8:0.374046 9:-1 10:-1 11:-1 12:-1 13:1 
-32.34307067369551 1:0.458333 2:-1 3:1 4:0.622642 5:-0.0913242 6:-1 7:-1 8:0.267176 9:1 10:-1 11:-1 12:-1 13:-1 
-38.03853955770983 1:0.666667 2:1 3:-1 4:0.245283 5:-0.506849 6:1 7:1 8:-0.0839695 9:-1 10:-0.967742 12:-0.333333 13:-1 
-18.11298590430903 1:-0.458333 2:1 3:0.333333 4:-0.509434 5:-0.479452 6:1 7:-1 8:0.877863 9:-1 10:-0.741935 11:1 12:-1 13:1 
-14.89721709071173 2:1 3:0.333333 4:-0.320755 5:-0.452055 6:1 7:1 8:0.557252 9:-1 10:-1 11:-1 12:1 13:-1 
-47.44501557451711 1:-0.416667 2:1 3:0.333333 4:-0.320755 5:-0.136986 6:-1 7:-1 8:0.389313 9:-1 10:-0.387097 11:-1 12:-0.333333 13:-1 
-34.54152781621522 1:-0.0416667 2:1 3:1 4:-0.735849 5:-0.511416 6:1 7:-1 8:0.160305 9:-1 10:-0.967742 11:-1 12:1 13:1 
-28.69705310968903 1:0.375 2:-1 3:1 4:-0.132075 5:0.223744 6:-1 7:1 8:0.312977 9:-1 10:-0.612903 12:-1 13:-1 
-95.54776545384475 1:0.0416667 2:1 3:1 4:-0.132075 5:-0.484018 6:-1 7:-1 8:0.358779 9:-1 10:-0.612903 11:-1 12:-1 13:-1 
-42.85365090262569 1:0.0416667 2:1 3:-0.333333 4:-0.735849 5:-0.164384 6:-1 7:-1 8:0.29771 9:-1 10:-1 11:-1 12:-1 13:1 
-62.27011195969541 1:0.625 2:1 3:0.333333 4:-0.54717 5:-0.310502 6:-1 7:-1 8:0.221374 9:-1 10:-0.677419 11:-1 12:-0.333333 13:1 
-5.865105495633538 1:-0.0416667 2:1 3:-1 4:0.0943396 5:-0.214612 6:1 7:-1 8:0.633588 9:-1 10:-0.612903 12:-1 13:1 
-0.1958510525260418 1:0.208333 2:1 3:0.333333 4:-0.792453 5:-0.479452 6:-1 7:1 8:0.267176 9:1 10:-0.806452 12:-1 13:1 
-29.8905519123237 1:-0.666667 2:1 3:0.333333 4:-0.320755 5:-0.43379 6:-1 7:-1 8:0.770992 9:-1 10:0.129032 11:1 12:-1 13:-1 
-15.42246392670249 1:-0.0833333 2:1 3:0.333333 4:-1 5:-0.538813 6:-1 7:-1 8:0.267176 9:1 10:-1 11:-1 12:-0.333333 13:1 
-100 1:0.0416667 2:1 3:0.333333 4:-0.509434 5:-0.39726 6:-1 7:1 8:0.160305 9:-1 10:-0.870968 12:-1 13:1 
-72.77645622003529 1:-0.5 2:1 3:-0.333333 4:-0.226415 5:-0.648402 6:-1 7:-1 8:-0.0687023 9:-1 10:-1 12:-1 13:0.5 
-8.885813325104222 1:0.208333 2:-1 3:-1 4:0.0566038 5:-0.283105 6:1 7:1 8:0.389313 9:-1 10:-0.677419 11:-1 12:-1 13:-1 
-42.37699620228268 1:-0.333333 2:1 3:1 4:-0.603774 5:-0.388128 6:-1 7:1 8:0.740458 9:-1 10:-1 11:-1 12:-1 13:-1 
-87.38233508330219 1:0.375 2:1 3:0.333333 4:-0.320755 5:-0.520548 6:-1 7:-1 8:0.145038 9:-1 10:-0.419355 12:1 13:1 
-48.58887994193576 2:-1 3:1 4:-0.169811 5:-0.506849 6:-1 7:1 8:0.358779 9:-1 10:-1 11:-1 12:-1 13:-1 
-39.83757110893377 1:-0.0416667 2:1 3:-0.333333 4:-0.509434 5:-0.0913242 6:-1 7:-1 8:0.541985 9:-1 10:-0.935484 11:-1 12:-1 13:-1 
-33.65798029615058 1:-0.0833333 2:1 3:0.333333 4:-0.698113 5:-0.776256 6:-1 7:-1 8:-0.206107 9:-1 10:-0.806452 11:-1 12:-1 13:-1 
-6.022859482866018 1:0.333333 2:1 3:0.333333 4:0.0566038 5:-0.465753 6:1 7:-1 8:0.00763359 9:1 10:-0.677419 12:-1 13:-1 
